{
  "type": "LSTMTimeStep",
  "options": {
    "inputSize": 1,
    "hiddenSizes": [
      20
    ],
    "outputSize": 1,
    "learningRate": 0.01,
    "decayRate": 0.999,
    "smoothEps": 1e-8,
    "regc": 0.000001,
    "clipval": 5,
    "json": null,
    "dataFormatter": null
  },
  "input": {
    "rows": 1,
    "columns": 1,
    "weights": {
      "0": -0.020879779011011124
    }
  },
  "hiddenLayers": [
    {
      "weight": {
        "rows": 20,
        "columns": 1,
        "weights": {
          "0": 0.009393738582730293,
          "1": 0.027327366173267365,
          "2": 0.029322411864995956,
          "3": 0.07655429095029831,
          "4": 0.06177378073334694,
          "5": 0.06714337319135666,
          "6": -0.019885828718543053,
          "7": -0.022884152829647064,
          "8": 0.019743243232369423,
          "9": 0.0016743263695389032,
          "10": 0.07852616161108017,
          "11": -0.04199175909161568,
          "12": 0.030990207567811012,
          "13": 0.0001849073451012373,
          "14": 0.06380774080753326,
          "15": -0.0024005055893212557,
          "16": 0.004236049018800259,
          "17": -0.06737756729125977,
          "18": -0.06333628296852112,
          "19": -0.027591556310653687
        }
      },
      "transition": {
        "rows": 20,
        "columns": 20,
        "weights": {
          "0": -0.055399782955646515,
          "1": 0.04097604379057884,
          "2": 0.03760959208011627,
          "3": 0.019866596907377243,
          "4": -0.019894836470484734,
          "5": -0.04728180170059204,
          "6": -0.010013663209974766,
          "7": -0.05875638127326965,
          "8": -0.0004556051571853459,
          "9": -0.07344506680965424,
          "10": -0.017308836802840233,
          "11": 0.009632332250475883,
          "12": -0.07183603197336197,
          "13": -0.03559394180774689,
          "14": 0.0434534065425396,
          "15": 0.05682183802127838,
          "16": -0.03351679816842079,
          "17": 0.01657419465482235,
          "18": 0.008212451823055744,
          "19": 0.011401698924601078,
          "20": 0.047564465552568436,
          "21": 0.078957699239254,
          "22": -0.07564593851566315,
          "23": 0.036488261073827744,
          "24": -0.05332823470234871,
          "25": 0.008525021374225616,
          "26": 0.044446058571338654,
          "27": 0.028975605964660645,
          "28": -0.02107216604053974,
          "29": 0.004040170460939407,
          "30": 0.06524916738271713,
          "31": -0.05839250236749649,
          "32": 0.04153938591480255,
          "33": -0.04163454845547676,
          "34": -0.006636610254645348,
          "35": 0.027276311069726944,
          "36": 0.015172400511801243,
          "37": -0.007738374639302492,
          "38": -0.049022067338228226,
          "39": 0.05330264940857887,
          "40": 0.0480041578412056,
          "41": 0.06624549627304077,
          "42": 0.07359334081411362,
          "43": 0.07642928510904312,
          "44": -0.022214101627469063,
          "45": 0.06312839686870575,
          "46": -0.05943765863776207,
          "47": 0.01332014799118042,
          "48": 0.07126812636852264,
          "49": -0.007946791127324104,
          "50": -0.04177034646272659,
          "51": -0.07053938508033752,
          "52": 0.05874413624405861,
          "53": 0.0646669790148735,
          "54": 0.07218252122402191,
          "55": 0.013062281534075737,
          "56": -0.05435391515493393,
          "57": 0.017201948910951614,
          "58": 0.06889794766902924,
          "59": 0.0592244528234005,
          "60": 0.039413418620824814,
          "61": -0.06685096770524979,
          "62": 0.014870703220367432,
          "63": 0.015049485489726067,
          "64": -0.05784321576356888,
          "65": -0.07007739692926407,
          "66": -0.030206261202692986,
          "67": -0.018153490498661995,
          "68": 0.04918396472930908,
          "69": 0.07749579101800919,
          "70": -0.011911856941878796,
          "71": 0.06765527278184891,
          "72": -0.033700041472911835,
          "73": 0.015100378543138504,
          "74": -0.05037631839513779,
          "75": -0.06312523037195206,
          "76": 0.03297565132379532,
          "77": 0.027955487370491028,
          "78": -0.0290111992508173,
          "79": -0.06451232731342316,
          "80": -0.04420125111937523,
          "81": -0.05805634334683418,
          "82": -0.019379353150725365,
          "83": 0.05152680352330208,
          "84": -0.04388460889458656,
          "85": 0.030657630413770676,
          "86": -0.037204012274742126,
          "87": -0.06760334968566895,
          "88": 0.03410923108458519,
          "89": 0.02656432054936886,
          "90": 0.005074316635727882,
          "91": -0.05289025232195854,
          "92": -0.07096770405769348,
          "93": -0.006880674045532942,
          "94": 0.030029421672225,
          "95": -0.015583530068397522,
          "96": 0.06855509430170059,
          "97": -0.006114156451076269,
          "98": 0.05784004554152489,
          "99": 0.0732327550649643,
          "100": 0.0556965135037899,
          "101": 0.04083126410841942,
          "102": 0.03314157947897911,
          "103": 0.020476242527365685,
          "104": -0.029893673956394196,
          "105": 0.03189734369516373,
          "106": -0.0010277085239067674,
          "107": -0.05954685062170029,
          "108": 0.020536286756396294,
          "109": -0.003823205130174756,
          "110": -0.07592608779668808,
          "111": -0.024984855204820633,
          "112": 0.014504149556159973,
          "113": 0.02910536155104637,
          "114": 0.022099466994404793,
          "115": 0.000019939263438573107,
          "116": 0.012955312617123127,
          "117": -0.07016558200120926,
          "118": 0.02238030917942524,
          "119": 0.046068038791418076,
          "120": -0.06317557394504547,
          "121": -0.044893719255924225,
          "122": -0.022242551669478416,
          "123": 0.01032846700400114,
          "124": 0.014178255572915077,
          "125": 0.044706180691719055,
          "126": -0.06829405575990677,
          "127": 0.030874107033014297,
          "128": 0.06412392109632492,
          "129": -0.01276585552841425,
          "130": -0.05987548828125,
          "131": 0.0741828978061676,
          "132": 0.05102315545082092,
          "133": -0.002129803877323866,
          "134": -0.0017680092714726925,
          "135": 0.07551264017820358,
          "136": -0.07878753542900085,
          "137": 0.07596179842948914,
          "138": 0.07851783186197281,
          "139": 0.04351246729493141,
          "140": 0.06960868090391159,
          "141": 0.04481399431824684,
          "142": 0.0543375238776207,
          "143": 0.06650789082050323,
          "144": 0.0768967792391777,
          "145": -0.014345736242830753,
          "146": 0.05872339382767677,
          "147": -0.07567720860242844,
          "148": 0.06826277077198029,
          "149": -0.03954395279288292,
          "150": 0.007072323001921177,
          "151": 0.05632489547133446,
          "152": -0.04168546572327614,
          "153": -0.001755732810124755,
          "154": 0.0658048540353775,
          "155": 0.025405554100871086,
          "156": 0.07325655966997147,
          "157": -0.008916339837014675,
          "158": 0.02755470760166645,
          "159": 0.040738970041275024,
          "160": 0.03684568032622337,
          "161": -0.07278740406036377,
          "162": -0.07935947924852371,
          "163": 0.04791268706321716,
          "164": 0.01615341752767563,
          "165": -0.025435691699385643,
          "166": -0.02708112634718418,
          "167": 0.040547169744968414,
          "168": 0.0484653115272522,
          "169": 0.0664670318365097,
          "170": -0.0541001558303833,
          "171": -0.0014912944752722979,
          "172": 0.07158245891332626,
          "173": 0.03387508913874626,
          "174": -0.038008611649274826,
          "175": 0.02337971143424511,
          "176": 0.004965307656675577,
          "177": 0.03360098600387573,
          "178": -0.037700165063142776,
          "179": 0.01972295343875885,
          "180": -0.0330013670027256,
          "181": -0.061737317591905594,
          "182": 0.0638655573129654,
          "183": 0.008010149002075195,
          "184": 0.06137112155556679,
          "185": -0.05867455154657364,
          "186": -0.035381995141506195,
          "187": -0.031204598024487495,
          "188": 0.060062870383262634,
          "189": 0.01291567087173462,
          "190": -0.005302443169057369,
          "191": -0.03668162599205971,
          "192": -0.018247248604893684,
          "193": -0.02872479520738125,
          "194": -0.024478469043970108,
          "195": 0.07056800276041031,
          "196": 0.017051687464118004,
          "197": -0.010388263501226902,
          "198": 0.04016231372952461,
          "199": 0.022040773183107376,
          "200": -0.02632724493741989,
          "201": 0.07684505730867386,
          "202": -0.07807550579309464,
          "203": 0.06572575867176056,
          "204": -0.06307084858417511,
          "205": 0.06540799140930176,
          "206": -0.014325784519314766,
          "207": -0.045682668685913086,
          "208": 0.026161231100559235,
          "209": 0.037794411182403564,
          "210": -0.012959911487996578,
          "211": -0.0010414350545033813,
          "212": -0.07570626586675644,
          "213": -0.025910018011927605,
          "214": 0.024091441184282303,
          "215": 0.04599873349070549,
          "216": -0.06211930885910988,
          "217": -0.07734056562185287,
          "218": 0.06642309576272964,
          "219": 0.06441029161214828,
          "220": -0.053290072828531265,
          "221": -0.04545942321419716,
          "222": -0.039222028106451035,
          "223": 0.07684370130300522,
          "224": -0.021533655002713203,
          "225": -0.01173559483140707,
          "226": 0.014068973250687122,
          "227": 0.06704942882061005,
          "228": 0.053755175322294235,
          "229": -0.04250359535217285,
          "230": -0.031384680420160294,
          "231": 0.06456388533115387,
          "232": -0.05100858956575394,
          "233": 0.04984451085329056,
          "234": -0.07689373195171356,
          "235": -0.044579967856407166,
          "236": -0.035843465477228165,
          "237": 0.005311822518706322,
          "238": 0.059236910194158554,
          "239": -0.019696049392223358,
          "240": 0.023448411375284195,
          "241": 0.002175834495574236,
          "242": -0.06778580695390701,
          "243": -0.006689407862722874,
          "244": -0.0085185207426548,
          "245": -0.04528805613517761,
          "246": 0.035121459513902664,
          "247": 0.019511979073286057,
          "248": 0.003539843251928687,
          "249": -0.036696258932352066,
          "250": -0.0664559006690979,
          "251": -0.05028466507792473,
          "252": 0.07216279208660126,
          "253": -0.02946026623249054,
          "254": 0.04900207370519638,
          "255": -0.02655690349638462,
          "256": -0.05109703168272972,
          "257": -0.06366191804409027,
          "258": -0.07956217229366302,
          "259": -0.005807553883641958,
          "260": -0.03802293911576271,
          "261": -0.026421107351779938,
          "262": 0.06366243213415146,
          "263": -0.030483026057481766,
          "264": 0.06306535005569458,
          "265": 0.025676287710666656,
          "266": 0.030170701444149017,
          "267": 0.006387998815625906,
          "268": 0.021258946508169174,
          "269": 0.03743985295295715,
          "270": -0.0294374730437994,
          "271": -0.006589664611965418,
          "272": 0.046396151185035706,
          "273": 0.0571405328810215,
          "274": -0.05661120265722275,
          "275": 0.00589135754853487,
          "276": 0.028252150863409042,
          "277": -0.036461956799030304,
          "278": 0.03674023225903511,
          "279": -0.03039378859102726,
          "280": -0.0449383519589901,
          "281": -0.013688464649021626,
          "282": 0.02942543476819992,
          "283": 0.005391554906964302,
          "284": -0.029251828789711,
          "285": -0.04743115231394768,
          "286": 0.0753479152917862,
          "287": -0.030413327738642693,
          "288": -0.070311538875103,
          "289": -0.06506726145744324,
          "290": 0.050750602036714554,
          "291": 0.04382309317588806,
          "292": -0.02228495478630066,
          "293": 0.06156235560774803,
          "294": 0.07989548146724701,
          "295": 0.052564166486263275,
          "296": 0.045562174171209335,
          "297": 0.034979455173015594,
          "298": 0.04735344648361206,
          "299": -0.07662750035524368,
          "300": 0.012286048382520676,
          "301": -0.06639108061790466,
          "302": 0.0704326257109642,
          "303": 0.05911627784371376,
          "304": -0.04738505929708481,
          "305": 0.06557966023683548,
          "306": 0.010280719958245754,
          "307": -0.01346004381775856,
          "308": 0.06147224083542824,
          "309": -0.006300116889178753,
          "310": -0.013675501570105553,
          "311": -0.056472063064575195,
          "312": 0.030207665637135506,
          "313": 0.06490525603294373,
          "314": -0.021542897447943687,
          "315": -0.004463871009647846,
          "316": -0.015492873266339302,
          "317": -0.002428210573270917,
          "318": -0.03240438923239708,
          "319": -0.07232296466827393,
          "320": 0.015973936766386032,
          "321": 0.012271197512745857,
          "322": 0.07490228116512299,
          "323": 0.06627677381038666,
          "324": 0.029058655723929405,
          "325": 0.03455633297562599,
          "326": 0.006353001110255718,
          "327": 0.07301321625709534,
          "328": -0.04542604088783264,
          "329": 0.06595266610383987,
          "330": 0.04357980936765671,
          "331": -0.06440027058124542,
          "332": -0.03840517997741699,
          "333": 0.0535605251789093,
          "334": -0.006165107246488333,
          "335": -0.012929231859743595,
          "336": 0.03854617476463318,
          "337": 0.04671665281057358,
          "338": 0.06712314486503601,
          "339": -0.03690024092793465,
          "340": -0.031217975541949272,
          "341": -0.07106607407331467,
          "342": 0.037251558154821396,
          "343": 0.03600730746984482,
          "344": -0.01129149366170168,
          "345": -0.001380373490974307,
          "346": -0.00010704264423111454,
          "347": 0.0394384004175663,
          "348": -0.016603128984570503,
          "349": 0.05802452564239502,
          "350": 0.05068376660346985,
          "351": -0.05591961741447449,
          "352": -0.01676188036799431,
          "353": -0.04553980007767677,
          "354": 0.035490237176418304,
          "355": -0.026777425780892372,
          "356": -0.053938090801239014,
          "357": 0.07069828361272812,
          "358": 0.00704937893897295,
          "359": -0.004700666293501854,
          "360": 0.05382665619254112,
          "361": 0.060951195657253265,
          "362": -0.054428912699222565,
          "363": 0.024834053590893745,
          "364": 0.016139883548021317,
          "365": 0.07134871929883957,
          "366": -0.001253897207789123,
          "367": -0.009154449217021465,
          "368": -0.06681369990110397,
          "369": 0.07460124045610428,
          "370": -0.04081721231341362,
          "371": 0.04404366761445999,
          "372": -0.052212610840797424,
          "373": -0.04732087627053261,
          "374": -0.06984708458185196,
          "375": 0.07151554524898529,
          "376": 0.0668654665350914,
          "377": -0.04764648899435997,
          "378": -0.062407445162534714,
          "379": 0.07965891808271408,
          "380": -0.04942231625318527,
          "381": -0.02609272301197052,
          "382": -0.04933268576860428,
          "383": 0.060029592365026474,
          "384": 0.03843539580702782,
          "385": 0.05904265493154526,
          "386": 0.04895443096756935,
          "387": 0.04772433638572693,
          "388": 0.07074163854122162,
          "389": 0.07541608065366745,
          "390": -0.031910352408885956,
          "391": 0.035478491336107254,
          "392": -0.056099630892276764,
          "393": -0.03511499986052513,
          "394": -0.008016235195100307,
          "395": 0.05193322151899338,
          "396": -0.05950932949781418,
          "397": -0.02348904311656952,
          "398": 0.026093095541000366,
          "399": -0.02493072859942913
        }
      },
      "bias": {
        "rows": 20,
        "columns": 1,
        "weights": {
          "0": 0,
          "1": 0,
          "2": 0,
          "3": 0,
          "4": 0,
          "5": 0,
          "6": 0,
          "7": 0,
          "8": 0,
          "9": 0,
          "10": 0,
          "11": 0,
          "12": 0,
          "13": 0,
          "14": 0,
          "15": 0,
          "16": 0,
          "17": 0,
          "18": 0,
          "19": 0
        }
      }
    }
  ],
  "outputConnector": {
    "rows": 1,
    "columns": 20,
    "weights": {
      "0": -0.06583844870328903,
      "1": 0.05875937640666962,
      "2": 0.046275459229946136,
      "3": 0.02291191555559635,
      "4": -0.011647211387753487,
      "5": -0.06435815244913101,
      "6": -0.004124471452087164,
      "7": -0.07416701316833496,
      "8": 0.05988680198788643,
      "9": -0.03706411272287369,
      "10": -0.07123265415430069,
      "11": 0.03140609338879585,
      "12": -0.07949676364660263,
      "13": -0.02126026153564453,
      "14": 0.04073645919561386,
      "15": 0.0058007207699120045,
      "16": -0.0418294221162796,
      "17": 0.05647352337837219,
      "18": 0.04336695000529289,
      "19": 0.06892519444227219
    }
  },
  "output": {
    "rows": 1,
    "columns": 1,
    "weights": {
      "0": 0
    }
  }
}