{
  "type": "LSTMTimeStep",
  "options": {
    "inputSize": 1,
    "hiddenSizes": [
      20
    ],
    "outputSize": 1,
    "learningRate": 0.01,
    "decayRate": 0.999,
    "smoothEps": 1e-8,
    "regc": 0.000001,
    "clipval": 5,
    "json": null,
    "dataFormatter": null
  },
  "input": {
    "rows": 1,
    "columns": 1,
    "weights": {
      "0": 0.026483992114663124
    }
  },
  "hiddenLayers": [
    {
      "weight": {
        "rows": 20,
        "columns": 1,
        "weights": {
          "0": 0.0032659703865647316,
          "1": 0.0631912499666214,
          "2": 0.050354909151792526,
          "3": -0.011087180115282536,
          "4": 0.025768684223294258,
          "5": 0.07751940935850143,
          "6": -0.013334947638213634,
          "7": 0.009361019358038902,
          "8": -0.0015678652562201023,
          "9": -0.021866964176297188,
          "10": 0.030272800475358963,
          "11": -0.07300692051649094,
          "12": -0.033559683710336685,
          "13": 0.07554703950881958,
          "14": -0.035719871520996094,
          "15": -0.032569028437137604,
          "16": -0.0468968041241169,
          "17": 0.037446655333042145,
          "18": -0.05532466620206833,
          "19": 0.016937240958213806
        }
      },
      "transition": {
        "rows": 20,
        "columns": 20,
        "weights": {
          "0": -0.026678314432501793,
          "1": -0.008330995216965675,
          "2": 0.04172903299331665,
          "3": 0.025611678138375282,
          "4": -0.02739696577191353,
          "5": -0.055458538234233856,
          "6": 0.05666235461831093,
          "7": 0.04774029552936554,
          "8": 0.05903742089867592,
          "9": -0.049792639911174774,
          "10": 0.06590024381875992,
          "11": 0.05280900374054909,
          "12": 0.05279313772916794,
          "13": -0.008231188170611858,
          "14": -0.018107594922184944,
          "15": -0.030769558623433113,
          "16": 0.06593817472457886,
          "17": 0.06339070200920105,
          "18": 0.0693693533539772,
          "19": 0.026701126247644424,
          "20": 0.0726669430732727,
          "21": 0.04985145479440689,
          "22": 0.0005828200373798609,
          "23": 0.054921627044677734,
          "24": 0.04606238752603531,
          "25": -0.007202179171144962,
          "26": -0.04049219936132431,
          "27": 0.0679832473397255,
          "28": 0.05611616373062134,
          "29": -0.04447690770030022,
          "30": 0.03871368244290352,
          "31": -0.04366913437843323,
          "32": 0.06826350837945938,
          "33": 0.029469076544046402,
          "34": 0.030858894810080528,
          "35": 0.037897683680057526,
          "36": -0.055623602122068405,
          "37": -0.02620314061641693,
          "38": -0.037902627140283585,
          "39": 0.07850826531648636,
          "40": 0.07937265932559967,
          "41": 0.06596004962921143,
          "42": 0.009830237366259098,
          "43": -0.00015286478446796536,
          "44": 0.0019238274544477463,
          "45": -0.07569777965545654,
          "46": -0.07529257237911224,
          "47": -0.0235181525349617,
          "48": 0.003909121733158827,
          "49": 0.03594125434756279,
          "50": -0.019706573337316513,
          "51": 0.06983836740255356,
          "52": -0.041091542690992355,
          "53": -0.0024480370339006186,
          "54": 0.000016281981515930966,
          "55": -0.045646023005247116,
          "56": -0.05620161071419716,
          "57": 0.019068565219640732,
          "58": -0.009030626155436039,
          "59": 0.07933030277490616,
          "60": -0.04072792828083038,
          "61": 0.031163854524493217,
          "62": 0.07666422426700592,
          "63": 0.03086165152490139,
          "64": -0.045626021921634674,
          "65": 0.0714617446064949,
          "66": -0.009543276391923428,
          "67": -0.05945274606347084,
          "68": 0.03506716340780258,
          "69": 0.0644381120800972,
          "70": 0.06533081829547882,
          "71": 0.06749006360769272,
          "72": 0.025383807718753815,
          "73": -0.059460513293743134,
          "74": -0.040848709642887115,
          "75": 0.007891697809100151,
          "76": 0.0017256535356864333,
          "77": -0.048760198056697845,
          "78": -0.05450627580285072,
          "79": 0.05313202366232872,
          "80": -0.05470866709947586,
          "81": 0.06497099995613098,
          "82": -0.029512451961636543,
          "83": -0.0021652942523360252,
          "84": -0.02807883732020855,
          "85": 0.06251906603574753,
          "86": 0.0002333634183742106,
          "87": -0.037736035883426666,
          "88": -0.018385950475931168,
          "89": 0.04602401331067085,
          "90": 0.03051271289587021,
          "91": -0.03829048573970795,
          "92": -0.020550664514303207,
          "93": -0.0452846884727478,
          "94": 0.02453373372554779,
          "95": -0.019605349749326706,
          "96": 0.07521530240774155,
          "97": -0.0426800400018692,
          "98": 0.07583793252706528,
          "99": -0.016909010708332062,
          "100": 0.07359692454338074,
          "101": -0.07890529930591583,
          "102": -0.07267826050519943,
          "103": -0.01366355735808611,
          "104": 0.05558537691831589,
          "105": 0.00629701092839241,
          "106": 0.05073491483926773,
          "107": 0.0113155422732234,
          "108": -0.05682970955967903,
          "109": -0.015499081462621689,
          "110": 0.007006061729043722,
          "111": -0.07833027839660645,
          "112": -0.03180099278688431,
          "113": -0.03256811201572418,
          "114": 0.0764499083161354,
          "115": -0.05726708471775055,
          "116": 0.020907752215862274,
          "117": -0.07089508324861526,
          "118": -0.004327942617237568,
          "119": 0.059504587203264236,
          "120": 0.048508621752262115,
          "121": -0.004698543343693018,
          "122": -0.052596136927604675,
          "123": 0.035895757377147675,
          "124": 0.029115106910467148,
          "125": 0.07706458866596222,
          "126": 0.056032877415418625,
          "127": 0.04364714026451111,
          "128": 0.062117211520671844,
          "129": -0.07688087224960327,
          "130": -0.06808525323867798,
          "131": -0.01849735900759697,
          "132": -0.0707661509513855,
          "133": -0.022537510842084885,
          "134": 0.013291235081851482,
          "135": -0.019225232303142548,
          "136": 0.07652890682220459,
          "137": 0.010941562242805958,
          "138": -0.05320339649915695,
          "139": 0.03657340630888939,
          "140": -0.023676816374063492,
          "141": 0.055440519005060196,
          "142": -0.054709989577531815,
          "143": -0.07308639585971832,
          "144": 0.05557716637849808,
          "145": 0.027550991624593735,
          "146": -0.050173211842775345,
          "147": -0.07737242430448532,
          "148": -0.020112236961722374,
          "149": -0.05878960341215134,
          "150": -0.026234816759824753,
          "151": 0.07472724467515945,
          "152": 0.06827551871538162,
          "153": 0.02781357243657112,
          "154": -0.01137909758836031,
          "155": 0.04488016292452812,
          "156": -0.02498990297317505,
          "157": -0.038410838693380356,
          "158": -0.055920351296663284,
          "159": 0.0696839690208435,
          "160": 0.06412269920110703,
          "161": 0.02736932411789894,
          "162": -0.016881516203284264,
          "163": -0.07498590648174286,
          "164": -0.06348031759262085,
          "165": 0.05986602231860161,
          "166": 0.03858403116464615,
          "167": 0.049941737204790115,
          "168": 0.006702137179672718,
          "169": -0.02000599354505539,
          "170": -0.01984114944934845,
          "171": -0.005923624616116285,
          "172": 0.05075914412736893,
          "173": 0.016245875507593155,
          "174": -0.0006143433274701238,
          "175": 0.010355439968407154,
          "176": 0.0478849858045578,
          "177": 0.05862738937139511,
          "178": -0.017775198444724083,
          "179": 0.06912833452224731,
          "180": 0.021921750158071518,
          "181": 0.05516322702169418,
          "182": 0.06707065552473068,
          "183": -0.03862431272864342,
          "184": 0.04409877210855484,
          "185": 0.06704702228307724,
          "186": -0.07739432156085968,
          "187": 0.052587855607271194,
          "188": -0.009842879138886929,
          "189": -0.06765507906675339,
          "190": -0.07186972349882126,
          "191": 0.01573720946907997,
          "192": -0.03707488253712654,
          "193": -0.03097820281982422,
          "194": 0.07404537498950958,
          "195": 0.047698795795440674,
          "196": -0.016616420820355415,
          "197": -0.06876719743013382,
          "198": 0.06577852368354797,
          "199": 0.06602983921766281,
          "200": 0.06977583467960358,
          "201": -0.06857899576425552,
          "202": -0.07153148204088211,
          "203": -0.03699089586734772,
          "204": 0.05774214491248131,
          "205": 0.05386684462428093,
          "206": 0.051238853484392166,
          "207": 0.05556674674153328,
          "208": -0.002442440949380398,
          "209": 0.03968989849090576,
          "210": -0.03241533413529396,
          "211": 0.011083477176725864,
          "212": -0.06938405334949493,
          "213": -0.019166218116879463,
          "214": 0.07743343710899353,
          "215": 0.016782445833086967,
          "216": -0.012179945595562458,
          "217": 0.028737211599946022,
          "218": 0.030483875423669815,
          "219": -0.034340888261795044,
          "220": -0.07385358214378357,
          "221": 0.003524624742567539,
          "222": 0.00018161874322686344,
          "223": 0.03281416743993759,
          "224": 0.0784154012799263,
          "225": 0.07763559371232986,
          "226": 0.0045318580232560635,
          "227": 0.048823319375514984,
          "228": -0.058860018849372864,
          "229": 0.06230282783508301,
          "230": -0.01806590147316456,
          "231": 0.041068222373723984,
          "232": -0.021157700568437576,
          "233": 0.005377891007810831,
          "234": 0.004062872380018234,
          "235": 0.03749736025929451,
          "236": 0.044454023241996765,
          "237": -0.015243195928633213,
          "238": 0.04771766811609268,
          "239": 0.07249882817268372,
          "240": -0.026612410321831703,
          "241": 0.06911548227071762,
          "242": -0.01410910114645958,
          "243": 0.016246117651462555,
          "244": 0.01689912937581539,
          "245": -0.05985649675130844,
          "246": 0.016495509073138237,
          "247": 0.05378033220767975,
          "248": -0.030125748366117477,
          "249": 0.028200319036841393,
          "250": -0.019131159409880638,
          "251": -0.06371913850307465,
          "252": -0.02819053642451763,
          "253": 0.017281416803598404,
          "254": 0.03034711256623268,
          "255": -0.03774886578321457,
          "256": -0.03768724575638771,
          "257": 0.05123787745833397,
          "258": -0.0660291537642479,
          "259": 0.07222815603017807,
          "260": 0.01104900985956192,
          "261": 0.05104229971766472,
          "262": -0.0257247444242239,
          "263": 0.07599332928657532,
          "264": 0.004052885342389345,
          "265": 0.06466960161924362,
          "266": -0.06368224322795868,
          "267": 0.009984527714550495,
          "268": -0.05094727501273155,
          "269": 0.06879112869501114,
          "270": 0.06724870949983597,
          "271": -0.07293181866407394,
          "272": -0.06581009179353714,
          "273": -0.031659312546253204,
          "274": 0.047741230577230453,
          "275": -0.0033252297434955835,
          "276": 0.038562629371881485,
          "277": -0.013232095167040825,
          "278": -0.028218194842338562,
          "279": -0.038394469767808914,
          "280": 0.07724376767873764,
          "281": -0.0007469127885997295,
          "282": 0.05233363062143326,
          "283": -0.0779532641172409,
          "284": -0.004642596002668142,
          "285": 0.015600421465933323,
          "286": -0.024844475090503693,
          "287": 0.03542296215891838,
          "288": 0.05365494638681412,
          "289": 0.056830860674381256,
          "290": -0.05432550981640816,
          "291": -0.06545326113700867,
          "292": 0.025775015354156494,
          "293": 0.025583889335393906,
          "294": -0.060106437653303146,
          "295": -0.03859148547053337,
          "296": -0.0026868267450481653,
          "297": -0.07328980416059494,
          "298": 0.04443115368485451,
          "299": 0.055367760360240936,
          "300": -0.02068467251956463,
          "301": -0.03952629119157791,
          "302": 0.006955633871257305,
          "303": -0.012289164587855339,
          "304": 0.010698750615119934,
          "305": 0.011005090549588203,
          "306": -0.022509735077619553,
          "307": 0.07773315161466599,
          "308": 0.02673325315117836,
          "309": -0.03277495130896568,
          "310": 0.06913788616657257,
          "311": 0.07723943889141083,
          "312": 0.0629420354962349,
          "313": -0.05011720955371857,
          "314": 0.06676801294088364,
          "315": -0.04898122698068619,
          "316": 0.03875148668885231,
          "317": -0.014052345417439938,
          "318": -0.041404955089092255,
          "319": 0.04381649196147919,
          "320": 0.053385116159915924,
          "321": 0.012272723950445652,
          "322": 0.038934964686632156,
          "323": -0.002941595856100321,
          "324": -0.0533825159072876,
          "325": 0.047710519284009933,
          "326": 0.06442978978157043,
          "327": 0.07711797952651978,
          "328": -0.05467739701271057,
          "329": -0.0002829773002304137,
          "330": 0.012857761234045029,
          "331": -0.03042059950530529,
          "332": -0.06917337328195572,
          "333": -0.051291607320308685,
          "334": 0.06441091746091843,
          "335": -0.010891567915678024,
          "336": 0.06268589198589325,
          "337": 0.00036846494185738266,
          "338": -0.058394186198711395,
          "339": -0.02586713433265686,
          "340": 0.05304833874106407,
          "341": 0.0077587757259607315,
          "342": 0.0029625212773680687,
          "343": 0.07364444434642792,
          "344": -0.07025380432605743,
          "345": 0.03352135047316551,
          "346": -0.07028180360794067,
          "347": 0.059668444097042084,
          "348": -0.05630715936422348,
          "349": 0.07335406541824341,
          "350": 0.01677461341023445,
          "351": 0.04023859649896622,
          "352": -0.044602226465940475,
          "353": -0.010247953236103058,
          "354": 0.004101670812815428,
          "355": 0.07636091113090515,
          "356": 0.06261540949344635,
          "357": 0.030405931174755096,
          "358": -0.05653237923979759,
          "359": -0.008282714523375034,
          "360": 0.03474690765142441,
          "361": 0.055606909096241,
          "362": 0.03162975609302521,
          "363": 0.05194753408432007,
          "364": -0.013222424313426018,
          "365": -0.00795893557369709,
          "366": -0.06922430545091629,
          "367": -0.010899519547820091,
          "368": -0.07197794318199158,
          "369": 0.03798599913716316,
          "370": -0.04926155135035515,
          "371": -0.013687540777027607,
          "372": -0.054251618683338165,
          "373": 0.01663294993340969,
          "374": 0.022604625672101974,
          "375": -0.0629427433013916,
          "376": 0.06670539081096649,
          "377": 0.07132277637720108,
          "378": 0.04267963394522667,
          "379": 0.04301523417234421,
          "380": 0.06492292881011963,
          "381": 0.06891461461782455,
          "382": -0.03176495060324669,
          "383": -0.023776821792125702,
          "384": 0.04527802765369415,
          "385": 0.05311977118253708,
          "386": -0.02826668508350849,
          "387": -0.01028346549719572,
          "388": -0.07136216014623642,
          "389": -0.02293735183775425,
          "390": -0.02389151230454445,
          "391": 0.015042530372738838,
          "392": -0.0534120537340641,
          "393": 0.052657682448625565,
          "394": 0.04598672315478325,
          "395": -0.021135320886969566,
          "396": -0.02798517793416977,
          "397": 0.03379984200000763,
          "398": -0.01722119376063347,
          "399": 0.032662201672792435
        }
      },
      "bias": {
        "rows": 20,
        "columns": 1,
        "weights": {
          "0": 0,
          "1": 0,
          "2": 0,
          "3": 0,
          "4": 0,
          "5": 0,
          "6": 0,
          "7": 0,
          "8": 0,
          "9": 0,
          "10": 0,
          "11": 0,
          "12": 0,
          "13": 0,
          "14": 0,
          "15": 0,
          "16": 0,
          "17": 0,
          "18": 0,
          "19": 0
        }
      }
    }
  ],
  "outputConnector": {
    "rows": 1,
    "columns": 20,
    "weights": {
      "0": -0.05369109660387039,
      "1": 0.016524195671081543,
      "2": -0.03988746926188469,
      "3": -0.037071142345666885,
      "4": 0.0529235303401947,
      "5": -0.049168940633535385,
      "6": -0.020857026800513268,
      "7": -0.07917345315217972,
      "8": 0.015240887179970741,
      "9": -0.036915574222803116,
      "10": 0.011707738973200321,
      "11": -0.05031133070588112,
      "12": 0.06684039533138275,
      "13": -0.039305999875068665,
      "14": -0.00408096332103014,
      "15": 0.04752647131681442,
      "16": -0.04331884905695915,
      "17": 0.031839318573474884,
      "18": -0.024141032248735428,
      "19": -0.004455482587218285
    }
  },
  "output": {
    "rows": 1,
    "columns": 1,
    "weights": {
      "0": 0
    }
  }
}