{"type":"LSTMTimeStep","options":{"inputSize":1,"hiddenLayers":[40],"outputSize":1,"decayRate":0.999,"smoothEps":1e-8,"regc":0.000001,"clipval":5},"hiddenLayers":[{"inputMatrix":{"rows":40,"columns":1,"weights":{"0":4.231143951416016,"1":0.4032650589942932,"2":0.13450466096401215,"3":-0.2601860463619232,"4":-0.580873966217041,"5":3.118748664855957,"6":0.0035578147508203983,"7":-3.419271230697632,"8":-2.5326926708221436,"9":4.769891262054443,"10":0.41077232360839844,"11":-3.1320583820343018,"12":-5.67172908782959,"13":-0.8352007269859314,"14":-1.0569126605987549,"15":0.8513618111610413,"16":-1.0640051364898682,"17":0.7288473844528198,"18":0.7735260725021362,"19":-0.8315946459770203,"20":-0.24310986697673798,"21":0.08516589552164078,"22":-0.5495598316192627,"23":1.3692744970321655,"24":-1.4969114065170288,"25":-0.33464303612709045,"26":1.616815447807312,"27":-0.9004522562026978,"28":-0.9437292218208313,"29":-1.2402275800704956,"30":1.1266424655914307,"31":-1.9088062047958374,"32":2.2600338459014893,"33":-1.3567472696304321,"34":0.6570535898208618,"35":0.003637042362242937,"36":0.24304986000061035,"37":-0.049837689846754074,"38":-0.573460042476654,"39":-0.08351555466651917}},"inputHidden":{"rows":40,"columns":40,"weights":{"0":8.734724998474121,"1":0.6554375886917114,"2":32.22636413574219,"3":-32.56159591674805,"4":8.920209884643555,"5":-3.4269680976867676,"6":-5.24448823928833,"7":-122.87649536132812,"8":9.69784927368164,"9":0.7983402609825134,"10":-6.321281909942627,"11":13.989715576171875,"12":-15.744505882263184,"13":-94.08598327636719,"14":4.333492279052734,"15":-23.538564682006836,"16":-16.994543075561523,"17":20.179973602294922,"18":12.167098999023438,"19":-0.6982759237289429,"20":-0.5827659368515015,"21":-24.275930404663086,"22":-17.445293426513672,"23":1.4257144927978516,"24":19.342504501342773,"25":-1.5133575201034546,"26":5.143284320831299,"27":80.38363647460938,"28":21.549665451049805,"29":-3.4332263469696045,"30":-8.136665344238281,"31":-59.56915283203125,"32":7.813948154449463,"33":-5.905657768249512,"34":1.0717734098434448,"35":26.13835334777832,"36":5.310783863067627,"37":-4.225428104400635,"38":7.802684307098389,"39":-5.16450834274292,"40":-0.4179997146129608,"41":1.1472200155258179,"42":-9.656847953796387,"43":-1.002012848854065,"44":1.364312767982483,"45":-1.6319348812103271,"46":-4.071741104125977,"47":12.071945190429688,"48":0.7925103306770325,"49":-1.9276459217071533,"50":-4.235085487365723,"51":-5.973458290100098,"52":-0.8574492335319519,"53":7.28005313873291,"54":-0.7904104590415955,"55":-0.37918397784233093,"56":0.8225226402282715,"57":1.512397289276123,"58":-5.655305862426758,"59":9.238916397094727,"60":-0.4208112359046936,"61":0.42571312189102173,"62":0.3777554929256439,"63":2.361543893814087,"64":4.42418098449707,"65":-0.865985095500946,"66":2.4192447662353516,"67":4.661924839019775,"68":1.3437179327011108,"69":-1.217034935951233,"70":-5.204023838043213,"71":-9.493705749511719,"72":-0.1881096214056015,"73":5.986955642700195,"74":-1.0556071996688843,"75":-6.890182018280029,"76":-3.0653235912323,"77":2.3799121379852295,"78":4.73393440246582,"79":-1.6175732612609863,"80":-36.444679260253906,"81":38.233909606933594,"82":67.85009002685547,"83":141.45899963378906,"84":-17.846914291381836,"85":7.588562965393066,"86":-9.275782585144043,"87":-33.765071868896484,"88":118.98638916015625,"89":25.226083755493164,"90":13.814801216125488,"91":4.759070873260498,"92":5.088664531707764,"93":-73.29105377197266,"94":42.425174713134766,"95":46.33828353881836,"96":-23.016277313232422,"97":-19.83415412902832,"98":-4.493083477020264,"99":128.3173065185547,"100":57.0245475769043,"101":9.45925235748291,"102":19.88141441345215,"103":5.58659029006958,"104":44.98151779174805,"105":13.860828399658203,"106":-48.56833267211914,"107":66.54808044433594,"108":-70.48401641845703,"109":25.94382667541504,"110":-4.344750881195068,"111":-29.3452205657959,"112":9.366025924682617,"113":-123.31375122070312,"114":-64.45631408691406,"115":31.06403350830078,"116":1.5471484661102295,"117":-110.32141876220703,"118":2.4256153106689453,"119":9.434392929077148,"120":3.3030893802642822,"121":18.42181968688965,"122":-62.35469055175781,"123":23.75832748413086,"124":-2.931425094604492,"125":1.0638784170150757,"126":-22.433483123779297,"127":37.07265090942383,"128":-77.9946060180664,"129":6.798027515411377,"130":-6.838731288909912,"131":39.473758697509766,"132":68.76685333251953,"133":-69.57112121582031,"134":-29.260744094848633,"135":-21.816553115844727,"136":-31.332876205444336,"137":13.386061668395996,"138":-1.821069598197937,"139":-89.2056884765625,"140":10.714095115661621,"141":37.434356689453125,"142":-44.24801254272461,"143":-8.604007720947266,"144":10.387237548828125,"145":-8.05421257019043,"146":-7.890850067138672,"147":103.59078216552734,"148":-16.406599044799805,"149":-3.9782559871673584,"150":0.7797742486000061,"151":-9.624622344970703,"152":8.64371109008789,"153":36.1417121887207,"154":-27.427406311035156,"155":32.626346588134766,"156":18.600252151489258,"157":-25.52812385559082,"158":51.53200149536133,"159":1.761996865272522,"160":2.316462278366089,"161":-1.8463518619537354,"162":-11.402931213378906,"163":-1.334246277809143,"164":-2.437520742416382,"165":-2.6712288856506348,"166":-0.6583249568939209,"167":39.534061431884766,"168":-8.19320297241211,"169":-2.641035795211792,"170":4.342456817626953,"171":-1.5759305953979492,"172":-0.2689579129219055,"173":19.609397888183594,"174":-22.40328598022461,"175":-31.275487899780273,"176":-13.455309867858887,"177":-1.9044954776763916,"178":-20.916948318481445,"179":0.3822990655899048,"180":6.148983478546143,"181":13.120492935180664,"182":8.881937980651855,"183":-5.665087699890137,"184":17.029434204101562,"185":-4.03909969329834,"186":6.129784107208252,"187":7.069792747497559,"188":-7.881515979766846,"189":-0.8009438514709473,"190":75.1934585571289,"191":1.056445837020874,"192":-0.1298302561044693,"193":20.921445846557617,"194":52.442596435546875,"195":-20.640033721923828,"196":12.552132606506348,"197":2.6879584789276123,"198":-2.0283703804016113,"199":6.163035869598389,"200":4.5684003829956055,"201":-8.13938045501709,"202":158.68783569335938,"203":4.409228324890137,"204":-10.877037048339844,"205":-7.3521246910095215,"206":2.108203172683716,"207":39.4105224609375,"208":-52.140342712402344,"209":3.2378971576690674,"210":-14.83646011352539,"211":-7.856880187988281,"212":2.9831132888793945,"213":-12.195091247558594,"214":-4.811116695404053,"215":1.4875057935714722,"216":22.56901741027832,"217":-2.2088897228240967,"218":-6.497551441192627,"219":3.244061231613159,"220":-2.4675679206848145,"221":-36.00581741333008,"222":9.310998916625977,"223":13.567917823791504,"224":10.054080963134766,"225":5.648104190826416,"226":2.766129732131958,"227":-1.761238932609558,"228":-10.065011978149414,"229":3.817805528640747,"230":-22.95957374572754,"231":31.24547576904297,"232":-2.0796639919281006,"233":-18.48535919189453,"234":13.039504051208496,"235":-11.812336921691895,"236":-16.911914825439453,"237":-5.499476909637451,"238":-10.334766387939453,"239":-3.375535726547241,"240":0.683023989200592,"241":1.0313111543655396,"242":-6.286193370819092,"243":-0.3234582841396332,"244":-1.0009647607803345,"245":-0.6070603132247925,"246":0.06630827486515045,"247":1.4503988027572632,"248":0.870500385761261,"249":-0.8811162710189819,"250":6.7020792961120605,"251":3.699380874633789,"252":1.3790452480316162,"253":-0.505977988243103,"254":-0.2624557316303253,"255":-0.8604394793510437,"256":-0.8774247765541077,"257":0.634239912033081,"258":-2.107025623321533,"259":-8.948970794677734,"260":-1.2333498001098633,"261":-0.8389350175857544,"262":-1.0948868989944458,"263":4.094213485717773,"264":-4.094117641448975,"265":-0.48963505029678345,"266":1.4723858833312988,"267":-3.0118188858032227,"268":-1.1853034496307373,"269":0.06935454159975052,"270":-1.5212820768356323,"271":0.13611134886741638,"272":0.9879542589187622,"273":1.295023798942566,"274":-0.05011089891195297,"275":-2.770822525024414,"276":3.8989007472991943,"277":2.3899519443511963,"278":-2.152869701385498,"279":-2.7616331577301025,"280":-5.646973609924316,"281":18.90122413635254,"282":-34.93929672241211,"283":3.6781811714172363,"284":-10.17111873626709,"285":1.8935564756393433,"286":6.559967041015625,"287":36.32948303222656,"288":16.606712341308594,"289":-0.21086126565933228,"290":10.075878143310547,"291":-15.348027229309082,"292":3.8446202278137207,"293":-20.86713409423828,"294":12.633917808532715,"295":-0.6155858635902405,"296":9.200770378112793,"297":-0.6201716065406799,"298":2.778083324432373,"299":-6.929872989654541,"300":0.983103334903717,"301":5.325970649719238,"302":-16.4975528717041,"303":1.8776835203170776,"304":-10.984635353088379,"305":-2.044255256652832,"306":-5.330122947692871,"307":-67.67206573486328,"308":40.79804229736328,"309":-2.821354866027832,"310":-187.68556213378906,"311":-8.854228019714355,"312":2.3093957901000977,"313":20.71257781982422,"314":-3.921790838241577,"315":20.637489318847656,"316":2.2522530555725098,"317":-56.95964050292969,"318":1.484835147857666,"319":6.734570503234863,"320":2.734339952468872,"321":-9.941632270812988,"322":35.44523239135742,"323":0.4048839509487152,"324":-11.853803634643555,"325":2.0223281383514404,"326":1.0462077856063843,"327":8.512556076049805,"328":-8.061005592346191,"329":4.590595722198486,"330":-0.9315119385719299,"331":21.69208335876465,"332":32.268638610839844,"333":21.87738800048828,"334":-5.0761823654174805,"335":-1.9029911756515503,"336":12.631662368774414,"337":1.8089251518249512,"338":2.652142286300659,"339":-60.658538818359375,"340":-7.480497360229492,"341":84.8780288696289,"342":-4.786684036254883,"343":-3.9410691261291504,"344":0.9906107187271118,"345":19.298025131225586,"346":-1.3854650259017944,"347":7.127353668212891,"348":-2.8275485038757324,"349":-6.366653919219971,"350":-0.5560105443000793,"351":21.954683303833008,"352":-1.0961596965789795,"353":-116.74310302734375,"354":8.432764053344727,"355":-2.38311505317688,"356":-14.309760093688965,"357":6.744462966918945,"358":2.462082624435425,"359":-0.39627644419670105,"360":5.364651679992676,"361":40.412635803222656,"362":20.719419479370117,"363":-16.05893325805664,"364":0.3524969816207886,"365":-0.4869062006473541,"366":-20.05917739868164,"367":-29.554485321044922,"368":20.60477066040039,"369":-9.195096015930176,"370":-3.1530282497406006,"371":-5.012204647064209,"372":-0.6988574862480164,"373":-9.859926223754883,"374":7.463782787322998,"375":3.5074660778045654,"376":-14.32720947265625,"377":4.11411190032959,"378":4.4843573570251465,"379":-0.7518186569213867,"380":12.748868942260742,"381":-48.89573287963867,"382":13.612672805786133,"383":-4.9818549156188965,"384":12.89578914642334,"385":-6.82422399520874,"386":2.618117570877075,"387":22.505971908569336,"388":0.930198609828949,"389":-2.6120457649230957,"390":28.08509063720703,"391":-69.84612274169922,"392":-2.5037238597869873,"393":37.82318878173828,"394":7.531069278717041,"395":-24.57838249206543,"396":6.17894983291626,"397":-17.965682983398438,"398":-12.42895793914795,"399":-4.383664131164551,"400":-6.904198169708252,"401":-112.81340789794922,"402":59.78879165649414,"403":-23.70985221862793,"404":19.110570907592773,"405":-6.444112777709961,"406":-31.06515884399414,"407":-197.14439392089844,"408":216.56393432617188,"409":13.440163612365723,"410":-11.921107292175293,"411":-40.8143424987793,"412":-61.72108840942383,"413":96.07186126708984,"414":2.617403984069824,"415":-5.078535556793213,"416":-24.124679565429688,"417":5.191675662994385,"418":-1.0198322534561157,"419":-44.63604736328125,"420":-8.320870399475098,"421":-71.55288696289062,"422":-22.816715240478516,"423":24.673723220825195,"424":85.84054565429688,"425":1.8622252941131592,"426":-3.150156021118164,"427":-25.341808319091797,"428":-6.222366809844971,"429":-20.140621185302734,"430":245.61538696289062,"431":96.63539123535156,"432":7.0258259773254395,"433":132.15859985351562,"434":9.483285903930664,"435":46.03693771362305,"436":-12.883028030395508,"437":-12.791404724121094,"438":-36.876827239990234,"439":-1.3884379863739014,"440":-5.961794853210449,"441":7.585498809814453,"442":13.832880020141602,"443":-6.6855316162109375,"444":11.049781799316406,"445":5.5760087966918945,"446":-24.501529693603516,"447":-1.5399014949798584,"448":-7.370682716369629,"449":-6.346628189086914,"450":-38.952999114990234,"451":6.837041854858398,"452":0.13294172286987305,"453":9.954977035522461,"454":-10.708698272705078,"455":-13.29827880859375,"456":-1.6173070669174194,"457":1.8726849555969238,"458":-11.350887298583984,"459":-16.645259857177734,"460":-2.109894037246704,"461":-1.5001863241195679,"462":-8.132970809936523,"463":-1.6304200887680054,"464":-4.919463634490967,"465":7.551161289215088,"466":-5.7940449714660645,"467":28.584945678710938,"468":6.200536727905273,"469":-1.8500075340270996,"470":26.88383674621582,"471":2.573387384414673,"472":9.47700023651123,"473":-23.444705963134766,"474":-3.604170799255371,"475":-29.320907592773438,"476":-12.762776374816895,"477":4.996094226837158,"478":-0.13552671670913696,"479":7.8883376121521,"480":-1.1505112648010254,"481":-1.0293911695480347,"482":3.1520347595214844,"483":8.439745903015137,"484":-1.5790661573410034,"485":1.021859049797058,"486":9.767557144165039,"487":-17.723405838012695,"488":44.56869888305664,"489":-0.8891465663909912,"490":2.2152581214904785,"491":-26.29983901977539,"492":7.470917224884033,"493":-2.3851771354675293,"494":-3.8205976486206055,"495":-7.596592426300049,"496":18.75838279724121,"497":3.202627420425415,"498":12.151719093322754,"499":-235.32249450683594,"500":0.9731951951980591,"501":11.902427673339844,"502":4.48097562789917,"503":3.610414981842041,"504":74.52479553222656,"505":-1.6910229921340942,"506":-2.137129783630371,"507":-7.783924102783203,"508":0.7808477282524109,"509":3.3604071140289307,"510":24.560941696166992,"511":-15.919585227966309,"512":1.0373787879943848,"513":-26.37156867980957,"514":33.130760192871094,"515":14.996837615966797,"516":-11.887504577636719,"517":-3.548095941543579,"518":18.410409927368164,"519":9.293148040771484,"520":-10.649584770202637,"521":2.3522958755493164,"522":12.3010892868042,"523":-9.802261352539062,"524":-1.2029807567596436,"525":1.1612788438796997,"526":12.623881340026855,"527":-13.558403015136719,"528":-2.2381019592285156,"529":-9.140206336975098,"530":-2.6297028064727783,"531":1.3788096904754639,"532":5.3328046798706055,"533":0.7184621095657349,"534":-1.5288366079330444,"535":1.7460575103759766,"536":-0.8305108547210693,"537":8.388814926147461,"538":2.4747378826141357,"539":-96.83296966552734,"540":5.247019290924072,"541":1.306088924407959,"542":-0.2616128623485565,"543":0.2911372482776642,"544":-2.103652238845825,"545":0.6140575408935547,"546":-1.8188393115997314,"547":6.525928497314453,"548":-1.3463027477264404,"549":2.2842588424682617,"550":17.760574340820312,"551":10.978748321533203,"552":0.8419196009635925,"553":-6.551609516143799,"554":-1.4251731634140015,"555":4.484385967254639,"556":-1.3958756923675537,"557":-7.130349159240723,"558":-6.854984760284424,"559":3.3498380184173584,"560":1.1186317205429077,"561":50.98695755004883,"562":62.832210540771484,"563":-125.69599151611328,"564":29.314956665039062,"565":-0.6398518085479736,"566":-12.067402839660645,"567":3.5962138175964355,"568":63.18977355957031,"569":-19.876317977905273,"570":-9.093179702758789,"571":65.0514907836914,"572":95.39949035644531,"573":28.431617736816406,"574":-50.792179107666016,"575":-16.412395477294922,"576":-70.56349182128906,"577":13.288379669189453,"578":17.563364028930664,"579":19.1334171295166,"580":36.59203338623047,"581":-81.35433959960938,"582":2.2838361263275146,"583":-10.16201114654541,"584":-25.142221450805664,"585":30.0076847076416,"586":1.8870512247085571,"587":-44.98428726196289,"588":8.706991195678711,"589":1.3016945123672485,"590":20.22662925720215,"591":-8.101627349853516,"592":5.591081619262695,"593":101.91896057128906,"594":-37.64534378051758,"595":9.583374977111816,"596":26.97425651550293,"597":-24.529743194580078,"598":51.12681198120117,"599":3.609713077545166,"600":-8.885650634765625,"601":-15.307963371276855,"602":98.88934326171875,"603":0.6888903975486755,"604":-11.394318580627441,"605":1.57957923412323,"606":-3.4832804203033447,"607":-58.24568176269531,"608":63.62033462524414,"609":0.3220972716808319,"610":-2.5916860103607178,"611":-7.506285667419434,"612":6.810020923614502,"613":-12.263422012329102,"614":-8.240731239318848,"615":-2.692070722579956,"616":16.10174560546875,"617":-0.3911501169204712,"618":0.2706599533557892,"619":-32.342926025390625,"620":-0.4340716302394867,"621":-17.323501586914062,"622":2.9817068576812744,"623":-3.837860345840454,"624":7.423704147338867,"625":10.600301742553711,"626":-5.876889228820801,"627":17.874998092651367,"628":-1.2077564001083374,"629":4.507594108581543,"630":8.917109489440918,"631":-2.1452198028564453,"632":4.589540958404541,"633":-31.174814224243164,"634":-32.7269172668457,"635":-1.9698395729064941,"636":-2.0040831565856934,"637":14.399547576904297,"638":41.58902359008789,"639":0.7495081424713135,"640":5.763082504272461,"641":12.913895606994629,"642":446.5473327636719,"643":22.569665908813477,"644":-1.2627862691879272,"645":-0.9599782824516296,"646":9.232512474060059,"647":116.07646942138672,"648":-15.290813446044922,"649":-0.9019724130630493,"650":7.388648986816406,"651":-1.581813097000122,"652":11.263696670532227,"653":-61.5419921875,"654":-8.328373908996582,"655":9.823943138122559,"656":-42.27707290649414,"657":-3.2576470375061035,"658":13.39101505279541,"659":-10.4409818649292,"660":-12.12818717956543,"661":-71.794921875,"662":-5.707189083099365,"663":2.2137186527252197,"664":17.157190322875977,"665":0.428428053855896,"666":1.313310146331787,"667":31.05470085144043,"668":-1.6107465028762817,"669":-4.061363697052002,"670":-6.505164623260498,"671":-49.30463790893555,"672":-5.295365810394287,"673":-7.606020450592041,"674":4.437796592712402,"675":19.630630493164062,"676":-4.419572830200195,"677":-18.421052932739258,"678":-10.988640785217285,"679":-2.4627721309661865,"680":-1.5796585083007812,"681":-6.102550983428955,"682":54.04861831665039,"683":5.50577974319458,"684":8.019105911254883,"685":2.8894407749176025,"686":6.85701322555542,"687":90.92859649658203,"688":-2.6746208667755127,"689":-1.4417705535888672,"690":7.186230659484863,"691":-13.10396957397461,"692":9.559017181396484,"693":1.7316755056381226,"694":4.421020030975342,"695":0.7719483971595764,"696":6.686049938201904,"697":1.5281586647033691,"698":-0.1705942302942276,"699":16.602224349975586,"700":2.044799327850342,"701":-89.74552154541016,"702":-6.338074207305908,"703":-3.1539671421051025,"704":6.440209865570068,"705":4.6705851554870605,"706":-0.17377938330173492,"707":-4.2818121910095215,"708":5.252973556518555,"709":0.023729197680950165,"710":6.159348964691162,"711":34.61579513549805,"712":2.3686957359313965,"713":-15.073262214660645,"714":0.26050040125846863,"715":3.9058055877685547,"716":7.862623691558838,"717":-1.0632715225219727,"718":-7.385998249053955,"719":4.980784893035889,"720":-15.014704704284668,"721":47.67402267456055,"722":-99.54096984863281,"723":-135.65582275390625,"724":75.13469696044922,"725":2.448972225189209,"726":-5.9565629959106445,"727":233.89346313476562,"728":-387.93798828125,"729":-50.34357833862305,"730":3.8415894508361816,"731":11.706241607666016,"732":71.30379486083984,"733":-55.233638763427734,"734":2.1558613777160645,"735":1.8154428005218506,"736":-23.649625778198242,"737":-8.304802894592285,"738":33.9211311340332,"739":-307.30950927734375,"740":-14.60623836517334,"741":-564.4202270507812,"742":105.24212646484375,"743":2.567749261856079,"744":249.07272338867188,"745":0.00043338569230400026,"746":-6.114373683929443,"747":7.538517475128174,"748":-3.0564348697662354,"749":-6.389953136444092,"750":-10.314983367919922,"751":-134.10081481933594,"752":-39.77015686035156,"753":-84.74966430664062,"754":-212.1134033203125,"755":-20.22466468811035,"756":11.900513648986816,"757":1.978528618812561,"758":202.86248779296875,"759":3.4931983947753906,"760":-4.492437839508057,"761":25.93828582763672,"762":22.926069259643555,"763":25.4027156829834,"764":5.086736679077148,"765":-4.9347357749938965,"766":3.207731008529663,"767":-209.1226043701172,"768":92.78749084472656,"769":11.97224235534668,"770":-2.382852554321289,"771":-59.83762741088867,"772":21.76032829284668,"773":-59.633140563964844,"774":9.42689037322998,"775":-3.142361640930176,"776":10.798286437988281,"777":-5.751599311828613,"778":13.641035079956055,"779":66.2206039428711,"780":4.356110572814941,"781":38.40922546386719,"782":-8.680032730102539,"783":-4.739945411682129,"784":53.671199798583984,"785":1.2018128633499146,"786":6.367324352264404,"787":29.734909057617188,"788":2.6077334880828857,"789":3.832962989807129,"790":18.143390655517578,"791":117.14575958251953,"792":-6.2623701095581055,"793":79.02701568603516,"794":109.1284408569336,"795":16.750497817993164,"796":-1.0563944578170776,"797":12.020586013793945,"798":-0.48551928997039795,"799":-4.334257125854492,"800":-2.963834285736084,"801":6.659675121307373,"802":-33.410274505615234,"803":1.5113046169281006,"804":-6.689555644989014,"805":3.2998318672180176,"806":-11.794231414794922,"807":-3.8180155754089355,"808":4.503632545471191,"809":-1.18449068069458,"810":-2.295424699783325,"811":2.577317953109741,"812":2.631882429122925,"813":-52.21306610107422,"814":-0.8809529542922974,"815":-2.2850165367126465,"816":1.054921269416809,"817":1.7906780242919922,"818":-4.851701259613037,"819":16.836668014526367,"820":7.862698554992676,"821":0.6159295439720154,"822":5.01394510269165,"823":1.8872243165969849,"824":-10.162162780761719,"825":-0.8572141528129578,"826":-1.934112787246704,"827":-6.110102653503418,"828":-3.7937307357788086,"829":-0.9817996025085449,"830":4.956916332244873,"831":-17.053049087524414,"832":2.390578508377075,"833":-11.715556144714355,"834":-3.1361451148986816,"835":-2.198469638824463,"836":-6.318763732910156,"837":-1.5098891258239746,"838":0.45453551411628723,"839":0.04263565316796303,"840":-0.8032224178314209,"841":12.138019561767578,"842":-23.11438751220703,"843":-66.70262908935547,"844":-44.48821258544922,"845":-4.393631935119629,"846":-1.2049299478530884,"847":-72.0914306640625,"848":-36.998374938964844,"849":-0.12905298173427582,"850":0.13115373253822327,"851":-48.952720642089844,"852":27.303478240966797,"853":-69.91808319091797,"854":-26.824373245239258,"855":34.09956741333008,"856":18.787593841552734,"857":-20.694732666015625,"858":-14.554290771484375,"859":-100.04689025878906,"860":-91.90363311767578,"861":122.4295425415039,"862":68.32441711425781,"863":1.941291332244873,"864":103.3349838256836,"865":11.490997314453125,"866":-1.294426679611206,"867":-0.6760706305503845,"868":10.557075500488281,"869":33.51011657714844,"870":3.287585496902466,"871":53.67133712768555,"872":-2.1396408081054688,"873":-70.85196685791016,"874":-188.34600830078125,"875":-16.572546005249023,"876":-10.553125381469727,"877":5.260085582733154,"878":33.47013854980469,"879":-0.30126067996025085,"880":-3.9631540775299072,"881":-3.263335943222046,"882":54.785179138183594,"883":-67.4739761352539,"884":-0.41267773509025574,"885":-2.0999062061309814,"886":6.3832573890686035,"887":53.11330032348633,"888":-18.393522262573242,"889":7.698787689208984,"890":-1.5467091798782349,"891":-38.80202865600586,"892":80.08106994628906,"893":-15.960121154785156,"894":-50.31916809082031,"895":27.441919326782227,"896":3.2795958518981934,"897":-4.417623043060303,"898":16.0808162689209,"899":27.900484085083008,"900":0.9627148509025574,"901":-95.06735229492188,"902":42.22747802734375,"903":0.27339422702789307,"904":-60.34239196777344,"905":-9.335264205932617,"906":-1.437985897064209,"907":0.8010665774345398,"908":-21.408254623413086,"909":7.594374656677246,"910":-39.74420928955078,"911":-49.668548583984375,"912":-40.61748504638672,"913":100.92079162597656,"914":30.916168212890625,"915":-2.0029373168945312,"916":-4.0432448387146,"917":25.00857925415039,"918":-24.51538848876953,"919":-1.2548973560333252,"920":7.607545852661133,"921":-1.6859042644500732,"922":-17.90085220336914,"923":-35.55707550048828,"924":1.4663376808166504,"925":-8.156014442443848,"926":0.8937543630599976,"927":2.995797634124756,"928":-1.910422444343567,"929":2.7748889923095703,"930":-12.394001960754395,"931":-20.882301330566406,"932":-2.507594108581543,"933":-75.29174041748047,"934":-2.0325942039489746,"935":-5.186701774597168,"936":6.939884185791016,"937":-9.484492301940918,"938":-0.5681969523429871,"939":35.84603500366211,"940":2.8737118244171143,"941":-9.52535629272461,"942":2.6053504943847656,"943":0.31030410528182983,"944":7.620075225830078,"945":-11.476101875305176,"946":-2.4433937072753906,"947":-1.1184160709381104,"948":-2.01092267036438,"949":3.23427152633667,"950":-24.84935760498047,"951":3.2132198810577393,"952":-5.165274620056152,"953":-20.38468360900879,"954":2.0040061473846436,"955":7.770420551300049,"956":-12.337662696838379,"957":-3.8502821922302246,"958":1.0550308227539062,"959":-1.8498425483703613,"960":1.310657024383545,"961":-20.0401611328125,"962":36.143192291259766,"963":1.508081316947937,"964":-0.851638674736023,"965":0.02259303815662861,"966":17.748201370239258,"967":-52.7779655456543,"968":-35.75931930541992,"969":-3.2157225608825684,"970":-1.7981387376785278,"971":30.668476104736328,"972":-2.242828607559204,"973":15.296510696411133,"974":-17.610366821289062,"975":0.4042023718357086,"976":-32.885833740234375,"977":0.374385803937912,"978":1.8616505861282349,"979":-62.81379318237305,"980":0.530505895614624,"981":0.9752951860427856,"982":-17.46202278137207,"983":-6.762721538543701,"984":-4.208908557891846,"985":0.43061965703964233,"986":1.520368218421936,"987":17.22825050354004,"988":-11.491556167602539,"989":3.0243048667907715,"990":136.7548065185547,"991":-3.541301727294922,"992":43.124629974365234,"993":-49.68401336669922,"994":-11.296371459960938,"995":9.34829330444336,"996":1.1222230195999146,"997":0.23945322632789612,"998":-1.4580539464950562,"999":1.974432110786438,"1000":0.45435112714767456,"1001":1.7992358207702637,"1002":-29.921213150024414,"1003":6.701355457305908,"1004":1.828277826309204,"1005":1.0467506647109985,"1006":0.40434080362319946,"1007":15.993546485900879,"1008":8.093302726745605,"1009":0.6743408441543579,"1010":-1.4983893632888794,"1011":0.0426606722176075,"1012":-1.3099032640457153,"1013":5.544857501983643,"1014":-2.0996224880218506,"1015":-2.6066157817840576,"1016":-0.5583396553993225,"1017":-2.2351760864257812,"1018":2.0771827697753906,"1019":12.287031173706055,"1020":-0.0010548686841502786,"1021":0.8459880352020264,"1022":-6.824587821960449,"1023":0.051347360014915466,"1024":1.8591187000274658,"1025":0.5464022755622864,"1026":-1.5414297580718994,"1027":-4.333835124969482,"1028":8.534357070922852,"1029":-3.6693532466888428,"1030":14.174063682556152,"1031":-25.795289993286133,"1032":-0.04010869562625885,"1033":6.779750823974609,"1034":-0.4753836393356323,"1035":3.735119104385376,"1036":-2.3765039443969727,"1037":2.8476486206054688,"1038":-3.955291748046875,"1039":1.4273574352264404,"1040":5.095545768737793,"1041":-28.84088706970215,"1042":-20.369670867919922,"1043":-14.30888557434082,"1044":-4.277432441711426,"1045":-0.9902476072311401,"1046":-7.581552505493164,"1047":-43.30820083618164,"1048":8.26608657836914,"1049":-1.8587806224822998,"1050":-8.959394454956055,"1051":-5.656428337097168,"1052":-12.704704284667969,"1053":-12.540767669677734,"1054":5.38296365737915,"1055":4.858948230743408,"1056":6.977596282958984,"1057":1.3986742496490479,"1058":2.348738431930542,"1059":-11.064773559570312,"1060":-4.906332969665527,"1061":42.12847137451172,"1062":-5.606977462768555,"1063":2.414905548095703,"1064":35.55265426635742,"1065":2.3052518367767334,"1066":11.402256965637207,"1067":-37.866390228271484,"1068":-4.8012495040893555,"1069":0.21596641838550568,"1070":5.759775161743164,"1071":-16.505277633666992,"1072":2.1982877254486084,"1073":45.63472366333008,"1074":-3.3303701877593994,"1075":1.539944052696228,"1076":6.617178916931152,"1077":4.898287773132324,"1078":-13.657559394836426,"1079":-0.9692668318748474,"1080":-4.0158843994140625,"1081":4.272010803222656,"1082":-36.68840789794922,"1083":-122.36392211914062,"1084":-8.365193367004395,"1085":6.304688930511475,"1086":5.284052848815918,"1087":85.18363189697266,"1088":70.41468048095703,"1089":-2.0384867191314697,"1090":4.518570423126221,"1091":-0.1735374480485916,"1092":-41.873619079589844,"1093":59.45492172241211,"1094":-34.30841827392578,"1095":1.470557451248169,"1096":-3.141319990158081,"1097":0.38135337829589844,"1098":6.554360389709473,"1099":-60.125675201416016,"1100":23.47409439086914,"1101":-46.20966720581055,"1102":59.2558708190918,"1103":0.7012982964515686,"1104":110.59074401855469,"1105":-10.853751182556152,"1106":-5.060781478881836,"1107":38.94404983520508,"1108":-7.44417142868042,"1109":2.8339009284973145,"1110":-1.300614595413208,"1111":57.59871292114258,"1112":-48.724037170410156,"1113":-41.83800506591797,"1114":-25.321857452392578,"1115":4.321751117706299,"1116":21.34864044189453,"1117":-11.426704406738281,"1118":-13.859347343444824,"1119":7.819463729858398,"1120":0.02248009853065014,"1121":-11.979384422302246,"1122":-1.3255561590194702,"1123":-125.97525787353516,"1124":7.1044721603393555,"1125":-1.6578943729400635,"1126":-12.805152893066406,"1127":-71.59844207763672,"1128":112.25326538085938,"1129":-0.724903404712677,"1130":5.279487609863281,"1131":38.56700134277344,"1132":-6.168393135070801,"1133":-395.97088623046875,"1134":149.875244140625,"1135":5.796420574188232,"1136":19.56279754638672,"1137":-19.743621826171875,"1138":21.921831130981445,"1139":-57.12143325805664,"1140":-59.846351623535156,"1141":-192.2155303955078,"1142":-5.769535064697266,"1143":-13.545204162597656,"1144":-30.44233512878418,"1145":-4.7718729972839355,"1146":5.87518835067749,"1147":-1.9232404232025146,"1148":-91.21310424804688,"1149":-3.4093880653381348,"1150":18.439165115356445,"1151":105.0310287475586,"1152":3.7269203662872314,"1153":84.74368286132812,"1154":209.2925262451172,"1155":-8.209744453430176,"1156":0.32078367471694946,"1157":-3.8428096771240234,"1158":46.22370529174805,"1159":-1.4628369808197021,"1160":-5.350059986114502,"1161":33.721736907958984,"1162":59.814849853515625,"1163":-140.92916870117188,"1164":8.823465347290039,"1165":1.653586983680725,"1166":2.6240365505218506,"1167":-31.926408767700195,"1168":-8.235386848449707,"1169":-4.609371662139893,"1170":-5.531682968139648,"1171":-3.030546188354492,"1172":-19.361597061157227,"1173":94.51701354980469,"1174":4.413204669952393,"1175":-30.272171020507812,"1176":-9.277307510375977,"1177":-17.242136001586914,"1178":23.697185516357422,"1179":-101.27954864501953,"1180":22.24427604675293,"1181":-19.59730339050293,"1182":-6.5780792236328125,"1183":-8.298322677612305,"1184":-3.4650440216064453,"1185":7.950559139251709,"1186":3.5348916053771973,"1187":-32.09264373779297,"1188":2.707451820373535,"1189":-5.325645446777344,"1190":-3.5306098461151123,"1191":-10.341379165649414,"1192":-7.428292274475098,"1193":18.569074630737305,"1194":26.021745681762695,"1195":5.8506083488464355,"1196":-25.61815643310547,"1197":-10.747261047363281,"1198":15.682144165039062,"1199":-5.292224884033203,"1200":-23.652143478393555,"1201":124.1688232421875,"1202":-31.98603630065918,"1203":-79.33378601074219,"1204":288.0103454589844,"1205":-9.887642860412598,"1206":-53.1708869934082,"1207":294.3216247558594,"1208":-166.42808532714844,"1209":12.276115417480469,"1210":0.9684635996818542,"1211":5.668509006500244,"1212":-14.955909729003906,"1213":-0.6529108881950378,"1214":425.21148681640625,"1215":309.0553283691406,"1216":17.488216400146484,"1217":56.98036575317383,"1218":-12.385592460632324,"1219":-56.637813568115234,"1220":-133.93516540527344,"1221":-60.0910758972168,"1222":-30.954833984375,"1223":9.291047096252441,"1224":-66.63265991210938,"1225":17.111501693725586,"1226":-14.0144681930542,"1227":98.82073211669922,"1228":148.41476440429688,"1229":3.7373478412628174,"1230":-39.58247756958008,"1231":96.26802062988281,"1232":-72.92573547363281,"1233":46.05493927001953,"1234":-15.478342056274414,"1235":20.847585678100586,"1236":-74.23445129394531,"1237":-35.28492736816406,"1238":-65.38487243652344,"1239":-11.907959938049316,"1240":-6.453209400177002,"1241":-2.0243921279907227,"1242":7.590063095092773,"1243":-14.21310806274414,"1244":1.4795812368392944,"1245":0.27900829911231995,"1246":16.36390495300293,"1247":43.704246520996094,"1248":33.11565399169922,"1249":0.010573719628155231,"1250":7.08406400680542,"1251":0.4699218273162842,"1252":39.92030715942383,"1253":15.127298355102539,"1254":-0.8739352822303772,"1255":4.494899272918701,"1256":16.246633529663086,"1257":-6.599073886871338,"1258":1.0638768672943115,"1259":10.427536010742188,"1260":6.3497490882873535,"1261":-8.309483528137207,"1262":-11.863062858581543,"1263":-1.9091860055923462,"1264":-74.00466918945312,"1265":-3.018329620361328,"1266":-7.049868583679199,"1267":-7.8811421394348145,"1268":-2.899576425552368,"1269":-1.3825554847717285,"1270":-87.18270111083984,"1271":-9.792744636535645,"1272":49.50413513183594,"1273":7.323853015899658,"1274":16.71399688720703,"1275":-3.6003670692443848,"1276":-17.839353561401367,"1277":7.2201409339904785,"1278":-13.284917831420898,"1279":1.13655424118042,"1280":-3.5091285705566406,"1281":7.383131504058838,"1282":-5.194991111755371,"1283":-32.48739242553711,"1284":4.099836826324463,"1285":-0.9513691067695618,"1286":-14.958575248718262,"1287":-32.364688873291016,"1288":92.54216003417969,"1289":-6.787905693054199,"1290":-25.81183624267578,"1291":-81.66211700439453,"1292":41.67839050292969,"1293":-190.02879333496094,"1294":31.048906326293945,"1295":8.528459548950195,"1296":34.352909088134766,"1297":-70.4893798828125,"1298":-11.274216651916504,"1299":58.732112884521484,"1300":9.74924087524414,"1301":-46.141056060791016,"1302":-9.942852020263672,"1303":-2.1738171577453613,"1304":-60.37974166870117,"1305":7.498499393463135,"1306":-1.6558399200439453,"1307":-9.86027717590332,"1308":30.641443252563477,"1309":-16.720346450805664,"1310":7.560568809509277,"1311":49.53608322143555,"1312":0.8829994201660156,"1313":11.984370231628418,"1314":-1.325831651687622,"1315":-90.60857391357422,"1316":20.788480758666992,"1317":-12.558429718017578,"1318":-92.14224243164062,"1319":0.4574111998081207,"1320":1.5027005672454834,"1321":-3.4935147762298584,"1322":35.216819763183594,"1323":14.394042015075684,"1324":1.2785933017730713,"1325":0.7055855989456177,"1326":1.3019801378250122,"1327":-13.880166053771973,"1328":-0.16001008450984955,"1329":0.9772693514823914,"1330":-1.120652198791504,"1331":3.0795822143554688,"1332":-2.207331657409668,"1333":-3.8823187351226807,"1334":3.2297022342681885,"1335":1.3783982992172241,"1336":-2.4139883518218994,"1337":-1.351288914680481,"1338":2.1375513076782227,"1339":-9.997902870178223,"1340":-4.208863735198975,"1341":-16.043121337890625,"1342":2.143207311630249,"1343":1.097153663635254,"1344":-17.715194702148438,"1345":2.312628746032715,"1346":0.5556926727294922,"1347":-11.965296745300293,"1348":2.1638097763061523,"1349":0.8360058069229126,"1350":-31.910005569458008,"1351":-4.303015232086182,"1352":-1.4987577199935913,"1353":12.40580940246582,"1354":4.9449896812438965,"1355":6.146592617034912,"1356":4.725429534912109,"1357":7.081852912902832,"1358":1.7735474109649658,"1359":3.2947299480438232,"1360":-6.064180374145508,"1361":24.669326782226562,"1362":-41.98585510253906,"1363":1.19709312915802,"1364":20.583938598632812,"1365":-6.407108306884766,"1366":-11.41374683380127,"1367":28.777040481567383,"1368":-21.74006462097168,"1369":-7.560523509979248,"1370":-12.236289978027344,"1371":10.59628677368164,"1372":-41.87468719482422,"1373":-0.23564018309116364,"1374":-0.5624857544898987,"1375":4.709705829620361,"1376":4.455400466918945,"1377":-1.711421012878418,"1378":0.06998300552368164,"1379":6.967412948608398,"1380":-0.020063167437911034,"1381":-61.98849105834961,"1382":7.859810829162598,"1383":-8.489585876464844,"1384":-4.231973171234131,"1385":15.9489164352417,"1386":-2.1186108589172363,"1387":7.920558929443359,"1388":31.76171112060547,"1389":-50.26637268066406,"1390":-9.178168296813965,"1391":-6.954235553741455,"1392":-19.70392608642578,"1393":55.94305419921875,"1394":11.429583549499512,"1395":-17.098960876464844,"1396":26.683834075927734,"1397":-3.3987503051757812,"1398":7.237148284912109,"1399":6.429274559020996,"1400":0.6405125260353088,"1401":39.23673629760742,"1402":-355.5473327636719,"1403":34.5631103515625,"1404":-4.234295845031738,"1405":1.224158525466919,"1406":-5.0046491622924805,"1407":-8.170693397521973,"1408":-27.76249885559082,"1409":-14.788957595825195,"1410":8.932882308959961,"1411":-11.129739761352539,"1412":-20.905559539794922,"1413":-86.78620147705078,"1414":-1.3759726285934448,"1415":-0.20682406425476074,"1416":11.854456901550293,"1417":-2.973642349243164,"1418":-6.192812442779541,"1419":-11.543129920959473,"1420":-2.6337082386016846,"1421":-68.64401245117188,"1422":2.4363112449645996,"1423":-3.2297425270080566,"1424":-11.466094970703125,"1425":-19.02920913696289,"1426":-2.3218560218811035,"1427":-4.893138885498047,"1428":4.080996990203857,"1429":-24.570775985717773,"1430":11.142599105834961,"1431":-89.30667877197266,"1432":8.715529441833496,"1433":28.568002700805664,"1434":89.49303436279297,"1435":4.5548601150512695,"1436":-5.095822811126709,"1437":-1.9021797180175781,"1438":-4.761053085327148,"1439":6.325189590454102,"1440":-1.5760979652404785,"1441":18.980270385742188,"1442":39.6555061340332,"1443":-0.9745196104049683,"1444":4.1269612312316895,"1445":2.530878782272339,"1446":1.8423494100570679,"1447":61.613521575927734,"1448":15.813467979431152,"1449":-0.4409905672073364,"1450":-4.029399871826172,"1451":1.3389878273010254,"1452":0.01961449719965458,"1453":-97.24034118652344,"1454":0.28906959295272827,"1455":0.13284119963645935,"1456":0.9739692211151123,"1457":0.5349449515342712,"1458":3.4801766872406006,"1459":-14.639341354370117,"1460":-6.731273174285889,"1461":-16.320207595825195,"1462":28.860633850097656,"1463":0.9595563411712646,"1464":44.63678741455078,"1465":-4.051275253295898,"1466":-1.6474356651306152,"1467":-17.419363021850586,"1468":0.6117345690727234,"1469":12.447198867797852,"1470":3.4368185997009277,"1471":-46.21135330200195,"1472":-4.152098655700684,"1473":-9.30427360534668,"1474":-5.959359169006348,"1475":13.084001541137695,"1476":7.216026306152344,"1477":0.7159703373908997,"1478":-10.124361038208008,"1479":0.698915958404541,"1480":2.5412604808807373,"1481":4.586101531982422,"1482":83.72630310058594,"1483":22.884010314941406,"1484":-18.813941955566406,"1485":9.11452579498291,"1486":-14.283916473388672,"1487":-10.593238830566406,"1488":-139.6475830078125,"1489":6.559435844421387,"1490":35.57529830932617,"1491":-72.83333587646484,"1492":93.96192169189453,"1493":19.8521785736084,"1494":-1.9856698513031006,"1495":-1.9259822368621826,"1496":-17.3619384765625,"1497":1.9354206323623657,"1498":4.5075225830078125,"1499":7.660815715789795,"1500":-48.065799713134766,"1501":-35.741573333740234,"1502":-3.470998525619507,"1503":-2.8230340480804443,"1504":75.26631164550781,"1505":12.707685470581055,"1506":-3.904799461364746,"1507":11.427730560302734,"1508":12.194119453430176,"1509":18.567241668701172,"1510":3.7678656578063965,"1511":-83.80172729492188,"1512":1.1006805896759033,"1513":-23.02134132385254,"1514":-24.417722702026367,"1515":15.703691482543945,"1516":8.789716720581055,"1517":-8.411967277526855,"1518":23.754798889160156,"1519":13.518233299255371,"1520":1.079658031463623,"1521":28.39481544494629,"1522":80.01007080078125,"1523":2.417421579360962,"1524":4.219956874847412,"1525":-0.6376248598098755,"1526":1.0374860763549805,"1527":-68.9373779296875,"1528":19.32182502746582,"1529":1.393537163734436,"1530":7.238019943237305,"1531":-2.301253080368042,"1532":2.080899715423584,"1533":-23.729164123535156,"1534":-5.265281677246094,"1535":8.78714370727539,"1536":-3.013038158416748,"1537":1.630203127861023,"1538":3.5295488834381104,"1539":14.947047233581543,"1540":-1.9519602060317993,"1541":-43.340545654296875,"1542":3.122490882873535,"1543":-2.196432590484619,"1544":-10.061502456665039,"1545":-3.1033272743225098,"1546":0.9890332818031311,"1547":-2.549116611480713,"1548":3.3438544273376465,"1549":6.065406799316406,"1550":7.583836078643799,"1551":-189.81320190429688,"1552":-5.797170162200928,"1553":7.003532409667969,"1554":13.398710250854492,"1555":-6.561619758605957,"1556":-0.42180076241493225,"1557":1.9721341133117676,"1558":8.300124168395996,"1559":0.05298113077878952,"1560":32.74900817871094,"1561":-61.96397018432617,"1562":-36.85887145996094,"1563":-35.059391021728516,"1564":55.576045989990234,"1565":0.47053712606430054,"1566":48.62755584716797,"1567":-186.364013671875,"1568":-41.940391540527344,"1569":-14.120118141174316,"1570":-54.78879165649414,"1571":39.57686996459961,"1572":-48.63957214355469,"1573":16.797557830810547,"1574":9.542511940002441,"1575":-79.16958618164062,"1576":18.67770004272461,"1577":-37.351165771484375,"1578":-25.686016082763672,"1579":1.1940243244171143,"1580":-81.04275512695312,"1581":-58.29829406738281,"1582":-9.494235038757324,"1583":2.3095862865448,"1584":-45.903038024902344,"1585":8.881978034973145,"1586":43.90672302246094,"1587":-94.17853546142578,"1588":-26.438129425048828,"1589":2.321248769760132,"1590":-2.571678400039673,"1591":-13.081045150756836,"1592":-24.28430938720703,"1593":17.658126831054688,"1594":48.56437683105469,"1595":28.220090866088867,"1596":9.589616775512695,"1597":19.651348114013672,"1598":-9.506550788879395,"1599":-3.1864588260650635}},"inputBias":{"rows":40,"columns":1,"weights":{"0":-0.7188547253608704,"1":0.1409047394990921,"2":0.5098033547401428,"3":-0.03350524604320526,"4":1.0205804109573364,"5":-2.2658209800720215,"6":-0.6015046834945679,"7":1.688729166984558,"8":3.620558738708496,"9":-0.8749976754188538,"10":-0.1409752517938614,"11":5.925434589385986,"12":5.512712478637695,"13":0.21306218206882477,"14":7.630955696105957,"15":1.8042049407958984,"16":1.9208744764328003,"17":18.176822662353516,"18":0.10658647865056992,"19":-3.5450515747070312,"20":1.0084819793701172,"21":0.07052731513977051,"22":0.741239070892334,"23":-0.6604061126708984,"24":0.9343281388282776,"25":0.3999379873275757,"26":14.03812026977539,"27":8.071212768554688,"28":7.261135578155518,"29":2.149080991744995,"30":-0.3914634585380554,"31":0.9508532285690308,"32":0.9446213245391846,"33":0.510325014591217,"34":3.2423620223999023,"35":-1.231143593788147,"36":-0.02458246611058712,"37":-0.016816476359963417,"38":0.1382203847169876,"39":0.8166481256484985}},"forgetMatrix":{"rows":40,"columns":1,"weights":{"0":-0.23853138089179993,"1":-8.372481346130371,"2":-4.734289169311523,"3":-0.7695018649101257,"4":3.8623499870300293,"5":3.3134701251983643,"6":1.2117336988449097,"7":4.875557899475098,"8":5.445700645446777,"9":-6.380915641784668,"10":-1.7828543186187744,"11":-0.28468093276023865,"12":0.7563216090202332,"13":11.267374038696289,"14":-16.78848648071289,"15":-5.6591949462890625,"16":2.99247670173645,"17":0.66771000623703,"18":1.9838974475860596,"19":9.56515121459961,"20":-1.9707025289535522,"21":-4.629157066345215,"22":-3.845083475112915,"23":-0.8597030639648438,"24":1.4109166860580444,"25":2.127667188644409,"26":0.16493549942970276,"27":8.731831550598145,"28":-7.573612213134766,"29":-3.5136990547180176,"30":-4.945046424865723,"31":-4.771341800689697,"32":-3.2306714057922363,"33":3.8034825325012207,"34":5.6973137855529785,"35":3.4586238861083984,"36":-3.0652408599853516,"37":-0.2589147388935089,"38":5.110539436340332,"39":-0.4337390065193176}},"forgetHidden":{"rows":40,"columns":40,"weights":{"0":-8.23677921295166,"1":4.846337795257568,"2":-55.24536895751953,"3":4.359781265258789,"4":-18.072778701782227,"5":0.2532808184623718,"6":13.672853469848633,"7":-81.65155029296875,"8":-12.676733016967773,"9":-1.5945676565170288,"10":-5.804645538330078,"11":-59.68251419067383,"12":16.076364517211914,"13":22.26702880859375,"14":-8.99795913696289,"15":20.219213485717773,"16":24.578109741210938,"17":-11.384310722351074,"18":-12.298534393310547,"19":-8.972627639770508,"20":18.822351455688477,"21":21.12449073791504,"22":4.4684953689575195,"23":3.9118635654449463,"24":1.9419513940811157,"25":0.2886166572570801,"26":5.165285587310791,"27":-10.09858226776123,"28":5.997990131378174,"29":3.6972386837005615,"30":10.222579002380371,"31":-14.324474334716797,"32":-13.870368957519531,"33":-87.8492431640625,"34":14.316845893859863,"35":0.9440999627113342,"36":36.71931076049805,"37":-4.554769039154053,"38":-0.9654189348220825,"39":-2.1833226680755615,"40":-5.267590522766113,"41":2.260460615158081,"42":-13.926214218139648,"43":18.734201431274414,"44":0.09118067473173141,"45":4.647933483123779,"46":-10.373214721679688,"47":7.441661357879639,"48":-3.456605911254883,"49":-4.7942094802856445,"50":6.359164237976074,"51":-0.24963170289993286,"52":0.2165522277355194,"53":-2.3105008602142334,"54":9.732839584350586,"55":-4.8441081047058105,"56":-8.144145965576172,"57":3.5594522953033447,"58":-0.928468644618988,"59":-12.86711311340332,"60":-1.9134752750396729,"61":6.175506591796875,"62":-1.5095385313034058,"63":-3.2737679481506348,"64":2.9917733669281006,"65":4.675049781799316,"66":-1.2536689043045044,"67":-0.20268191397190094,"68":-9.691259384155273,"69":3.7408885955810547,"70":-0.6057043075561523,"71":5.715052604675293,"72":-2.8053343296051025,"73":-5.599644660949707,"74":19.775997161865234,"75":6.614109992980957,"76":-10.382743835449219,"77":-34.826332092285156,"78":4.25943660736084,"79":8.856132507324219,"80":4.089642524719238,"81":7.7147111892700195,"82":-0.2701771557331085,"83":-1.1161038875579834,"84":2.194211006164551,"85":5.215868949890137,"86":-1.635667085647583,"87":2.181605339050293,"88":-8.779532432556152,"89":2.28037428855896,"90":2.832798480987549,"91":6.76886510848999,"92":-0.8887158632278442,"93":-5.5433149337768555,"94":2.3006210327148438,"95":-3.6234850883483887,"96":-1.8502914905548096,"97":2.3480429649353027,"98":-8.157929420471191,"99":-3.7356653213500977,"100":1.0154715776443481,"101":2.216768741607666,"102":-9.097879409790039,"103":-2.8155927658081055,"104":2.8191282749176025,"105":-2.0135304927825928,"106":-5.957618236541748,"107":0.7194861769676208,"108":-0.07162178307771683,"109":2.958838939666748,"110":-0.2894028127193451,"111":-2.2195632457733154,"112":3.793487071990967,"113":0.061374519020318985,"114":0.6811181902885437,"115":-2.6752285957336426,"116":-0.8883509039878845,"117":-0.6716101765632629,"118":1.8933756351470947,"119":4.1371684074401855,"120":-3.9983019828796387,"121":10.346964836120605,"122":-2.1174910068511963,"123":-11.578719139099121,"124":1.5979294776916504,"125":4.175398349761963,"126":-20.067472457885742,"127":-31.301429748535156,"128":-42.32432174682617,"129":-3.052658796310425,"130":-92.77680969238281,"131":3.485264301300049,"132":10.108325004577637,"133":-56.410648345947266,"134":-6.124802112579346,"135":-9.705681800842285,"136":23.089454650878906,"137":-9.20115852355957,"138":-6.61093282699585,"139":160.7646026611328,"140":-5.7133636474609375,"141":-65.36031341552734,"142":-3.990528106689453,"143":-4.354610919952393,"144":153.95579528808594,"145":15.424427032470703,"146":-4.575407028198242,"147":24.62486457824707,"148":1.4502495527267456,"149":-34.00126647949219,"150":93.14048767089844,"151":-37.41570281982422,"152":-2.859930992126465,"153":149.17349243164062,"154":4.4182939529418945,"155":-28.85819435119629,"156":5.386251449584961,"157":-1.8193389177322388,"158":-4.495721340179443,"159":4.6364216804504395,"160":11.17207145690918,"161":88.60603332519531,"162":96.72517395019531,"163":-52.779232025146484,"164":-12.320706367492676,"165":-4.592996597290039,"166":-15.330780029296875,"167":-86.80860137939453,"168":-17.348045349121094,"169":-12.353489875793457,"170":3.0342414379119873,"171":53.8826904296875,"172":59.642677307128906,"173":228.0409393310547,"174":-42.37283706665039,"175":1.8443763256072998,"176":38.0832633972168,"177":-15.49707317352295,"178":-15.113739967346191,"179":-14.919325828552246,"180":-8.738777160644531,"181":-104.47611999511719,"182":15.151841163635254,"183":1.3472272157669067,"184":10.249045372009277,"185":17.6690731048584,"186":2.2250163555145264,"187":50.92741012573242,"188":4.847670555114746,"189":-11.382342338562012,"190":-57.8005485534668,"191":79.18358612060547,"192":-2.1151864528656006,"193":28.65586280822754,"194":-6.683808326721191,"195":2.8900365829467773,"196":15.743341445922852,"197":-44.28571701049805,"198":30.83016586303711,"199":-3.7524330615997314,"200":6.521950721740723,"201":-17.6262149810791,"202":49.717811584472656,"203":-31.95949363708496,"204":-21.68813133239746,"205":-5.597754955291748,"206":9.032901763916016,"207":-75.53443908691406,"208":-15.081944465637207,"209":11.659869194030762,"210":-5.066050052642822,"211":-1.5773086547851562,"212":-20.737306594848633,"213":-34.286163330078125,"214":13.791772842407227,"215":-26.638811111450195,"216":5.698601245880127,"217":8.502626419067383,"218":20.213056564331055,"219":-13.4039945602417,"220":-11.059535026550293,"221":12.719897270202637,"222":-15.113627433776855,"223":2.6183738708496094,"224":-18.07076072692871,"225":-7.092310905456543,"226":4.107332706451416,"227":1.8228026628494263,"228":-1.7440917491912842,"229":7.6649322509765625,"230":-13.06948471069336,"231":-20.457983016967773,"232":11.438532829284668,"233":-64.96776580810547,"234":17.897748947143555,"235":8.1588134765625,"236":-43.96123504638672,"237":25.17453956604004,"238":-24.778987884521484,"239":-4.189237594604492,"240":-3.8081459999084473,"241":39.014869689941406,"242":-154.03958129882812,"243":26.717594146728516,"244":-48.60114288330078,"245":-3.6636550426483154,"246":-0.9964316487312317,"247":-109.78372955322266,"248":-166.7123260498047,"249":-11.440316200256348,"250":7.514374256134033,"251":14.98572063446045,"252":131.8389892578125,"253":-41.251068115234375,"254":-1.6694918870925903,"255":-9.266103744506836,"256":-42.590641021728516,"257":8.461676597595215,"258":-5.124497413635254,"259":-50.88441848754883,"260":17.254592895507812,"261":-96.05164337158203,"262":-28.515262603759766,"263":9.75391960144043,"264":-35.424625396728516,"265":-17.76201057434082,"266":3.158881425857544,"267":1.3668245077133179,"268":-1.2145111560821533,"269":46.1925048828125,"270":-24.188465118408203,"271":-168.88526916503906,"272":-19.664901733398438,"273":99.97946166992188,"274":-11.416542053222656,"275":16.297588348388672,"276":20.253314971923828,"277":4.864385604858398,"278":68.23258209228516,"279":-2.869833469390869,"280":0.8250353932380676,"281":6.000053405761719,"282":-5.589113712310791,"283":3.5221188068389893,"284":0.8414865136146545,"285":-0.5130579471588135,"286":7.597536087036133,"287":-12.975422859191895,"288":-3.130748987197876,"289":0.48180028796195984,"290":-4.563584804534912,"291":-8.719552040100098,"292":-2.6389570236206055,"293":8.855037689208984,"294":9.567678451538086,"295":-0.9393643736839294,"296":-0.831579327583313,"297":2.1655359268188477,"298":0.9510871767997742,"299":9.66599178314209,"300":3.748964786529541,"301":3.0085737705230713,"302":-6.978572368621826,"303":1.7708837985992432,"304":2.9947445392608643,"305":-4.338715553283691,"306":-0.05585462599992752,"307":-6.994522571563721,"308":9.394652366638184,"309":8.457008361816406,"310":-10.785383224487305,"311":-5.1655659675598145,"312":-1.5650794506072998,"313":-9.434247970581055,"314":7.1528215408325195,"315":-1.827218770980835,"316":11.261666297912598,"317":1.8004955053329468,"318":3.7047479152679443,"319":-3.1175286769866943,"320":-4.709630966186523,"321":10.819252014160156,"322":3.5523643493652344,"323":27.179264068603516,"324":-14.035932540893555,"325":-6.384748935699463,"326":-6.519000053405762,"327":0.6245420575141907,"328":19.8708438873291,"329":26.839075088500977,"330":-24.438243865966797,"331":-1.6888142824172974,"332":-2.5362653732299805,"333":25.41560935974121,"334":-20.334484100341797,"335":-5.494563102722168,"336":-11.520637512207031,"337":-6.826262474060059,"338":17.72349739074707,"339":5.615522384643555,"340":21.02691078186035,"341":4.760608196258545,"342":-6.620405197143555,"343":-1.3451886177062988,"344":4.720625877380371,"345":-20.46155548095703,"346":10.81541919708252,"347":-18.0236873626709,"348":-3.4346845149993896,"349":-3.967155933380127,"350":-43.09452819824219,"351":-0.6844045519828796,"352":9.859124183654785,"353":2.01281476020813,"354":14.785327911376953,"355":7.143082141876221,"356":-5.599628925323486,"357":22.13661003112793,"358":4.3144965171813965,"359":-8.491971969604492,"360":-12.3895263671875,"361":-6.295287132263184,"362":-9.594816207885742,"363":-67.9571304321289,"364":-1.7115058898925781,"365":7.599266052246094,"366":-2.1322872638702393,"367":-2.792067289352417,"368":-0.07097368687391281,"369":-8.66292953491211,"370":-1.604459524154663,"371":-13.599892616271973,"372":-0.5445062518119812,"373":-7.960104942321777,"374":1.1005548238754272,"375":37.26894760131836,"376":3.3638675212860107,"377":7.101944446563721,"378":-34.78013229370117,"379":-5.081210613250732,"380":-53.98965835571289,"381":3.714693546295166,"382":-2.4532413482666016,"383":3.5833394527435303,"384":-3.702341079711914,"385":20.190258026123047,"386":-5.467341899871826,"387":36.746273040771484,"388":-50.661014556884766,"389":-6.99713134765625,"390":-13.003817558288574,"391":-4.418318271636963,"392":-1.013319730758667,"393":-9.83126449584961,"394":-2.2238941192626953,"395":-23.015438079833984,"396":-0.29099082946777344,"397":-3.5096447467803955,"398":1.6610430479049683,"399":22.80005645751953,"400":0.8364332318305969,"401":-15.255751609802246,"402":57.30121612548828,"403":-3.730881929397583,"404":-5.155084133148193,"405":-0.8300346732139587,"406":13.42512035369873,"407":-108.89310455322266,"408":-37.78184509277344,"409":1.846792459487915,"410":-4.265312194824219,"411":-37.12837600708008,"412":-10.654769897460938,"413":23.687763214111328,"414":2.7253212928771973,"415":-14.237814903259277,"416":10.563395500183105,"417":-11.760703086853027,"418":3.048797845840454,"419":19.755006790161133,"420":-24.202537536621094,"421":-14.5949125289917,"422":35.70401382446289,"423":1.990734338760376,"424":-36.46869659423828,"425":-3.4351375102996826,"426":-8.074495315551758,"427":-1.5042555332183838,"428":115.48587799072266,"429":8.136919975280762,"430":-81.24539947509766,"431":59.15569305419922,"432":4.216122627258301,"433":10.37358283996582,"434":22.48526954650879,"435":-21.374040603637695,"436":6.767728805541992,"437":6.368776798248291,"438":-30.01437759399414,"439":1.0264941453933716,"440":-3.466845989227295,"441":27.495237350463867,"442":-293.84027099609375,"443":13.97022819519043,"444":7.783846855163574,"445":-0.5837548971176147,"446":14.952133178710938,"447":250.53135681152344,"448":-7.44411039352417,"449":3.621668577194214,"450":0.7175084352493286,"451":-4.6995768547058105,"452":24.062952041625977,"453":-20.644147872924805,"454":6.858623504638672,"455":-1.4844332933425903,"456":34.84878158569336,"457":8.070570945739746,"458":-2.193660259246826,"459":-199.96153259277344,"460":-25.68621063232422,"461":8.904597282409668,"462":-2.207613468170166,"463":-0.2539741098880768,"464":-38.251976013183594,"465":0.7723755836486816,"466":-2.8828177452087402,"467":-6.104010105133057,"468":32.30757522583008,"469":11.94771671295166,"470":-2.1792924404144287,"471":-13.899009704589844,"472":2.745469093322754,"473":-174.8067169189453,"474":-5.081658363342285,"475":5.001469135284424,"476":13.62667179107666,"477":-18.31344985961914,"478":-34.49348831176758,"479":0.8669215440750122,"480":-3.1117005348205566,"481":-30.831878662109375,"482":-41.58839797973633,"483":6.466174125671387,"484":-6.343816757202148,"485":-0.7279139757156372,"486":14.076994895935059,"487":-4.892579555511475,"488":20.917190551757812,"489":12.312100410461426,"490":0.5132354497909546,"491":-61.40496063232422,"492":3.152317762374878,"493":-9.912423133850098,"494":-6.173728942871094,"495":-7.611337661743164,"496":10.976284980773926,"497":-4.614073276519775,"498":2.056586742401123,"499":-6.002345561981201,"500":1.3231444358825684,"501":9.014179229736328,"502":3.6103522777557373,"503":-4.628166675567627,"504":17.816612243652344,"505":2.742253303527832,"506":16.27889633178711,"507":-1.2551757097244263,"508":-7.215149879455566,"509":-1.5889915227890015,"510":23.077251434326172,"511":-8.283979415893555,"512":22.743581771850586,"513":-33.69525146484375,"514":-9.403619766235352,"515":-4.314697742462158,"516":-16.070051193237305,"517":15.701521873474121,"518":0.6436902284622192,"519":0.7171548008918762,"520":-1.354486346244812,"521":40.646568298339844,"522":-43.634273529052734,"523":-76.21943664550781,"524":33.55799102783203,"525":5.217153072357178,"526":-10.788622856140137,"527":-95.34798431396484,"528":-93.88497924804688,"529":44.83154296875,"530":3.337881326675415,"531":13.4656343460083,"532":214.3108673095703,"533":-132.01837158203125,"534":84.68580627441406,"535":14.261932373046875,"536":3.0834126472473145,"537":21.890806198120117,"538":-41.62174987792969,"539":52.56574249267578,"540":-62.85249328613281,"541":-22.49399185180664,"542":-89.00841522216797,"543":5.170319080352783,"544":17.888202667236328,"545":39.89411544799805,"546":-2.1233413219451904,"547":22.21870994567871,"548":-28.871234893798828,"549":-65.60688781738281,"550":107.78449249267578,"551":3.292633056640625,"552":13.558250427246094,"553":86.71568298339844,"554":99.4668197631836,"555":-20.738874435424805,"556":37.058773040771484,"557":-31.684288024902344,"558":108.82083892822266,"559":9.918601989746094,"560":8.51295280456543,"561":206.45123291015625,"562":-36.40216827392578,"563":-12.199417114257812,"564":5.787002086639404,"565":11.420528411865234,"566":-11.365518569946289,"567":-45.3375244140625,"568":-223.17169189453125,"569":12.833823204040527,"570":89.10123443603516,"571":-191.96107482910156,"572":-2.260394334793091,"573":-72.35680389404297,"574":17.643009185791016,"575":6.678683280944824,"576":-103.89105224609375,"577":-31.003480911254883,"578":12.716647148132324,"579":-231.95159912109375,"580":-3.4850385189056396,"581":-208.39801025390625,"582":-9.611693382263184,"583":-10.943634033203125,"584":-214.2754669189453,"585":7.986596584320068,"586":-2.19599986076355,"587":-9.495707511901855,"588":5.507898330688477,"589":99.79375457763672,"590":41.806522369384766,"591":-237.58045959472656,"592":-1.684786081314087,"593":-393.2662353515625,"594":107.8378677368164,"595":39.11825180053711,"596":68.42818450927734,"597":14.786543846130371,"598":46.64522933959961,"599":16.794841766357422,"600":-3.7550151348114014,"601":-11.74142837524414,"602":-1.958663821220398,"603":108.90595245361328,"604":-11.747159004211426,"605":5.6663665771484375,"606":-1.6127901077270508,"607":-44.77949523925781,"608":-209.3994140625,"609":-6.414270401000977,"610":5.4470062255859375,"611":20.908723831176758,"612":67.41947174072266,"613":15.142313957214355,"614":-100.49205017089844,"615":-1.832621693611145,"616":-65.21865844726562,"617":2.1862378120422363,"618":-0.24142396450042725,"619":29.648815155029297,"620":52.2717399597168,"621":5.551053524017334,"622":234.44923400878906,"623":4.527385234832764,"624":-111.84935760498047,"625":-56.10227584838867,"626":-7.847527027130127,"627":0.4165373742580414,"628":-1.1741427183151245,"629":15.204401016235352,"630":0.700890064239502,"631":-31.49917221069336,"632":1.8625683784484863,"633":-9.409407615661621,"634":-26.187162399291992,"635":-4.489262580871582,"636":10.300920486450195,"637":-15.015364646911621,"638":35.88397216796875,"639":3.856110095977783,"640":2.1987321376800537,"641":19.08942985534668,"642":-105.83960723876953,"643":7.934770107269287,"644":12.608160972595215,"645":5.069712162017822,"646":-82.3309555053711,"647":113.55805206298828,"648":-79.94880676269531,"649":72.5884780883789,"650":4.857707500457764,"651":29.14438819885254,"652":-40.97128677368164,"653":41.459999084472656,"654":41.94919967651367,"655":-5.413843631744385,"656":1.8614449501037598,"657":-16.17685890197754,"658":16.106807708740234,"659":18.361812591552734,"660":0.7625088095664978,"661":96.83812713623047,"662":65.2741928100586,"663":-1.415472149848938,"664":96.34064483642578,"665":-3.7445831298828125,"666":1.2182910442352295,"667":-57.913597106933594,"668":18.955387115478516,"669":-22.78936004638672,"670":-146.74932861328125,"671":139.47669982910156,"672":-8.989358901977539,"673":-238.3717803955078,"674":57.70149612426758,"675":-22.584339141845703,"676":-29.787792205810547,"677":0.8200457096099854,"678":-21.90146827697754,"679":5.200725078582764,"680":0.035850103944540024,"681":-14.285598754882812,"682":17.851659774780273,"683":1.681225061416626,"684":-4.280314922332764,"685":-0.8653073310852051,"686":0.7436197996139526,"687":-128.81494140625,"688":-30.144655227661133,"689":-0.7587303519248962,"690":-0.8337953090667725,"691":-12.574214935302734,"692":82.01222229003906,"693":12.406944274902344,"694":1.732914924621582,"695":2.010493755340576,"696":9.949849128723145,"697":2.4999752044677734,"698":0.09342406690120697,"699":-254.08685302734375,"700":0.8581616878509521,"701":-124.14615631103516,"702":1.7566406726837158,"703":1.5155296325683594,"704":-26.679359436035156,"705":-3.8382654190063477,"706":0.05210370942950249,"707":-2.072840452194214,"708":0.41304582357406616,"709":27.077167510986328,"710":-6.946482181549072,"711":-16.225662231445312,"712":-0.9088757038116455,"713":-187.26486206054688,"714":-2.9517157077789307,"715":9.273394584655762,"716":0.4198835492134094,"717":-1.00900137424469,"718":-4.21838903427124,"719":0.7790176272392273,"720":2.9728686809539795,"721":-62.575374603271484,"722":-117.61548614501953,"723":190.31053161621094,"724":0.9039251804351807,"725":4.252719402313232,"726":-33.796600341796875,"727":158.63331604003906,"728":121.47891235351562,"729":-6.090475082397461,"730":-1.9969083070755005,"731":39.51467514038086,"732":10.242119789123535,"733":-60.83538055419922,"734":10.165119171142578,"735":-9.69551944732666,"736":-73.70088195800781,"737":6.900649070739746,"738":5.298570156097412,"739":-150.08078002929688,"740":52.74250793457031,"741":329.3616027832031,"742":164.53831481933594,"743":-12.692278861999512,"744":112.15861511230469,"745":32.62920379638672,"746":-5.292184352874756,"747":-25.00457763671875,"748":-21.045988082885742,"749":-12.560890197753906,"750":46.92039489746094,"751":-37.769561767578125,"752":1.577603816986084,"753":-31.09886932373047,"754":320.14898681640625,"755":22.031274795532227,"756":-35.248924255371094,"757":31.93506622314453,"758":76.43297576904297,"759":1.8069885969161987,"760":0.2561780512332916,"761":-8.018211364746094,"762":1.3082207441329956,"763":13.36381721496582,"764":7.184483051300049,"765":-22.20391845703125,"766":14.44566822052002,"767":-22.79477310180664,"768":1.9008387327194214,"769":-2.0078623294830322,"770":-8.371615409851074,"771":-2.9530282020568848,"772":3.0845935344696045,"773":12.69102954864502,"774":-9.312371253967285,"775":24.880922317504883,"776":14.272038459777832,"777":-8.344937324523926,"778":-7.306042671203613,"779":20.785751342773438,"780":16.000965118408203,"781":-0.6821672320365906,"782":11.413082122802734,"783":7.85762882232666,"784":18.80977439880371,"785":-7.355403423309326,"786":9.642019271850586,"787":12.14046859741211,"788":1.4343171119689941,"789":2.173565149307251,"790":-0.7706410884857178,"791":3.675433397293091,"792":9.350193977355957,"793":-2.8481504917144775,"794":12.490503311157227,"795":-10.841320037841797,"796":9.722034454345703,"797":-14.699503898620605,"798":5.132155895233154,"799":-20.635984420776367,"800":2.227104425430298,"801":-26.123159408569336,"802":75.81602478027344,"803":42.38397216796875,"804":-7.461400032043457,"805":9.336749076843262,"806":35.77128219604492,"807":17.909847259521484,"808":35.007511138916016,"809":21.658416748046875,"810":-4.582709312438965,"811":-18.229040145874023,"812":-63.07931900024414,"813":-17.487743377685547,"814":-21.156940460205078,"815":-10.63374137878418,"816":-17.577259063720703,"817":-1.5435744524002075,"818":16.73621940612793,"819":-32.56916427612305,"820":-5.100492477416992,"821":33.302490234375,"822":-7.7670416831970215,"823":11.069437980651855,"824":69.9232406616211,"825":12.969091415405273,"826":1.835338830947876,"827":23.16069221496582,"828":-16.78561782836914,"829":-16.751750946044922,"830":21.309968948364258,"831":38.00537872314453,"832":15.60599136352539,"833":59.182437896728516,"834":-0.733188271522522,"835":6.231533527374268,"836":-5.019321441650391,"837":-3.6326382160186768,"838":-12.196868896484375,"839":6.203988075256348,"840":2.2154183387756348,"841":72.82670593261719,"842":-74.2462158203125,"843":-11.291299819946289,"844":-21.381546020507812,"845":4.212571620941162,"846":32.3769645690918,"847":35.02168655395508,"848":-10.260489463806152,"849":-21.213598251342773,"850":13.90896224975586,"851":-59.65198516845703,"852":63.8851318359375,"853":-58.985389709472656,"854":-37.297340393066406,"855":-5.528173446655273,"856":-24.872907638549805,"857":44.31731414794922,"858":-10.16664981842041,"859":-34.29207229614258,"860":12.787641525268555,"861":-23.141204833984375,"862":13.832119941711426,"863":41.292213439941406,"864":-80.50424194335938,"865":4.748404502868652,"866":6.049844741821289,"867":-9.47449779510498,"868":6.630426406860352,"869":-26.46117401123047,"870":7.844974994659424,"871":-45.580806732177734,"872":-27.538867950439453,"873":6.9469709396362305,"874":43.23835372924805,"875":-5.117675304412842,"876":61.646339416503906,"877":-13.026307106018066,"878":12.554886817932129,"879":2.697763204574585,"880":-8.524910926818848,"881":8.786189079284668,"882":-170.72018432617188,"883":17.273883819580078,"884":-32.68478775024414,"885":-0.03381901606917381,"886":3.160881519317627,"887":52.13066864013672,"888":-31.754642486572266,"889":21.41657829284668,"890":1.3631123304367065,"891":-56.369911193847656,"892":-55.65589904785156,"893":-30.9766788482666,"894":-34.627262115478516,"895":-34.181243896484375,"896":12.019002914428711,"897":-46.457000732421875,"898":-19.403003692626953,"899":-24.738977432250977,"900":86.74295806884766,"901":44.186798095703125,"902":-8.896108627319336,"903":-10.754280090332031,"904":7.0025858879089355,"905":-2.7477529048919678,"906":2.0671823024749756,"907":-35.7748908996582,"908":-88.2415771484375,"909":-62.29059600830078,"910":-88.4897232055664,"911":-57.139793395996094,"912":-35.831050872802734,"913":-58.02910614013672,"914":5.742832660675049,"915":70.68336486816406,"916":-21.372896194458008,"917":-35.60903549194336,"918":53.77561569213867,"919":0.26239898800849915,"920":2.0855331420898438,"921":62.31394958496094,"922":-66.17745208740234,"923":18.296606063842773,"924":-6.069102764129639,"925":1.8287020921707153,"926":-8.506143569946289,"927":-75.80254364013672,"928":64.36602020263672,"929":0.39886000752449036,"930":-1.9711542129516602,"931":15.03108024597168,"932":-25.66403579711914,"933":8.956225395202637,"934":-1.3032817840576172,"935":3.1770541667938232,"936":6.92797327041626,"937":-2.3159146308898926,"938":-2.5679996013641357,"939":-8.914036750793457,"940":-6.065755367279053,"941":17.85167694091797,"942":-22.90498924255371,"943":7.12257719039917,"944":37.004024505615234,"945":13.2822904586792,"946":0.9325214624404907,"947":-13.049392700195312,"948":7.201723098754883,"949":-11.232284545898438,"950":19.359893798828125,"951":52.552494049072266,"952":8.29150676727295,"953":4.236407279968262,"954":-9.444724082946777,"955":-11.252180099487305,"956":43.829105377197266,"957":-2.744727611541748,"958":19.345521926879883,"959":-1.7176706790924072,"960":1.1701946258544922,"961":4.043711185455322,"962":24.6582088470459,"963":4.312201499938965,"964":-1.4786473512649536,"965":-4.090296268463135,"966":58.82058334350586,"967":-37.566001892089844,"968":18.531190872192383,"969":-7.58141565322876,"970":-1.5871472358703613,"971":-13.662357330322266,"972":7.952861785888672,"973":-40.89933395385742,"974":-7.7390241622924805,"975":20.505483627319336,"976":15.455062866210938,"977":13.368390083312988,"978":-6.289539337158203,"979":18.231298446655273,"980":31.04810333251953,"981":21.940710067749023,"982":4.629812240600586,"983":1.8426589965820312,"984":14.804924011230469,"985":-3.7508792877197266,"986":-4.149963855743408,"987":-8.853527069091797,"988":-3.5802528858184814,"989":4.336181640625,"990":54.10093307495117,"991":20.75762176513672,"992":24.334487915039062,"993":8.378302574157715,"994":-10.640146255493164,"995":-22.698196411132812,"996":1.4966071844100952,"997":-1.9145570993423462,"998":-6.024973392486572,"999":-1.638368844985962,"1000":-2.607501745223999,"1001":-0.22023960947990417,"1002":27.270767211914062,"1003":-95.71817016601562,"1004":17.234603881835938,"1005":-5.123520374298096,"1006":17.895727157592773,"1007":-40.35796356201172,"1008":9.191890716552734,"1009":8.243900299072266,"1010":-4.550750732421875,"1011":0.8510154485702515,"1012":-2.168947696685791,"1013":163.15499877929688,"1014":-54.721519470214844,"1015":-0.21164168417453766,"1016":-3.1794257164001465,"1017":8.892790794372559,"1018":-5.452854156494141,"1019":3.6244943141937256,"1020":-4.927391052246094,"1021":9.087839126586914,"1022":30.280128479003906,"1023":-7.6219096183776855,"1024":22.6005802154541,"1025":-7.475912570953369,"1026":10.061775207519531,"1027":-17.344152450561523,"1028":-22.974002838134766,"1029":1.4176151752471924,"1030":-18.48338508605957,"1031":-71.08174896240234,"1032":-21.191652297973633,"1033":-11.932042121887207,"1034":-96.2272720336914,"1035":-18.763277053833008,"1036":-0.06519364565610886,"1037":8.57929801940918,"1038":1.3192834854125977,"1039":-3.266221761703491,"1040":-0.7282171249389648,"1041":-2.7375946044921875,"1042":-27.035327911376953,"1043":27.932710647583008,"1044":5.211546421051025,"1045":-1.4286549091339111,"1046":1.0144115686416626,"1047":13.025055885314941,"1048":62.52193069458008,"1049":5.596041202545166,"1050":-8.881381034851074,"1051":-32.04901123046875,"1052":-17.16149139404297,"1053":13.265267372131348,"1054":-11.651426315307617,"1055":36.042598724365234,"1056":-3.0845141410827637,"1057":-1.4049408435821533,"1058":14.917671203613281,"1059":-4.419488430023193,"1060":13.269594192504883,"1061":2.426593780517578,"1062":15.458552360534668,"1063":5.226858139038086,"1064":18.527021408081055,"1065":-4.098045825958252,"1066":5.407515048980713,"1067":0.9447323679924011,"1068":-3.852346897125244,"1069":-4.440450191497803,"1070":-0.4379793405532837,"1071":-54.280521392822266,"1072":-14.128561973571777,"1073":193.5190887451172,"1074":2.0353682041168213,"1075":3.022214651107788,"1076":8.76777172088623,"1077":14.351125717163086,"1078":8.111482620239258,"1079":7.784480571746826,"1080":2.4129109382629395,"1081":-2.8356781005859375,"1082":3.944939374923706,"1083":5.568444728851318,"1084":-2.727757692337036,"1085":-8.096985816955566,"1086":3.2110650539398193,"1087":-0.7577635645866394,"1088":4.202077388763428,"1089":1.8837203979492188,"1090":-1.7263015508651733,"1091":0.8727879524230957,"1092":7.294229984283447,"1093":1.1704788208007812,"1094":-4.369302272796631,"1095":-2.6260924339294434,"1096":1.971809983253479,"1097":4.083755970001221,"1098":-1.2666877508163452,"1099":4.01539945602417,"1100":-0.4461546540260315,"1101":3.368479013442993,"1102":3.181452989578247,"1103":1.5611087083816528,"1104":-0.9242004156112671,"1105":-2.620419979095459,"1106":4.141395092010498,"1107":-5.232360363006592,"1108":-1.9222464561462402,"1109":0.5748946070671082,"1110":1.116632342338562,"1111":-2.046541452407837,"1112":4.7998785972595215,"1113":-4.011884689331055,"1114":-2.3953158855438232,"1115":2.7515432834625244,"1116":-8.048934936523438,"1117":3.7668557167053223,"1118":0.6564591526985168,"1119":-5.365805625915527,"1120":2.5232415199279785,"1121":-37.18825149536133,"1122":7.796018600463867,"1123":-79.56571960449219,"1124":117.53585052490234,"1125":-4.460251808166504,"1126":-6.6528706550598145,"1127":-12.949553489685059,"1128":-12.466287612915039,"1129":-66.21452331542969,"1130":44.224239349365234,"1131":-40.27312469482422,"1132":60.995540618896484,"1133":-167.1289825439453,"1134":138.4354248046875,"1135":-27.013219833374023,"1136":-44.35256576538086,"1137":-2.4647395610809326,"1138":-8.44019889831543,"1139":5.141837120056152,"1140":-45.8023567199707,"1141":10.759891510009766,"1142":-320.7317199707031,"1143":36.06022644042969,"1144":47.81694412231445,"1145":-5.516365051269531,"1146":-6.3601226806640625,"1147":6.988611221313477,"1148":-9.694086074829102,"1149":16.81627082824707,"1150":25.156970977783203,"1151":2.0126795768737793,"1152":-9.207297325134277,"1153":-33.857975006103516,"1154":138.47999572753906,"1155":19.790884017944336,"1156":102.41165924072266,"1157":-15.638786315917969,"1158":288.9764099121094,"1159":-7.135122299194336,"1160":13.5803804397583,"1161":8.43114948272705,"1162":28.496906280517578,"1163":-60.505123138427734,"1164":-2.10396146774292,"1165":-3.4224302768707275,"1166":0.6349622011184692,"1167":-21.305381774902344,"1168":-22.070377349853516,"1169":5.913827896118164,"1170":2.495558738708496,"1171":48.4803466796875,"1172":-0.22893136739730835,"1173":66.25736999511719,"1174":11.168516159057617,"1175":-13.365364074707031,"1176":31.812732696533203,"1177":0.28711310029029846,"1178":10.920514106750488,"1179":34.12670135498047,"1180":14.601380348205566,"1181":-128.4777069091797,"1182":80.91268157958984,"1183":1.2816555500030518,"1184":52.283103942871094,"1185":8.28606128692627,"1186":1.2269787788391113,"1187":28.933277130126953,"1188":-0.22431530058383942,"1189":-6.701531410217285,"1190":47.146575927734375,"1191":-68.76859283447266,"1192":26.754976272583008,"1193":-19.797855377197266,"1194":-31.1654052734375,"1195":32.65109634399414,"1196":-2.741901397705078,"1197":-11.410234451293945,"1198":31.74736213684082,"1199":-0.046827420592308044,"1200":1.2580153942108154,"1201":7.189838409423828,"1202":-17.722986221313477,"1203":0.009166006930172443,"1204":23.019655227661133,"1205":1.9348957538604736,"1206":-6.7360453605651855,"1207":5.3343939781188965,"1208":-1.1078499555587769,"1209":0.7127261161804199,"1210":0.38265934586524963,"1211":13.64261531829834,"1212":-13.582832336425781,"1213":-14.676119804382324,"1214":0.13210856914520264,"1215":-0.3010178208351135,"1216":-4.190884113311768,"1217":2.6072001457214355,"1218":3.177337408065796,"1219":-0.25346267223358154,"1220":-0.1519591063261032,"1221":0.6329825520515442,"1222":0.5719191431999207,"1223":-0.11620588600635529,"1224":-6.760669708251953,"1225":9.387016296386719,"1226":1.8538827896118164,"1227":-0.39104604721069336,"1228":0.9313381910324097,"1229":-0.42783209681510925,"1230":-1.419721245765686,"1231":8.8803071975708,"1232":-0.10344035178422928,"1233":4.83841609954834,"1234":-0.07679413259029388,"1235":-3.749354600906372,"1236":-0.029941869899630547,"1237":-0.5962806940078735,"1238":-6.688266754150391,"1239":1.9571467638015747,"1240":0.8626155257225037,"1241":-4.574246406555176,"1242":19.474803924560547,"1243":-35.91848373413086,"1244":5.031114101409912,"1245":-0.417278528213501,"1246":23.00539779663086,"1247":-29.820667266845703,"1248":96.18303680419922,"1249":9.46934986114502,"1250":-15.733475685119629,"1251":1.5205713510513306,"1252":2.8000428676605225,"1253":0.08119094371795654,"1254":70.86366271972656,"1255":-8.692753791809082,"1256":-21.633499145507812,"1257":24.330339431762695,"1258":0.6230342984199524,"1259":145.48768615722656,"1260":-1.9234360456466675,"1261":16.291698455810547,"1262":-3.345771551132202,"1263":-2.0597121715545654,"1264":-16.710132598876953,"1265":-6.667031764984131,"1266":-11.601692199707031,"1267":22.23443603515625,"1268":34.729610443115234,"1269":-9.719388961791992,"1270":242.85195922851562,"1271":10.177234649658203,"1272":-3.8859825134277344,"1273":72.54195404052734,"1274":-19.261884689331055,"1275":-25.15618324279785,"1276":-34.73497772216797,"1277":8.444941520690918,"1278":7.47165060043335,"1279":-0.775734543800354,"1280":10.58520793914795,"1281":32.53336715698242,"1282":-61.097171783447266,"1283":-4.379282474517822,"1284":-8.622723579406738,"1285":0.1304139792919159,"1286":16.66124725341797,"1287":86.94142150878906,"1288":-52.3706169128418,"1289":12.678942680358887,"1290":-12.175100326538086,"1291":8.133319854736328,"1292":-2.282487154006958,"1293":-14.488584518432617,"1294":-48.50504684448242,"1295":6.994685173034668,"1296":-7.217382431030273,"1297":4.462854385375977,"1298":-2.127527952194214,"1299":-268.5346374511719,"1300":14.573370933532715,"1301":32.49592208862305,"1302":13.669937133789062,"1303":-8.52333927154541,"1304":-66.22313690185547,"1305":1.630888819694519,"1306":-10.46831226348877,"1307":-11.994344711303711,"1308":28.21578598022461,"1309":59.72515106201172,"1310":-89.36563110351562,"1311":-82.68340301513672,"1312":10.910996437072754,"1313":-148.07040405273438,"1314":7.522031784057617,"1315":-29.368745803833008,"1316":25.021533966064453,"1317":-18.019515991210938,"1318":23.836322784423828,"1319":4.211087226867676,"1320":-40.67329025268555,"1321":-35.21849060058594,"1322":71.12399291992188,"1323":37.9128303527832,"1324":-45.020267486572266,"1325":-1.6520209312438965,"1326":3.3116960525512695,"1327":-21.701553344726562,"1328":121.50617218017578,"1329":6.9586639404296875,"1330":-0.9779319167137146,"1331":-99.0961685180664,"1332":5.066233158111572,"1333":21.003173828125,"1334":-133.71954345703125,"1335":-20.04768180847168,"1336":19.34918975830078,"1337":13.97170352935791,"1338":7.577716827392578,"1339":35.35141372680664,"1340":24.288469314575195,"1341":-12.736032485961914,"1342":57.66337585449219,"1343":1.545326828956604,"1344":-62.496395111083984,"1345":-4.996100902557373,"1346":-17.19310760498047,"1347":112.68092346191406,"1348":-91.9449234008789,"1349":8.729921340942383,"1350":-21.168912887573242,"1351":-8.287946701049805,"1352":16.03350067138672,"1353":3.2055814266204834,"1354":4.214682102203369,"1355":20.78227424621582,"1356":-5.0541911125183105,"1357":32.33172607421875,"1358":12.194414138793945,"1359":-7.114119529724121,"1360":-1.9272541999816895,"1361":-9.120538711547852,"1362":1.1136127710342407,"1363":1.423170804977417,"1364":-1.9569048881530762,"1365":-6.1006317138671875,"1366":3.3250722885131836,"1367":-6.7294921875,"1368":1.3127968311309814,"1369":1.6054811477661133,"1370":-5.167636394500732,"1371":0.4076235890388489,"1372":4.700194835662842,"1373":0.20819582045078278,"1374":-0.07935735583305359,"1375":-0.8743926882743835,"1376":1.1204664707183838,"1377":-2.480309009552002,"1378":5.236627101898193,"1379":4.0654096603393555,"1380":-0.42854729294776917,"1381":-0.5039987564086914,"1382":-4.105632305145264,"1383":2.003187656402588,"1384":-2.5422654151916504,"1385":-1.597479224205017,"1386":2.511680841445923,"1387":-3.3975582122802734,"1388":-2.6375646591186523,"1389":1.622179388999939,"1390":0.7574737668037415,"1391":1.7394081354141235,"1392":-0.7407547831535339,"1393":-9.262466430664062,"1394":-4.479722499847412,"1395":-0.3860152065753937,"1396":3.125138282775879,"1397":13.521244049072266,"1398":-4.507211208343506,"1399":-5.7575812339782715,"1400":-3.637214422225952,"1401":34.94816970825195,"1402":-154.04087829589844,"1403":3.8839471340179443,"1404":89.36658477783203,"1405":-0.8117539286613464,"1406":1.3682100772857666,"1407":130.21734619140625,"1408":-49.80612564086914,"1409":14.503374099731445,"1410":13.81763744354248,"1411":-62.18173599243164,"1412":-191.12982177734375,"1413":6.917386531829834,"1414":-2.663787841796875,"1415":5.031867027282715,"1416":-16.344921112060547,"1417":2.9542222023010254,"1418":13.141396522521973,"1419":-46.87781524658203,"1420":-12.677855491638184,"1421":-87.9051513671875,"1422":-22.71436882019043,"1423":-29.3416690826416,"1424":-83.65568542480469,"1425":22.833587646484375,"1426":-24.61467170715332,"1427":-19.024322509765625,"1428":-18.98150062561035,"1429":47.011314392089844,"1430":-57.612342834472656,"1431":-108.78375244140625,"1432":-3.137934446334839,"1433":-210.4236297607422,"1434":4.513982772827148,"1435":-16.34117889404297,"1436":20.724178314208984,"1437":16.643211364746094,"1438":-0.3996054232120514,"1439":-3.042006254196167,"1440":-5.966385364532471,"1441":53.116092681884766,"1442":49.603233337402344,"1443":91.97293090820312,"1444":-15.934378623962402,"1445":-0.11538898944854736,"1446":35.13398361206055,"1447":-368.9456787109375,"1448":150.80372619628906,"1449":-15.031379699707031,"1450":4.588807106018066,"1451":17.02228355407715,"1452":13.715386390686035,"1453":17.628957748413086,"1454":-25.777812957763672,"1455":-25.752483367919922,"1456":63.12495040893555,"1457":-13.898149490356445,"1458":-6.3148369789123535,"1459":271.72747802734375,"1460":99.88993835449219,"1461":156.1315155029297,"1462":7.294824600219727,"1463":-8.177580833435059,"1464":427.6171875,"1465":-1.8646769523620605,"1466":-3.6055686473846436,"1467":-60.1722526550293,"1468":120.88275909423828,"1469":-9.73317813873291,"1470":-202.17601013183594,"1471":277.130615234375,"1472":-12.80876350402832,"1473":-8.620355606079102,"1474":-96.3517837524414,"1475":16.99385643005371,"1476":-3.681688070297241,"1477":4.42027473449707,"1478":-0.6935036182403564,"1479":-1.555871844291687,"1480":-3.313037157058716,"1481":-28.70179557800293,"1482":69.23652648925781,"1483":-3.6155292987823486,"1484":-6.016493320465088,"1485":0.1837487667798996,"1486":-1.6881096363067627,"1487":-23.05376625061035,"1488":10.773832321166992,"1489":4.177652359008789,"1490":-7.775376319885254,"1491":4.59638786315918,"1492":0.32312583923339844,"1493":7.506489276885986,"1494":-3.985161781311035,"1495":-0.054012786597013474,"1496":1.5638372898101807,"1497":1.7669823169708252,"1498":-8.538430213928223,"1499":-65.64912414550781,"1500":6.518620014190674,"1501":48.462398529052734,"1502":-5.630334377288818,"1503":3.921029806137085,"1504":43.57061767578125,"1505":-28.437074661254883,"1506":4.861636638641357,"1507":1.9501967430114746,"1508":-2.7884998321533203,"1509":-22.028194427490234,"1510":6.112082004547119,"1511":28.640024185180664,"1512":-3.415109157562256,"1513":58.321434020996094,"1514":3.202986001968384,"1515":1.2349730730056763,"1516":-22.58905601501465,"1517":3.392495632171631,"1518":-0.042599521577358246,"1519":4.415004253387451,"1520":-11.397638320922852,"1521":-11.241389274597168,"1522":-44.3425178527832,"1523":5.977982997894287,"1524":-27.07710075378418,"1525":-8.894919395446777,"1526":-134.48265075683594,"1527":-28.706533432006836,"1528":-13.968832969665527,"1529":0.16636928915977478,"1530":-13.090025901794434,"1531":10.163496971130371,"1532":4.849171161651611,"1533":3.7342066764831543,"1534":14.630181312561035,"1535":-4.797630310058594,"1536":-36.37201690673828,"1537":3.87856125831604,"1538":4.932703971862793,"1539":-9.452610969543457,"1540":10.521818161010742,"1541":25.62087059020996,"1542":-30.341033935546875,"1543":8.705756187438965,"1544":58.27419662475586,"1545":-6.828742980957031,"1546":3.4829931259155273,"1547":-4.684712886810303,"1548":-8.33846378326416,"1549":-0.4540804922580719,"1550":-6.911996364593506,"1551":5.906214237213135,"1552":-6.62605094909668,"1553":10.801435470581055,"1554":-4.562450885772705,"1555":5.2231903076171875,"1556":6.752722263336182,"1557":-15.712084770202637,"1558":-4.654450416564941,"1559":-9.211759567260742,"1560":2.5544772148132324,"1561":-4.912707328796387,"1562":123.52471160888672,"1563":38.271095275878906,"1564":8.527688026428223,"1565":4.729153156280518,"1566":11.537890434265137,"1567":-2.3021254539489746,"1568":73.93407440185547,"1569":19.544973373413086,"1570":-9.579365730285645,"1571":-6.367671966552734,"1572":-23.985071182250977,"1573":23.769874572753906,"1574":31.379077911376953,"1575":16.36232566833496,"1576":2.390373468399048,"1577":4.936431884765625,"1578":5.570741176605225,"1579":0.31937849521636963,"1580":16.49959945678711,"1581":-18.603139877319336,"1582":-10.751504898071289,"1583":14.187982559204102,"1584":43.73053741455078,"1585":3.939453363418579,"1586":-3.3302276134490967,"1587":20.069700241088867,"1588":-46.8381233215332,"1589":2.052748680114746,"1590":12.673941612243652,"1591":41.817840576171875,"1592":-33.3337287902832,"1593":-41.3994140625,"1594":-44.564395904541016,"1595":40.06725311279297,"1596":-42.19676208496094,"1597":-0.6720960140228271,"1598":-22.29891014099121,"1599":2.0425331592559814}},"forgetBias":{"rows":40,"columns":1,"weights":{"0":0,"1":0,"2":0,"3":0,"4":0,"5":0,"6":0,"7":0,"8":0,"9":0,"10":0,"11":0,"12":0,"13":0,"14":0,"15":0,"16":0,"17":0,"18":0,"19":0,"20":0,"21":0,"22":0,"23":0,"24":0,"25":0,"26":0,"27":0,"28":0,"29":0,"30":0,"31":0,"32":0,"33":0,"34":0,"35":0,"36":0,"37":0,"38":0,"39":0}},"outputMatrix":{"rows":40,"columns":1,"weights":{"0":1.2815839052200317,"1":-1.4158233404159546,"2":-4.783051013946533,"3":2.4902002811431885,"4":0.2671926021575928,"5":10.643304824829102,"6":1.9796290397644043,"7":-1.2880152463912964,"8":-0.9988890290260315,"9":-0.06487826257944107,"10":-0.6668998599052429,"11":1.2810277938842773,"12":0.19073046743869781,"13":2.3124172687530518,"14":-0.41096073389053345,"15":-0.8638228178024292,"16":-0.7084670662879944,"17":-0.7242450714111328,"18":-0.11190328001976013,"19":1.4101682901382446,"20":-0.3134835362434387,"21":-1.7851006984710693,"22":1.30724036693573,"23":-0.12191946059465408,"24":-1.3858671188354492,"25":2.0964348316192627,"26":0.213281512260437,"27":0.1247168704867363,"28":3.956559181213379,"29":-0.13131918013095856,"30":0.559339702129364,"31":0.5296757221221924,"32":0.015706848353147507,"33":-0.7447553277015686,"34":-0.9167727828025818,"35":2.5633163452148438,"36":-0.7957950830459595,"37":-0.24696026742458344,"38":0.28544893860816956,"39":3.295619010925293}},"outputHidden":{"rows":40,"columns":40,"weights":{"0":5.883976459503174,"1":-31.846967697143555,"2":102.77297973632812,"3":-13.367778778076172,"4":-27.664508819580078,"5":-4.668399333953857,"6":14.75306510925293,"7":-46.747859954833984,"8":-80.34793090820312,"9":1.0908609628677368,"10":-3.712937355041504,"11":31.49331283569336,"12":-23.22716522216797,"13":39.486106872558594,"14":-5.931982517242432,"15":0.6816930770874023,"16":5.996601581573486,"17":2.627093553543091,"18":-9.486875534057617,"19":3.2174391746520996,"20":4.314215660095215,"21":72.77816009521484,"22":59.85845947265625,"23":3.549025774002075,"24":-32.36452865600586,"25":-1.6083173751831055,"26":2.6656839847564697,"27":-13.629781723022461,"28":1.3668386936187744,"29":-17.22150993347168,"30":-13.29321002960205,"31":7.740264892578125,"32":1.6557259559631348,"33":-8.444818496704102,"34":-27.76890754699707,"35":8.369635581970215,"36":-22.736312866210938,"37":-1.3597034215927124,"38":-13.399439811706543,"39":-4.650877952575684,"40":1.7306993007659912,"41":-14.733524322509766,"42":7.148909091949463,"43":-4.916924476623535,"44":4.871492385864258,"45":0.9508979916572571,"46":-3.449187755584717,"47":-0.5078696012496948,"48":-5.533594608306885,"49":-8.70529556274414,"50":-7.937015533447266,"51":1.6763732433319092,"52":4.456327438354492,"53":11.130393028259277,"54":-2.5521299839019775,"55":2.1001508235931396,"56":0.15363600850105286,"57":5.186164379119873,"58":7.825808048248291,"59":25.3278865814209,"60":3.9239890575408936,"61":-8.485625267028809,"62":3.887636184692383,"63":8.037664413452148,"64":2.472846269607544,"65":9.703546524047852,"66":-1.8656312227249146,"67":-2.9322423934936523,"68":-7.3110175132751465,"69":-2.6926136016845703,"70":0.5334169268608093,"71":-11.02875804901123,"72":1.55130934715271,"73":24.265474319458008,"74":-11.511444091796875,"75":1.9544217586517334,"76":12.007684707641602,"77":1.950905442237854,"78":-3.1962859630584717,"79":-2.1292216777801514,"80":-18.82480239868164,"81":21.170608520507812,"82":18.67784309387207,"83":-30.230806350708008,"84":-2.37394380569458,"85":2.7288565635681152,"86":10.587760925292969,"87":-1.227810025215149,"88":-5.767862319946289,"89":1.7647861242294312,"90":0.3484605550765991,"91":12.394237518310547,"92":-21.731775283813477,"93":11.115679740905762,"94":3.8298630714416504,"95":4.591740608215332,"96":18.737228393554688,"97":-12.32448959350586,"98":-2.6266744136810303,"99":0.10716482251882553,"100":-7.1310224533081055,"101":13.552061080932617,"102":-9.215925216674805,"103":-1.4981391429901123,"104":2.2116684913635254,"105":-4.559246063232422,"106":-0.6859955787658691,"107":12.986228942871094,"108":5.482335567474365,"109":-10.369726181030273,"110":-146.45895385742188,"111":23.4282283782959,"112":-20.047285079956055,"113":-33.03150939941406,"114":-12.774223327636719,"115":-7.710811614990234,"116":8.454753875732422,"117":-49.28751754760742,"118":-40.15031814575195,"119":2.7675747871398926,"120":-0.08752348273992538,"121":-20.247512817382812,"122":21.82561492919922,"123":-15.073652267456055,"124":-16.214534759521484,"125":-5.233738899230957,"126":14.629889488220215,"127":35.5611686706543,"128":41.9388542175293,"129":-17.21656036376953,"130":63.14103317260742,"131":21.477996826171875,"132":-47.57559585571289,"133":-45.20317459106445,"134":16.6090087890625,"135":-10.200569152832031,"136":-6.551352500915527,"137":-8.593378067016602,"138":-1.685655117034912,"139":-38.10088348388672,"140":21.04676628112793,"141":55.547821044921875,"142":18.441335678100586,"143":8.533411979675293,"144":96.44254302978516,"145":-19.41152572631836,"146":3.857982873916626,"147":24.97828483581543,"148":33.94611740112305,"149":57.68894577026367,"150":46.181312561035156,"151":42.44008255004883,"152":-35.72114181518555,"153":-77.62364196777344,"154":22.44740867614746,"155":11.022625923156738,"156":23.98878288269043,"157":4.907251358032227,"158":-20.349834442138672,"159":-6.402206897735596,"160":0.1505635380744934,"161":-29.96440315246582,"162":58.811344146728516,"163":7.37869119644165,"164":4.9969563484191895,"165":-1.1227890253067017,"166":-0.823498010635376,"167":53.14313507080078,"168":24.654125213623047,"169":-1.8491209745407104,"170":2.329615592956543,"171":-4.194021224975586,"172":12.759207725524902,"173":-37.9268684387207,"174":-1.4686706066131592,"175":0.4259214401245117,"176":-18.10289192199707,"177":2.0934555530548096,"178":0.621184229850769,"179":81.47898864746094,"180":0.17592176795005798,"181":-58.859622955322266,"182":13.996177673339844,"183":0.3523769974708557,"184":30.632347106933594,"185":-1.386154294013977,"186":1.0063422918319702,"187":-1.2569146156311035,"188":-0.7242295742034912,"189":1.195116400718689,"190":-1.499349594116211,"191":-13.783275604248047,"192":3.8016598224639893,"193":-22.771852493286133,"194":51.289710998535156,"195":-3.647481679916382,"196":5.650686740875244,"197":-7.537139892578125,"198":16.12076759338379,"199":-0.6450342535972595,"200":-32.849822998046875,"201":-60.766448974609375,"202":-28.808420181274414,"203":-4.858247756958008,"204":-11.746211051940918,"205":-7.059071063995361,"206":2.9329590797424316,"207":-113.35458374023438,"208":175.56153869628906,"209":127.21954345703125,"210":1.3137421607971191,"211":32.36550521850586,"212":-2.2925639152526855,"213":166.1634063720703,"214":-52.18598175048828,"215":-19.026958465576172,"216":3.0984604358673096,"217":8.382943153381348,"218":81.88372039794922,"219":88.67721557617188,"220":87.1729507446289,"221":76.59990692138672,"222":21.554264068603516,"223":0.12149187922477722,"224":-32.939720153808594,"225":-5.665696620941162,"226":8.729268074035645,"227":32.716732025146484,"228":-19.682363510131836,"229":14.441259384155273,"230":24.690759658813477,"231":-74.39366149902344,"232":141.03665161132812,"233":-8.447805404663086,"234":-84.46968841552734,"235":34.55986785888672,"236":-7.994932174682617,"237":92.5896987915039,"238":67.70963287353516,"239":-12.331706047058105,"240":-12.836383819580078,"241":-4.621033191680908,"242":-80.4603042602539,"243":3.857945442199707,"244":-3.978757619857788,"245":0.37610480189323425,"246":-5.8737688064575195,"247":157.38482666015625,"248":109.93335723876953,"249":4.273525714874268,"250":-12.702367782592773,"251":-0.31157147884368896,"252":31.047805786132812,"253":-199.05087280273438,"254":-42.70292663574219,"255":-15.356928825378418,"256":-4.255601406097412,"257":9.928251266479492,"258":1.4344099760055542,"259":-28.319976806640625,"260":9.141637802124023,"261":46.25132369995117,"262":5.032125949859619,"263":-6.333337783813477,"264":-151.67276000976562,"265":3.749559164047241,"266":-0.898384690284729,"267":-19.30867576599121,"268":13.991049766540527,"269":4.140562057495117,"270":1.3206498622894287,"271":-23.89615821838379,"272":-24.456674575805664,"273":123.74224090576172,"274":-114.15711212158203,"275":5.594891548156738,"276":-1.2975438833236694,"277":5.7167792320251465,"278":-23.14023208618164,"279":3.9518532752990723,"280":-17.776193618774414,"281":53.76119613647461,"282":-153.8767852783203,"283":72.52854919433594,"284":11.80644416809082,"285":6.4637932777404785,"286":25.491212844848633,"287":-17.792224884033203,"288":95.69284057617188,"289":13.593578338623047,"290":-47.506710052490234,"291":-75.20414733886719,"292":39.691490173339844,"293":-30.605817794799805,"294":-7.010673522949219,"295":-16.226421356201172,"296":-23.033714294433594,"297":-20.458629608154297,"298":-0.8615760803222656,"299":-2.1369917392730713,"300":13.614554405212402,"301":-41.41390609741211,"302":19.54845428466797,"303":-0.23366756737232208,"304":34.601497650146484,"305":5.681203842163086,"306":-7.772264003753662,"307":23.866703033447266,"308":-1.3336068391799927,"309":25.864044189453125,"310":-22.53986167907715,"311":-18.546354293823242,"312":53.03481674194336,"313":-66.07384490966797,"314":-14.118425369262695,"315":2.7313389778137207,"316":28.422332763671875,"317":21.822589874267578,"318":13.634369850158691,"319":8.599443435668945,"320":-0.8224713206291199,"321":19.920124053955078,"322":57.85573196411133,"323":-7.763771057128906,"324":16.557796478271484,"325":4.252786636352539,"326":-15.732419967651367,"327":19.0546875,"328":-12.560370445251465,"329":-1.3994137048721313,"330":8.931781768798828,"331":-5.597907066345215,"332":-3.6402857303619385,"333":16.9768009185791,"334":-3.0025110244750977,"335":-0.692567765712738,"336":-8.250356674194336,"337":5.796972751617432,"338":0.5304735898971558,"339":43.78450393676758,"340":5.743541240692139,"341":-43.789581298828125,"342":11.288666725158691,"343":3.4840376377105713,"344":25.169795989990234,"345":2.401484727859497,"346":5.544366836547852,"347":1.3841313123703003,"348":-1.5215448141098022,"349":4.343719959259033,"350":14.477495193481445,"351":-19.89649200439453,"352":-15.075157165527344,"353":11.46159839630127,"354":14.216316223144531,"355":-3.0725080966949463,"356":-7.551320552825928,"357":0.7281383275985718,"358":-5.900071620941162,"359":-5.289559364318848,"360":1.410826325416565,"361":58.59654998779297,"362":-5.052613735198975,"363":72.56456756591797,"364":11.306283950805664,"365":-6.05723237991333,"366":2.8369274139404297,"367":2.8803372383117676,"368":111.50988006591797,"369":-9.469536781311035,"370":5.673797607421875,"371":-4.698075294494629,"372":46.167808532714844,"373":172.79373168945312,"374":24.631359100341797,"375":-15.526713371276855,"376":27.87905502319336,"377":8.573858261108398,"378":9.350934982299805,"379":15.871542930603027,"380":11.99677562713623,"381":-81.00348663330078,"382":-0.6212201118469238,"383":-21.51517677307129,"384":-288.0834655761719,"385":-3.683802843093872,"386":-1.334132194519043,"387":12.311412811279297,"388":16.93632698059082,"389":-0.4913472533226013,"390":-6.912379264831543,"391":9.02554988861084,"392":17.239194869995117,"393":-61.900936126708984,"394":-37.2483024597168,"395":-18.6143798828125,"396":-4.585845470428467,"397":-6.74378776550293,"398":-7.931681156158447,"399":2.2422187328338623,"400":15.45573616027832,"401":-13.361308097839355,"402":46.827518463134766,"403":83.15654754638672,"404":12.044440269470215,"405":-2.9967105388641357,"406":-9.186397552490234,"407":-55.6446533203125,"408":-1.6686077117919922,"409":13.832520484924316,"410":-1.3114385604858398,"411":12.977022171020508,"412":-62.73481750488281,"413":80.0443344116211,"414":-30.88414764404297,"415":38.53883361816406,"416":78.41568756103516,"417":-6.737601280212402,"418":50.58198928833008,"419":74.97407531738281,"420":-22.674579620361328,"421":108.74649047851562,"422":57.97526168823242,"423":-0.6692731380462646,"424":-2.3710672855377197,"425":4.54727840423584,"426":10.30246353149414,"427":-72.33060455322266,"428":-26.9814453125,"429":3.880018472671509,"430":11.3953857421875,"431":95.6935043334961,"432":-2.120516538619995,"433":7.666188716888428,"434":-9.308948516845703,"435":220.17970275878906,"436":23.46132469177246,"437":29.93842315673828,"438":0.4757019877433777,"439":-24.272197723388672,"440":0.2122652232646942,"441":-237.15097045898438,"442":5.395477294921875,"443":3.652401924133301,"444":-2.3384411334991455,"445":-5.989635467529297,"446":-23.5664005279541,"447":-12.9159574508667,"448":-163.81692504882812,"449":-1.904414415359497,"450":-6.1396918296813965,"451":-90.91161346435547,"452":114.85457611083984,"453":70.10400390625,"454":-1.3024541139602661,"455":-4.76399040222168,"456":227.0225830078125,"457":16.316791534423828,"458":-0.6763632893562317,"459":118.98587799072266,"460":11.396258354187012,"461":36.50274658203125,"462":-3.3986330032348633,"463":-2.940725803375244,"464":0.6893154382705688,"465":9.088720321655273,"466":2.7936432361602783,"467":11.516756057739258,"468":4.960227012634277,"469":-119.14510345458984,"470":-10.110581398010254,"471":-15.1213960647583,"472":4.641826629638672,"473":90.47927856445312,"474":10.126108169555664,"475":-0.9282844066619873,"476":-21.626935958862305,"477":-14.62957763671875,"478":27.32001495361328,"479":-8.135053634643555,"480":-1.2328382730484009,"481":-0.6832841038703918,"482":-35.74594497680664,"483":-5.645623683929443,"484":-3.7040679454803467,"485":3.6292645931243896,"486":3.3204147815704346,"487":-7.063526630401611,"488":1.1546685695648193,"489":0.07578813284635544,"490":4.048022747039795,"491":-0.2994815409183502,"492":3.955111265182495,"493":-7.465658187866211,"494":-14.787735939025879,"495":-6.042795658111572,"496":-4.7395758628845215,"497":-4.214664936065674,"498":-6.888463020324707,"499":-74.37786865234375,"500":1.1366912126541138,"501":6.335976600646973,"502":-20.712894439697266,"503":-5.428498268127441,"504":-0.034072332084178925,"505":1.2607771158218384,"506":-1.7374283075332642,"507":5.43740701675415,"508":7.428887367248535,"509":-6.00729513168335,"510":8.989493370056152,"511":-22.541173934936523,"512":-1.2272435426712036,"513":-21.983057022094727,"514":-6.154659748077393,"515":-0.9849536418914795,"516":27.746946334838867,"517":-5.731050968170166,"518":17.58095932006836,"519":2.3424267768859863,"520":-4.9912824630737305,"521":-7.908082008361816,"522":-62.694793701171875,"523":-31.449613571166992,"524":-11.983521461486816,"525":-1.7228243350982666,"526":-4.815324306488037,"527":55.9998779296875,"528":39.841732025146484,"529":-5.640206813812256,"530":-4.818685054779053,"531":-2.3710644245147705,"532":-2.082895040512085,"533":-8.896039962768555,"534":4.282792091369629,"535":-8.820660591125488,"536":0.5463183522224426,"537":4.0051188468933105,"538":-8.010649681091309,"539":-34.35643768310547,"540":6.941412448883057,"541":3.8549580574035645,"542":9.979345321655273,"543":-5.289841651916504,"544":-14.391630172729492,"545":-2.8172287940979004,"546":-1.4237971305847168,"547":7.98001766204834,"548":0.21823634207248688,"549":5.328918933868408,"550":22.100557327270508,"551":52.342288970947266,"552":-0.6861560344696045,"553":37.04513931274414,"554":17.180034637451172,"555":22.727643966674805,"556":-3.236947774887085,"557":-6.925271987915039,"558":13.206872940063477,"559":1.3456666469573975,"560":1.0426814556121826,"561":9.924540519714355,"562":132.84182739257812,"563":-15.72684383392334,"564":-13.208576202392578,"565":9.757695198059082,"566":8.856571197509766,"567":-50.817378997802734,"568":-6.193216323852539,"569":-2.503960609436035,"570":1.952606439590454,"571":1.9933394193649292,"572":5.862966537475586,"573":2.4997458457946777,"574":-3.670945167541504,"575":-0.013233835808932781,"576":-34.41952896118164,"577":-2.8467392921447754,"578":1.2190829515457153,"579":9.00771427154541,"580":3.1250975131988525,"581":-75.55581665039062,