{
  "type": "LSTMTimeStep",
  "options": {
    "inputSize": 1,
    "hiddenLayers": [
      40
    ],
    "outputSize": 1,
    "decayRate": 0.999,
    "smoothEps": 1e-8,
    "regc": 0.000001,
    "clipval": 5
  },
  "hiddenLayers": [
    {
      "inputMatrix": {
        "rows": 40,
        "columns": 1,
        "weights": {
          "0": -1.791664719581604,
          "1": -2.041341543197632,
          "2": -4.747050762176514,
          "3": -2.8931405544281006,
          "4": -3.612305164337158,
          "5": -1.28322434425354,
          "6": -0.22327403724193573,
          "7": -7.2655792236328125,
          "8": 9.278804779052734,
          "9": 0.6307310461997986,
          "10": 0.0007634366047568619,
          "11": 2.9346015453338623,
          "12": -0.05899973586201668,
          "13": 5.23076057434082,
          "14": -5.175613880157471,
          "15": -4.723904132843018,
          "16": -3.6728198528289795,
          "17": 5.204611778259277,
          "18": 0.422831267118454,
          "19": 1.5472646951675415,
          "20": 1.8813762664794922,
          "21": -4.580187797546387,
          "22": -4.161523342132568,
          "23": 8.29572868347168,
          "24": 2.567323684692383,
          "25": -1.6703108549118042,
          "26": -4.585834503173828,
          "27": -3.227365016937256,
          "28": -3.1704132556915283,
          "29": 10.299456596374512,
          "30": 0.7221091389656067,
          "31": -4.649989128112793,
          "32": -4.567109107971191,
          "33": 6.053836345672607,
          "34": -5.178958415985107,
          "35": -1.194758415222168,
          "36": -3.970275402069092,
          "37": -6.037830829620361,
          "38": 2.211315631866455,
          "39": 9.496349334716797
        }
      },
      "inputHidden": {
        "rows": 40,
        "columns": 40,
        "weights": {
          "0": -1.1885621547698975,
          "1": -0.01217728853225708,
          "2": 1.522133231163025,
          "3": -0.10362586379051208,
          "4": -0.1311112642288208,
          "5": -0.05591386929154396,
          "6": -0.059201858937740326,
          "7": -0.07990764081478119,
          "8": -0.012041362933814526,
          "9": 0.10002174973487854,
          "10": -0.04456910863518715,
          "11": 0.0191010981798172,
          "12": 2.91817569732666,
          "13": -3.9548981189727783,
          "14": 0.0016502949874848127,
          "15": -0.08855407685041428,
          "16": -0.048256177455186844,
          "17": 1.1005632877349854,
          "18": -2.5847291946411133,
          "19": -1.130113959312439,
          "20": 0.21409334242343903,
          "21": 0.002984215971082449,
          "22": 0.052391279488801956,
          "23": -0.1345229148864746,
          "24": 0.07160694152116776,
          "25": -0.0925578773021698,
          "26": 0.2276678830385208,
          "27": 0.04002756625413895,
          "28": 0.05490189418196678,
          "29": -0.05461462214589119,
          "30": 0.06988083571195602,
          "31": 0.1325453221797943,
          "32": 0.1835581660270691,
          "33": 4.339803695678711,
          "34": 0.1771668791770935,
          "35": -0.07791592925786972,
          "36": -0.025526458397507668,
          "37": 0.16027072072029114,
          "38": -0.14456357061862946,
          "39": -4.338329792022705,
          "40": -1.8718286752700806,
          "41": -2.1679494380950928,
          "42": 0.7854812145233154,
          "43": -0.9560834169387817,
          "44": 0.025231460109353065,
          "45": -1.322106122970581,
          "46": -0.41951385140419006,
          "47": 1.3227322101593018,
          "48": -11.213157653808594,
          "49": 1.398659348487854,
          "50": -3.067124366760254,
          "51": 9.608480453491211,
          "52": -10.998098373413086,
          "53": -3.167930841445923,
          "54": -0.4057087004184723,
          "55": -0.3530784845352173,
          "56": 0.6189536452293396,
          "57": -5.345673561096191,
          "58": -26.09027862548828,
          "59": -1.4663941860198975,
          "60": 2.796693801879883,
          "61": -0.429673433303833,
          "62": 0.5622345209121704,
          "63": -0.04198113828897476,
          "64": -8.792867660522461,
          "65": -3.37809157371521,
          "66": 0.8403688073158264,
          "67": 0.009536795318126678,
          "68": 0.3222922682762146,
          "69": -13.573979377746582,
          "70": -0.31207478046417236,
          "71": 0.8444839715957642,
          "72": 0.7619662284851074,
          "73": -3.2564730644226074,
          "74": 0.8534936308860779,
          "75": -1.0385149717330933,
          "76": -0.11096864938735962,
          "77": 0.5439557433128357,
          "78": 13.886964797973633,
          "79": 2.680460214614868,
          "80": -0.3071770668029785,
          "81": -1.2878481149673462,
          "82": 1.6002466678619385,
          "83": 1.0217591524124146,
          "84": 0.5470145344734192,
          "85": 0.3905112147331238,
          "86": -5.452013969421387,
          "87": 0.9541608095169067,
          "88": 5.519375324249268,
          "89": -2.619561195373535,
          "90": 0.6247338056564331,
          "91": -0.23297901451587677,
          "92": -1.4253441095352173,
          "93": -2.624046802520752,
          "94": 0.34056270122528076,
          "95": 0.40749591588974,
          "96": -0.6160432696342468,
          "97": 3.6535253524780273,
          "98": -2.8414154052734375,
          "99": 5.061402320861816,
          "100": -1.0253353118896484,
          "101": 0.44441482424736023,
          "102": -0.6522601842880249,
          "103": 1.3718249797821045,
          "104": -1.1589542627334595,
          "105": 1.018020510673523,
          "106": -1.0738399028778076,
          "107": -0.006952355150133371,
          "108": -0.31035491824150085,
          "109": -0.6246983408927917,
          "110": 0.36765292286872864,
          "111": -0.5382077693939209,
          "112": -0.87376469373703,
          "113": 0.8604080677032471,
          "114": -0.8658307194709778,
          "115": 1.1498032808303833,
          "116": 0.2670024633407593,
          "117": -0.5240916609764099,
          "118": -0.675233781337738,
          "119": -0.6977003812789917,
          "120": -0.009930572472512722,
          "121": 0.22346144914627075,
          "122": 2.8381853103637695,
          "123": -2.877992868423462,
          "124": 0.07857695966959,
          "125": 0.11061562597751617,
          "126": -2.9705190658569336,
          "127": 0.21425916254520416,
          "128": 0.1347397416830063,
          "129": -0.10534816235303879,
          "130": 0.12224718928337097,
          "131": -0.0334460474550724,
          "132": -2.9325544834136963,
          "133": -0.12631690502166748,
          "134": 0.058813080191612244,
          "135": 0.11605116724967957,
          "136": 3.011878252029419,
          "137": 0.08180015534162521,
          "138": -2.8556220531463623,
          "139": 0.009308905340731144,
          "140": -0.3106197118759155,
          "141": -3.04435133934021,
          "142": 2.9931981563568115,
          "143": -0.0387226939201355,
          "144": 0.06443271040916443,
          "145": -0.11439862102270126,
          "146": -0.2696646749973297,
          "147": 0.08372104167938232,
          "148": 1.5350490808486938,
          "149": 2.877669095993042,
          "150": -3.043945550918579,
          "151": -0.1437271386384964,
          "152": -0.15223699808120728,
          "153": 2.9071578979492188,
          "154": -0.14833271503448486,
          "155": -2.723619222640991,
          "156": -0.09207859635353088,
          "157": -0.08907318115234375,
          "158": -2.8675827980041504,
          "159": -2.866140127182007,
          "160": 0.07780689001083374,
          "161": -0.17037852108478546,
          "162": 0.3542901575565338,
          "163": -0.2940351963043213,
          "164": -0.18873782455921173,
          "165": -0.14470647275447845,
          "166": 0.011945086531341076,
          "167": -0.24476221203804016,
          "168": -0.0031693957280367613,
          "169": 0.05280906334519386,
          "170": -0.06786808371543884,
          "171": 0.024186715483665466,
          "172": -0.07673594355583191,
          "173": -1.4294607639312744,
          "174": -0.015430768951773643,
          "175": -0.0359075665473938,
          "176": 0.17462676763534546,
          "177": 1.5153179168701172,
          "178": -1.9126702547073364,
          "179": -0.08310296386480331,
          "180": 0.3047461211681366,
          "181": -0.07148486375808716,
          "182": 0.14956222474575043,
          "183": -0.10071869939565659,
          "184": 0.032953351736068726,
          "185": -0.02561943605542183,
          "186": 0.27671903371810913,
          "187": 0.006801940035074949,
          "188": 0.08665193617343903,
          "189": 0.181070938706398,
          "190": -0.021111225709319115,
          "191": 0.16357678174972534,
          "192": 0.23127830028533936,
          "193": 1.597959280014038,
          "194": 0.1210731565952301,
          "195": -0.24854862689971924,
          "196": -0.035023849457502365,
          "197": 0.1087857037782669,
          "198": -0.16102801263332367,
          "199": -1.8357599973678589,
          "200": 0.03224135562777519,
          "201": -3.1449148654937744,
          "202": 0.6803917288780212,
          "203": -0.051707673817873,
          "204": -0.13056707382202148,
          "205": 3.032741069793701,
          "206": -0.04849303886294365,
          "207": -0.09965503960847855,
          "208": -3.9624812602996826,
          "209": -0.06712964177131653,
          "210": -0.059407789260149,
          "211": -0.009962894022464752,
          "212": -0.589487612247467,
          "213": 0.4679294228553772,
          "214": -0.04844633489847183,
          "215": -0.11233791708946228,
          "216": 0.03864862024784088,
          "217": 1.2435539960861206,
          "218": -4.152483940124512,
          "219": -0.5219637155532837,
          "220": -0.920906662940979,
          "221": 0.009625722654163837,
          "222": 0.02757868357002735,
          "223": -0.12604384124279022,
          "224": 0.08972382545471191,
          "225": -0.2263324111700058,
          "226": 0.20806796848773956,
          "227": 0.06881558150053024,
          "228": 0.11073564738035202,
          "229": 0.0445433147251606,
          "230": -0.026580937206745148,
          "231": 0.02978402003645897,
          "232": 0.04742329195141792,
          "233": -0.06020772084593773,
          "234": 0.10855168104171753,
          "235": -0.07365049421787262,
          "236": -0.03885353356599808,
          "237": 0.00977315567433834,
          "238": 4.154947757720947,
          "239": -0.21111227571964264,
          "240": -0.2904298007488251,
          "241": 0.6313830018043518,
          "242": 4.1663360595703125,
          "243": -4.037387847900391,
          "244": 0.44889360666275024,
          "245": 0.2978423237800598,
          "246": -5.7175469398498535,
          "247": 0.6497037410736084,
          "248": -7.504531383514404,
          "249": -0.27493739128112793,
          "250": 0.47013893723487854,
          "251": -0.24847345054149628,
          "252": -14.234639167785645,
          "253": 6.760457515716553,
          "254": 0.24523645639419556,
          "255": 0.26486334204673767,
          "256": 4.360774517059326,
          "257": 2.677245616912842,
          "258": -26.948537826538086,
          "259": 2.8574378490448,
          "260": -0.6817260980606079,
          "261": -4.4701924324035645,
          "262": 0.5449224710464478,
          "263": 0.08894973993301392,
          "264": 0.9755210876464844,
          "265": -1.0488513708114624,
          "266": -0.6018332242965698,
          "267": 1.4478381872177124,
          "268": 1.2381818294525146,
          "269": 1.4193278551101685,
          "270": -4.229248046875,
          "271": -0.39836201071739197,
          "272": -0.5541163086891174,
          "273": 0.23162509500980377,
          "274": -0.5871149897575378,
          "275": -2.9809393882751465,
          "276": 0.20863701403141022,
          "277": -0.393767386674881,
          "278": -5.974626064300537,
          "279": -8.565845489501953,
          "280": 0.20651687681674957,
          "281": 14.359231948852539,
          "282": 0.7023048400878906,
          "283": -0.7857981324195862,
          "284": -0.34173011779785156,
          "285": -0.26512765884399414,
          "286": 1.7526038885116577,
          "287": 6.096986770629883,
          "288": 2.6322269439697266,
          "289": -5.411186218261719,
          "290": -0.4334176778793335,
          "291": 9.177462577819824,
          "292": -3.07245135307312,
          "293": 2.6270053386688232,
          "294": -0.15908679366111755,
          "295": -0.28058359026908875,
          "296": 0.350544810295105,
          "297": 5.699416637420654,
          "298": -1.9237288236618042,
          "299": -8.245827674865723,
          "300": 2.961348056793213,
          "301": -0.3242242634296417,
          "302": 0.3438888490200043,
          "303": 4.461490154266357,
          "304": 0.2362392544746399,
          "305": 0.6458814740180969,
          "306": 0.7086585760116577,
          "307": 0.090196393430233,
          "308": 0.2829801142215729,
          "309": 6.171212196350098,
          "310": -0.28129780292510986,
          "311": 0.32203835248947144,
          "312": 0.25067171454429626,
          "313": 0.1350732296705246,
          "314": -2.224207639694214,
          "315": -0.8158586621284485,
          "316": -0.06309192627668381,
          "317": -2.5222694873809814,
          "318": -9.073671340942383,
          "319": -0.7118571996688843,
          "320": -0.056962884962558746,
          "321": 9.29218578338623,
          "322": 2.910898447036743,
          "323": -2.7823667526245117,
          "324": -0.010462361387908459,
          "325": 0.04705428704619408,
          "326": -5.963881969451904,
          "327": 0.07070863246917725,
          "328": 17.631025314331055,
          "329": -5.7558794021606445,
          "330": 0.041594043374061584,
          "331": -11.730608940124512,
          "332": 8.350910186767578,
          "333": 3.692837715148926,
          "334": -0.030464861541986465,
          "335": -0.031008493155241013,
          "336": 2.8337526321411133,
          "337": 16.207218170166016,
          "338": -9.660703659057617,
          "339": -6.525131702423096,
          "340": -0.12689968943595886,
          "341": -2.9390575885772705,
          "342": 2.916865110397339,
          "343": 6.341726303100586,
          "344": 6.682240009307861,
          "345": -3.092952251434326,
          "346": -0.08825380355119705,
          "347": 2.9731411933898926,
          "348": 2.9006764888763428,
          "349": 11.099176406860352,
          "350": -2.8904128074645996,
          "351": -0.05207561329007149,
          "352": -0.008656638674438,
          "353": 13.541683197021484,
          "354": -0.060540612787008286,
          "355": -2.7780306339263916,
          "356": -2.8406898975372314,
          "357": -0.0613737553358078,
          "358": -14.429194450378418,
          "359": -14.500828742980957,
          "360": 0.1261017918586731,
          "361": -3.642861843109131,
          "362": 0.43903934955596924,
          "363": -0.3827671408653259,
          "364": -0.27905192971229553,
          "365": -0.22604121267795563,
          "366": -3.0159833431243896,
          "367": -0.42038607597351074,
          "368": 3.3972296714782715,
          "369": -11.490470886230469,
          "370": -0.2887236773967743,
          "371": -9.38829517364502,
          "372": -2.4940078258514404,
          "373": -12.377676963806152,
          "374": -0.17802399396896362,
          "375": -0.2246789038181305,
          "376": 0.2575719952583313,
          "377": 1.5860505104064941,
          "378": -3.1730360984802246,
          "379": -6.824647426605225,
          "380": 0.45473629236221313,
          "381": -0.1806076318025589,
          "382": 0.20945383608341217,
          "383": -3.715184450149536,
          "384": 0.6294476985931396,
          "385": -10.824975967407227,
          "386": 0.45532727241516113,
          "387": 0.08086927980184555,
          "388": 0.19457070529460907,
          "389": 1.52506422996521,
          "390": -0.14996658265590668,
          "391": 0.14190499484539032,
          "392": 0.4440452754497528,
          "393": 14.053935050964355,
          "394": 0.3683106601238251,
          "395": -0.500237762928009,
          "396": -0.028687193989753723,
          "397": 0.26847442984580994,
          "398": -14.496705055236816,
          "399": -14.581009864807129,
          "400": 0.045728426426649094,
          "401": 2.125490427017212,
          "402": 0.9449417591094971,
          "403": -0.04688500985503197,
          "404": -0.06147504970431328,
          "405": 0.02448444999754429,
          "406": -0.084779754281044,
          "407": -0.1566496193408966,
          "408": 1.5549280643463135,
          "409": -2.597475528717041,
          "410": -0.029310114681720734,
          "411": -5.214348793029785,
          "412": 1.3731708526611328,
          "413": 4.826824188232422,
          "414": -0.01744931749999523,
          "415": 0.014670941047370434,
          "416": 0.009710081852972507,
          "417": 3.9408421516418457,
          "418": 1.0210157632827759,
          "419": -6.12175178527832,
          "420": 0.06433933228254318,
          "421": 0.10829014331102371,
          "422": 0.05294081196188927,
          "423": -1.7814475297927856,
          "424": 0.0697602778673172,
          "425": -5.856359004974365,
          "426": 0.09131786972284317,
          "427": -0.048304472118616104,
          "428": 0.03612292557954788,
          "429": 2.489710569381714,
          "430": 0.08501871675252914,
          "431": 0.026701778173446655,
          "432": 0.03564867377281189,
          "433": 1.971930980682373,
          "434": 0.013772165402770042,
          "435": 0.011379768140614033,
          "436": 0.019507847726345062,
          "437": 0.04820580407977104,
          "438": -4.2112603187561035,
          "439": -1.9983878135681152,
          "440": 0.06327589601278305,
          "441": -2.7950665950775146,
          "442": 2.971334934234619,
          "443": -0.1551661491394043,
          "444": -0.13341350853443146,
          "445": -0.09034796804189682,
          "446": -0.05893240496516228,
          "447": -0.23434120416641235,
          "448": 4.614014148712158,
          "449": -4.410289764404297,
          "450": -0.07220013439655304,
          "451": -7.152216911315918,
          "452": -7.694854736328125,
          "453": 11.76109790802002,
          "454": 0.007658954709768295,
          "455": -0.007205647882074118,
          "456": 0.12542295455932617,
          "457": -3.1346499919891357,
          "458": 5.102989673614502,
          "459": -7.793588161468506,
          "460": 0.168772891163826,
          "461": -0.0656575858592987,
          "462": 0.14594751596450806,
          "463": -0.4191269278526306,
          "464": 5.552416801452637,
          "465": 3.048287868499756,
          "466": 0.19632770121097565,
          "467": -0.06308715790510178,
          "468": 0.03420965000987053,
          "469": 1.554101824760437,
          "470": -0.03539777174592018,
          "471": 0.08039169013500214,
          "472": 0.20305834710597992,
          "473": 4.505222797393799,
          "474": 0.08989163488149643,
          "475": -0.2221483588218689,
          "476": -0.09848257154226303,
          "477": 0.12008561193943024,
          "478": -4.64625883102417,
          "479": -4.667197227478027,
          "480": 2.7834978103637695,
          "481": -4.0833539962768555,
          "482": 2.8317859172821045,
          "483": -2.9181785583496094,
          "484": -0.07141812145709991,
          "485": -3.2711946964263916,
          "486": -9.675517082214355,
          "487": -1.0324387550354004,
          "488": 15.945047378540039,
          "489": -0.5867978930473328,
          "490": -1.1781305074691772,
          "491": 1.0835216045379639,
          "492": -4.4790143966674805,
          "493": -6.385828018188477,
          "494": 0.012281139381229877,
          "495": 0.08071666210889816,
          "496": 2.9589388370513916,
          "497": 7.764640808105469,
          "498": -11.04360580444336,
          "499": -6.046816349029541,
          "500": -0.21191269159317017,
          "501": -2.9066128730773926,
          "502": 2.922366142272949,
          "503": -5.317194938659668,
          "504": -8.246453285217285,
          "505": 0.7267155051231384,
          "506": -0.23786014318466187,
          "507": 0.05870389938354492,
          "508": 1.0894701480865479,
          "509": 9.200361251831055,
          "510": -3.050917863845825,
          "511": 0.034409962594509125,
          "512": -0.0859912782907486,
          "513": 9.14775562286377,
          "514": 1.6316308975219727,
          "515": -2.7844154834747314,
          "516": 0.011133951134979725,
          "517": 0.19647042453289032,
          "518": -10.88101863861084,
          "519": -8.120603561401367,
          "520": 0.049382422119379044,
          "521": -0.04841124266386032,
          "522": -4.67068338394165,
          "523": 4.423544883728027,
          "524": -0.0051367939449846745,
          "525": -0.03197716549038887,
          "526": 4.6474103927612305,
          "527": -0.0932338684797287,
          "528": -0.4196690022945404,
          "529": -0.03338627517223358,
          "530": 0.009682639501988888,
          "531": 0.026382170617580414,
          "532": 3.7561755180358887,
          "533": -1.6118342876434326,
          "534": -0.08574296534061432,
          "535": 0.005055487621575594,
          "536": -4.636408805847168,
          "537": 2.867441415786743,
          "538": 3.5722622871398926,
          "539": -2.926687240600586,
          "540": 0.07283104956150055,
          "541": 4.703036308288574,
          "542": -0.34721437096595764,
          "543": -0.0351971760392189,
          "544": 0.07328058034181595,
          "545": 0.027743052691221237,
          "546": 0.11902980506420135,
          "547": -0.6116032004356384,
          "548": -0.05232932046055794,
          "549": -4.613507270812988,
          "550": 4.3126301765441895,
          "551": 0.10974449664354324,
          "552": 0.07656440138816833,
          "553": -6.057552337646484,
          "554": 0.02998633123934269,
          "555": 2.728186845779419,
          "556": 0.03908190876245499,
          "557": 0.048618949949741364,
          "558": 0.12733890116214752,
          "559": 5.674598693847656,
          "560": 0.05135933682322502,
          "561": -0.06560234725475311,
          "562": 1.9508471488952637,
          "563": 0.20188197493553162,
          "564": -0.017613610252738,
          "565": -0.05641774460673332,
          "566": -0.9426432847976685,
          "567": -0.09483218938112259,
          "568": -0.050948064774274826,
          "569": 0.009888561442494392,
          "570": -0.056480493396520615,
          "571": -0.013458197005093098,
          "572": 0.27264025807380676,
          "573": -0.9762982726097107,
          "574": 0.03226904571056366,
          "575": -0.09308531880378723,
          "576": -0.16819708049297333,
          "577": 1.9662986993789673,
          "578": -1.8828823566436768,
          "579": -1.7307158708572388,
          "580": 0.10715266317129135,
          "581": 0.2638735771179199,
          "582": -0.015248468145728111,
          "583": -0.05440553277730942,
          "584": -0.005045190919190645,
          "585": -0.020393844693899155,
          "586": 0.15517383813858032,
          "587": -0.006515165790915489,
          "588": -0.01545776054263115,
          "589": -0.20223896205425262,
          "590": 0.2035684734582901,
          "591": 0.01716279238462448,
          "592": 0.10215505212545395,
          "593": 1.7907872200012207,
          "594": 0.05435655266046524,
          "595": 0.16471490263938904,
          "596": -0.05800163745880127,
          "597": 0.08340136706829071,
          "598": -0.048600129783153534,
          "599": -1.8751540184020996,
          "600": 0.13325189054012299,
          "601": -0.3624020218849182,
          "602": 0.2547290027141571,
          "603": -0.40493011474609375,
          "604": -0.1318640410900116,
          "605": -0.17254309356212616,
          "606": -0.38182613253593445,
          "607": 2.6529579162597656,
          "608": -0.2824990153312683,
          "609": 0.08255951851606369,
          "610": -0.24833792448043823,
          "611": 0.13715539872646332,
          "612": -0.11146418750286102,
          "613": -1.9422504901885986,
          "614": -0.14527204632759094,
          "615": -0.09024696052074432,
          "616": 0.22836628556251526,
          "617": 2.6155965328216553,
          "618": -2.2877795696258545,
          "619": -0.01721794344484806,
          "620": 0.2990252673625946,
          "621": -0.11933548748493195,
          "622": 0.23570774495601654,
          "623": -0.19260232150554657,
          "624": 0.15403002500534058,
          "625": -0.07339706271886826,
          "626": 0.40661224722862244,
          "627": 0.04391494393348694,
          "628": 0.036682695150375366,
          "629": 0.2564748525619507,
          "630": -0.04122624173760414,
          "631": 0.16733768582344055,
          "632": 0.2462209016084671,
          "633": 1.7558071613311768,
          "634": -0.3583711087703705,
          "635": -0.4605900049209595,
          "636": -0.12211572378873825,
          "637": -2.514988899230957,
          "638": -0.12042385339736938,
          "639": -2.0731537342071533,
          "640": -0.08796048909425735,
          "641": 0.40481826663017273,
          "642": 2.4956798553466797,
          "643": -2.5449211597442627,
          "644": 0.2805694043636322,
          "645": 0.1870676875114441,
          "646": -2.706181287765503,
          "647": 0.3910669982433319,
          "648": 0.01645015738904476,
          "649": -0.19823943078517914,
          "650": 0.3102034628391266,
          "651": -0.14666599035263062,
          "652": -2.7303173542022705,
          "653": -0.08546391129493713,
          "654": 0.05852610617876053,
          "655": 0.18895688652992249,
          "656": 2.7333157062530518,
          "657": 0.03447341546416283,
          "658": -2.511291742324829,
          "659": -0.09718558937311172,
          "660": -0.49275216460227966,
          "661": -2.784105062484741,
          "662": 1.6554677486419678,
          "663": 0.0674801617860794,
          "664": -0.20147693157196045,
          "665": 0.08682561665773392,
          "666": -0.47325533628463745,
          "667": -0.026618964970111847,
          "668": -0.07639176398515701,
          "669": 2.737205982208252,
          "670": -2.8588061332702637,
          "671": -0.18378280103206635,
          "672": -0.31946834921836853,
          "673": 2.948702096939087,
          "674": -0.3806319832801819,
          "675": -2.417842388153076,
          "676": 0.07014046609401703,
          "677": -0.1877543330192566,
          "678": -1.8532326221466064,
          "679": -2.721884250640869,
          "680": -0.07200107723474503,
          "681": 0.09314072132110596,
          "682": -3.051170825958252,
          "683": 3.127598285675049,
          "684": 0.08919862657785416,
          "685": 0.02814035676419735,
          "686": 3.9894251823425293,
          "687": 0.10467225313186646,
          "688": -1.3254990577697754,
          "689": 1.247650384902954,
          "690": 0.017621371895074844,
          "691": -0.024049723520874977,
          "692": 3.0305399894714355,
          "693": 3.087608814239502,
          "694": 0.09133560955524445,
          "695": 0.06685375422239304,
          "696": -2.9710235595703125,
          "697": -1.7755556106567383,
          "698": 4.2361273765563965,
          "699": 1.2139556407928467,
          "700": -0.10198478400707245,
          "701": 3.0252397060394287,
          "702": -1.5680577754974365,
          "703": 1.3767738342285156,
          "704": -0.1573985517024994,
          "705": 1.343964695930481,
          "706": -0.11891187727451324,
          "707": -0.1035938486456871,
          "708": -0.0513758510351181,
          "709": -4.230712413787842,
          "710": 3.0042083263397217,
          "711": -0.06930221617221832,
          "712": -0.08446414768695831,
          "713": -5.911349296569824,
          "714": -0.05545078590512276,
          "715": 3.011343002319336,
          "716": 0.010591153986752033,
          "717": -0.022151393815875053,
          "718": 2.9495902061462402,
          "719": 5.963662147521973,
          "720": -0.20610947906970978,
          "721": 1.1382231712341309,
          "722": -4.1362385749816895,
          "723": 0.6315698623657227,
          "724": 0.49725955724716187,
          "725": 0.31158727407455444,
          "726": 4.826359272003174,
          "727": 0.6890498995780945,
          "728": -0.15245786309242249,
          "729": 1.3617236614227295,
          "730": 0.42492181062698364,
          "731": 1.3937166929244995,
          "732": 1.0601762533187866,
          "733": 11.013479232788086,
          "734": 0.2766193747520447,
          "735": 0.32317784428596497,
          "736": -0.34269630908966064,
          "737": -6.267214298248291,
          "738": 7.12393045425415,
          "739": 4.739727020263672,
          "740": -0.7768460512161255,
          "741": 0.16882020235061646,
          "742": -0.3694957494735718,
          "743": 5.079551696777344,
          "744": -5.560965061187744,
          "745": 3.9920294284820557,
          "746": -0.7656949758529663,
          "747": -0.02678048238158226,
          "748": -0.5269155502319336,
          "749": -2.660041332244873,
          "750": 0.13674503564834595,
          "751": -0.43421751260757446,
          "752": -0.6894627809524536,
          "753": -9.503905296325684,
          "754": -0.6612168550491333,
          "755": 0.8576973676681519,
          "756": 0.12372171133756638,
          "757": -0.3702223300933838,
          "758": 2.015850305557251,
          "759": 13.135902404785156,
          "760": 0.010488312691450119,
          "761": 0.6635441780090332,
          "762": -3.4440929889678955,
          "763": 5.4137444496154785,
          "764": 0.0901748538017273,
          "765": -0.08288604766130447,
          "766": 3.826448678970337,
          "767": 0.13403509557247162,
          "768": -0.3922416567802429,
          "769": -1.5400489568710327,
          "770": 0.20589300990104675,
          "771": 0.04944801330566406,
          "772": 7.372740268707275,
          "773": -5.778392791748047,
          "774": -0.058066196739673615,
          "775": 0.052531953901052475,
          "776": -5.365184783935547,
          "777": 8.599908828735352,
          "778": 11.397061347961426,
          "779": -4.139591693878174,
          "780": -0.17244689166545868,
          "781": 5.358582019805908,
          "782": -1.7242659330368042,
          "783": 2.750818967819214,
          "784": 3.577059507369995,
          "785": 6.303668975830078,
          "786": -0.15257678925991058,
          "787": -2.113502264022827,
          "788": 0.3124626576900482,
          "789": -5.3989152908325195,
          "790": 5.074710845947266,
          "791": 0.024357419461011887,
          "792": -0.1570938527584076,
          "793": -3.5359787940979004,
          "794": -0.14859062433242798,
          "795": 4.934860706329346,
          "796": 0.0930008813738823,
          "797": -0.05947599187493324,
          "798": -1.0087287425994873,
          "799": 5.911187648773193,
          "800": 0.31804153323173523,
          "801": -7.342983722686768,
          "802": 0.9782972931861877,
          "803": -1.0560522079467773,
          "804": -0.5776951313018799,
          "805": -0.4398588240146637,
          "806": -0.5398076176643372,
          "807": -0.9169233441352844,
          "808": 1.9955075979232788,
          "809": -0.3310343623161316,
          "810": -0.6332412362098694,
          "811": 0.419464111328125,
          "812": -0.46496981382369995,
          "813": 6.03945255279541,
          "814": -0.3658442497253418,
          "815": -0.4047549068927765,
          "816": 0.6537393927574158,
          "817": -7.6845598220825195,
          "818": 4.9149250984191895,
          "819": 2.486109972000122,
          "820": 1.4411563873291016,
          "821": -0.4347175061702728,
          "822": 0.5576838254928589,
          "823": -0.42084911465644836,
          "824": 0.39959800243377686,
          "825": 4.657668590545654,
          "826": 1.0775659084320068,
          "827": 0.09934526681900024,
          "828": 0.2899790108203888,
          "829": 1.4483051300048828,
          "830": -0.4081428050994873,
          "831": 0.43258848786354065,
          "832": 0.9233059287071228,
          "833": -6.444700241088867,
          "834": 0.885826826095581,
          "835": -1.1373332738876343,
          "836": -0.14931470155715942,
          "837": 0.5219902992248535,
          "838": -1.1674714088439941,
          "839": 5.642646312713623,
          "840": -0.13322778046131134,
          "841": 0.549048662185669,
          "842": 2.4552643299102783,
          "843": -2.401315927505493,
          "844": 0.24300163984298706,
          "845": 0.19480960071086884,
          "846": -2.774080753326416,
          "847": 0.5026088953018188,
          "848": 0.04252299666404724,
          "849": -0.20356407761573792,
          "850": 0.3011305034160614,
          "851": -0.15725092589855194,
          "852": -2.568019151687622,
          "853": -0.19399511814117432,
          "854": 0.16520178318023682,
          "855": 0.14835494756698608,
          "856": 2.5965633392333984,
          "857": -0.016196276992559433,
          "858": -2.250148057937622,
          "859": -0.06229936331510544,
          "860": -0.630810558795929,
          "861": -2.69641375541687,
          "862": 1.7801693677902222,
          "863": 0.1612234115600586,
          "864": -0.18049447238445282,
          "865": 0.2147393375635147,
          "866": -0.5005667805671692,
          "867": 0.05120469629764557,
          "868": -0.12308593094348907,
          "869": 2.6278722286224365,
          "870": -2.8084397315979004,
          "871": -0.2849844992160797,
          "872": -0.5395927429199219,
          "873": 3.0139410495758057,
          "874": -0.39726969599723816,
          "875": -2.296830654144287,
          "876": 0.12524829804897308,
          "877": -0.2235739380121231,
          "878": -1.906818151473999,
          "879": -2.6608378887176514,
          "880": -0.017060229554772377,
          "881": 0.2222009152173996,
          "882": 3.2084593772888184,
          "883": -3.0642619132995605,
          "884": 0.14446566998958588,
          "885": 0.04761313647031784,
          "886": -3.279782295227051,
          "887": 0.0838746502995491,
          "888": 0.4156762659549713,
          "889": -0.12053034454584122,
          "890": 0.17029541730880737,
          "891": 0.011264576576650143,
          "892": -3.2355966567993164,
          "893": -0.015154387801885605,
          "894": 0.0215337872505188,
          "895": 0.0038226787000894547,
          "896": 3.223677396774292,
          "897": 0.07748791575431824,
          "898": -3.0894558429718018,
          "899": -0.06289403140544891,
          "900": -0.1851712167263031,
          "901": -3.2595772743225098,
          "902": 3.1172597408294678,
          "903": -1.0902332067489624,
          "904": 0.9971859455108643,
          "905": -0.9841768741607666,
          "906": -0.10848324745893478,
          "907": 0.5141410231590271,
          "908": 2.172093152999878,
          "909": 3.252413511276245,
          "910": -3.2425920963287354,
          "911": -0.08270500600337982,
          "912": -0.09467174857854843,
          "913": 2.312476634979248,
          "914": -0.09823993593454361,
          "915": -3.0687265396118164,
          "916": -0.40803325176239014,
          "917": -0.07596135139465332,
          "918": -3.089940309524536,
          "919": -3.1852006912231445,
          "920": 0.007984074763953686,
          "921": -0.839952290058136,
          "922": 2.018688201904297,
          "923": -2.028228521347046,
          "924": -0.03999446704983711,
          "925": 0.02319568581879139,
          "926": -2.009521961212158,
          "927": 0.06287778913974762,
          "928": 5.793593406677246,
          "929": 2.3585963249206543,
          "930": 0.056980378925800323,
          "931": -0.01994936168193817,
          "932": -7.168787002563477,
          "933": 3.7014803886413574,
          "934": -0.010458606295287609,
          "935": 0.08553513139486313,
          "936": 1.9307010173797607,
          "937": -0.0387335941195488,
          "938": -5.919489860534668,
          "939": 1.5563849210739136,
          "940": -0.02088259533047676,
          "941": -1.98418390750885,
          "942": 1.9738439321517944,
          "943": -2.1669559478759766,
          "944": 1.7224133014678955,
          "945": 0.5292556285858154,
          "946": -0.02406909130513668,
          "947": 1.972731590270996,
          "948": 1.9507899284362793,
          "949": 0.39699116349220276,
          "950": -1.9806081056594849,
          "951": 0.04145020991563797,
          "952": -0.10105425119400024,
          "953": -6.535573482513428,
          "954": -0.07387438416481018,
          "955": -2.0216329097747803,
          "956": -1.9676676988601685,
          "957": -0.07569777220487595,
          "958": 0.22889068722724915,
          "959": 4.434539318084717,
          "960": -0.015515181235969067,
          "961": -2.783425807952881,
          "962": 0.3132534623146057,
          "963": -0.23049284517765045,
          "964": 0.09557760506868362,
          "965": 0.11238346993923187,
          "966": -0.7574442625045776,
          "967": 0.25616663694381714,
          "968": 0.5075870156288147,
          "969": 5.082560062408447,
          "970": 0.060498327016830444,
          "971": -0.10103732347488403,
          "972": -3.3043015003204346,
          "973": -2.020371913909912,
          "974": 0.12131507694721222,
          "975": 0.09594409167766571,
          "976": 0.4263750910758972,
          "977": -1.2477022409439087,
          "978": 0.7226395606994629,
          "979": -0.05437294766306877,
          "980": -0.23688438534736633,
          "981": -0.47685706615448,
          "982": 0.34481287002563477,
          "983": 5.717823505401611,
          "984": -5.631465911865234,
          "985": 5.778409004211426,
          "986": -0.27077576518058777,
          "987": 0.5785700678825378,
          "988": 0.4047355353832245,
          "989": 0.34430932998657227,
          "990": -0.48887455463409424,
          "991": -0.10654614120721817,
          "992": -0.1850806474685669,
          "993": -4.43906831741333,
          "994": -0.1915089637041092,
          "995": -0.2829829454421997,
          "996": -0.45660972595214844,
          "997": -0.12751975655555725,
          "998": 5.3932414054870605,
          "999": 3.935030460357666,
          "1000": 0.0040698545053601265,
          "1001": -3.8668363094329834,
          "1002": 1.2069518566131592,
          "1003": -1.2342664003372192,
          "1004": 0.14270393550395966,
          "1005": 0.11144912987947464,
          "1006": -1.2844955921173096,
          "1007": -3.0303750038146973,
          "1008": -6.759844779968262,
          "1009": 6.452295303344727,
          "1010": 0.1624222993850708,
          "1011": 5.968571662902832,
          "1012": 2.228071689605713,
          "1013": 3.1956846714019775,
          "1014": 0.10535621643066406,
          "1015": 0.005824199877679348,
          "1016": 1.293929100036621,
          "1017": -2.318605661392212,
          "1018": 2.874298095703125,
          "1019": 2.4594244956970215,
          "1020": -0.21960444748401642,
          "1021": -1.2587838172912598,
          "1022": 1.2884265184402466,
          "1023": 7.933392524719238,
          "1024": -2.2443089485168457,
          "1025": 9.880650520324707,
          "1026": -0.20713435113430023,
          "1027": 1.2893515825271606,
          "1028": 1.3632735013961792,
          "1029": -4.74294900894165,
          "1030": -1.3609849214553833,
          "1031": -0.09473035484552383,
          "1032": -0.07306972146034241,
          "1033": -8.095565795898438,
          "1034": -0.06496641039848328,
          "1035": -1.201298475265503,
          "1036": -1.296994686126709,
          "1037": -0.03525393828749657,
          "1038": 4.794170379638672,
          "1039": 6.666971683502197,
          "1040": 0.1981496512889862,
          "1041": -0.7811475396156311,
          "1042": 0.6245120167732239,
          "1043": -0.7975295782089233,
          "1044": -0.5066964626312256,
          "1045": -0.3567887544631958,
          "1046": -0.4634639322757721,
          "1047": -0.7813411355018616,
          "1048": -0.6701260805130005,
          "1049": 0.32841044664382935,
          "1050": -0.46185970306396484,
          "1051": 0.20659789443016052,
          "1052": -0.3924323618412018,
          "1053": -1.4201691150665283,
          "1054": -0.21544578671455383,
          "1055": -0.28440454602241516,
          "1056": 0.4934835731983185,
          "1057": 0.06068836525082588,
          "1058": -2.6029324531555176,
          "1059": 0.18088898062705994,
          "1060": 0.8375498056411743,
          "1061": -0.2945251762866974,
          "1062": 0.3966123163700104,
          "1063": -0.2578381896018982,
          "1064": 0.2912856638431549,
          "1065": -0.25777095556259155,
          "1066": 0.8101785778999329,
          "1067": -0.03819948062300682,
          "1068": 0.27955690026283264,
          "1069": 0.515893816947937,
          "1070": -0.19422991573810577,
          "1071": 0.3475801944732666,
          "1072": 0.7039040923118591,
          "1073": 1.36287522315979,
          "1074": 0.5894553065299988,
          "1075": -0.9428412914276123,
          "1076": -0.08199485391378403,
          "1077": 0.3441014289855957,
          "1078": -0.2182796597480774,
          "1079": -1.9211630821228027,
          "1080": 0.046585917472839355,
          "1081": -0.1961185783147812,
          "1082": 2.954190969467163,
          "1083": -3.0335769653320312,
          "1084": 0.028033575043082237,
          "1085": -0.06676963716745377,
          "1086": -2.9742088317871094,
          "1087": -0.0991269126534462,
          "1088": 2.969740390777588,
          "1089": 0.033795394003391266,
          "1090": -0.08206074684858322,
          "1091": -0.021760333329439163,
          "1092": -2.6691603660583496,
          "1093": -0.1056087464094162,
          "1094": -0.019607001915574074,
          "1095": -0.03514113649725914,
          "1096": 2.937471866607666,
          "1097": 0.19712983071804047,
          "1098": -2.7574033737182617,
          "1099": 0.07833508402109146,
          "1100": 0.09208820015192032,
          "1101": -2.999472141265869,
          "1102": 2.9451944828033447,
          "1103": -3.0066211223602295,
          "1104": 2.9985644817352295,
          "1105": -2.9300780296325684,
          "1106": 0.11326645314693451,
          "1107": 2.9383699893951416,
          "1108": 2.9335899353027344,
          "1109": 2.9379100799560547,
          "1110": -2.938438892364502,
          "1111": 0.04626357555389404,
          "1112": 0.04554123058915138,
          "1113": 0.38307857513427734,
          "1114": -0.011963854543864727,
          "1115": -3.008399248123169,
          "1116": -2.9983742237091064,
          "1117": 0.09748733788728714,
          "1118": -3.0392940044403076,
          "1119": -3.371647596359253,
          "1120": -0.020365102216601372,
          "1121": 0.29844793677330017,
          "1122": 2.9219634532928467,
          "1123": -2.8907694816589355,
          "1124": 0.13131867349147797,
          "1125": 0.16063179075717926,
          "1126": -3.05147647857666,
          "1127": 0.23503519594669342,
          "1128": 0.1755751073360443,
          "1129": -0.09597191214561462,
          "1130": 0.15786240994930267,
          "1131": 0.0035865269601345062,
          "1132": -3.113084316253662,
          "1133": 0.022147804498672485,
          "1134": 0.09075489640235901,
          "1135": 0.03952725976705551,
          "1136": 3.001660108566284,
          "1137": 0.09127369523048401,
          "1138": -2.8711230754852295,
          "1139": -0.03953475132584572,
          "1140": -0.2666921019554138,
          "1141": -3.1149742603302,
          "1142": 2.661173105239868,
          "1143": -0.622057318687439,
          "1144": 0.6047735214233398,
          "1145": -0.5854079127311707,
          "1146": -0.33037444949150085,
          "1147": 0.19681520760059357,
          "1148": 1.6774314641952515,
          "1149": 3.053044080734253,
          "1150": -2.975350856781006,
          "1151": -0.1341811567544937,
          "1152": -0.22292806208133698,
          "1153": 2.9118549823760986,
          "1154": -0.17474806308746338,
          "1155": -2.7820544242858887,
          "1156": -0.23657387495040894,
          "1157": -0.15306472778320312,
          "1158": -2.7206709384918213,
          "1159": -2.851961374282837,
          "1160": -0.16689401865005493,
          "1161": 0.4405871629714966,
          "1162": 4.110100746154785,
          "1163": -2.380666732788086,
          "1164": 0.20984791219234467,
          "1165": 0.21389243006706238,
          "1166": -4.441020965576172,
          "1167": 0.39552047848701477,
          "1168": 1.2972451448440552,
          "1169": 2.8810553550720215,
          "1170": 0.24390637874603271,
          "1171": 3.0370371341705322,
          "1172": -6.840176105499268,
          "1173": -8.00832748413086,
          "1174": 0.13770383596420288,
          "1175": 0.16677002608776093,
          "1176": 3.9914021492004395,
          "1177": 2.5231080055236816,
          "1178": -8.946664810180664,
          "1179": 2.9685134887695312,
          "1180": -0.3483359217643738,
          "1181": -3.598942756652832,
          "1182": 0.10533878207206726,
          "1183": 3.18483567237854,
          "1184": 2.146174430847168,
          "1185": 3.128920316696167,
          "1186": -0.4390670955181122,
          "1187": 0.0384569875895977,
          "1188": -0.1183832660317421,
          "1189": 6.110048294067383,
          "1190": -2.8255279064178467,
          "1191": -0.13152331113815308,
          "1192": -0.3070138096809387,
          "1193": 5.774397373199463,
          "1194": -0.2799047529697418,
          "1195": -2.0634968280792236,
          "1196": -0.026196779683232307,
          "1197": -0.2137167751789093,
          "1198": 2.835289239883423,
          "1199": -6.131838321685791,
          "1200": 0.02094854600727558,
          "1201": -0.010294841602444649,
          "1202": 3.8363752365112305,
          "1203": -3.816781520843506,
          "1204": 0.008683173917233944,
          "1205": -0.06943479925394058,
          "1206": -3.8197736740112305,
          "1207": -0.004084646236151457,
          "1208": 1.2962963581085205,
          "1209": -0.038722872734069824,
          "1210": -0.0496123731136322,
          "1211": -0.025235511362552643,
          "1212": -3.679652214050293,
          "1213": -0.004218366928398609,
          "1214": -0.024042049422860146,
          "1215": 0.021864430978894234,
          "1216": 3.8514976501464844,
          "1217": 0.02374805510044098,
          "1218": -3.6930735111236572,
          "1219": 0.07900705933570862,
          "1220": -0.06365916132926941,
          "1221": -3.866349220275879,
          "1222": 3.831068992614746,
          "1223": -4.194878101348877,
          "1224": 4.227813243865967,
          "1225": -4.236198902130127,
          "1226": -0.045956432819366455,
          "1227": 1.556772232055664,
          "1228": 4.250635147094727,
          "1229": 3.777714252471924,
          "1230": -3.803133964538574,
          "1231": -0.05034150555729866,
          "1232": 0.031045448035001755,
          "1233": 2.952885866165161,
          "1234": -0.041236985474824905,
          "1235": -3.83486270904541,
          "1236": -3.9937596321105957,
          "1237": -0.05592783913016319,
          "1238": -3.9179368019104004,
          "1239": -3.936587333679199,
          "1240": 0.08413814008235931,
          "1241": 2.947554588317871,
          "1242": 0.7074070572853088,
          "1243": 0.012651722878217697,
          "1244": -0.08907616883516312,
          "1245": -0.054627105593681335,
          "1246": -0.09310036897659302,
          "1247": -0.1906229555606842,
          "1248": 0.04623754322528839,
          "1249": -0.6180728673934937,
          "1250": -0.1492048054933548,
          "1251": -1.8752866983413696,
          "1252": -0.00043006273335777223,
          "1253": 3.574167013168335,
          "1254": -0.04958191514015198,
          "1255": -0.111942358314991,
          "1256": -0.047809939831495285,
          "1257": 3.8570613861083984,
          "1258": -3.7853379249572754,
          "1259": -1.1379965543746948,
          "1260": 0.19114315509796143,
          "1261": 0.15071958303451538,
          "1262": 0.08847735077142715,
          "1263": -1.363305926322937,
          "1264": -0.5692680478096008,
          "1265": -0.5641136765480042,
          "1266": 0.17267674207687378,
          "1267": -0.006078466307371855,
          "1268": 0.024992983788251877,
          "1269": 0.5692649483680725,
          "1270": 0.11305054277181625,
          "1271": -3.074443817138672,
          "1272": 0.11697918176651001,
          "1273": 1.33016037940979,
          "1274": 0.13283805549144745,
          "1275": 0.02988196723163128,
          "1276": -0.09182897210121155,
          "1277": 0.07624966651201248,
          "1278": -0.7701852321624756,
          "1279": -1.357923150062561,
          "1280": 0.13766616582870483,
          "1281": -0.5404866337776184,
          "1282": 0.3839755952358246,
          "1283": -0.5124863386154175,
          "1284": -0.24266360700130463,
          "1285": -0.17545805871486664,
          "1286": -0.41681331396102905,
          "1287": 2.4990415573120117,
          "1288": 0.6654449701309204,
          "1289": 0.2808590531349182,
          "1290": -0.33828553557395935,
          "1291": 0.05810392275452614,
          "1292": -0.26709774136543274,
          "1293": -1.6294803619384766,
          "1294": -0.1064395159482956,
          "1295": -0.16409839689731598,
          "1296": 0.2006358951330185,
          "1297": 2.8484344482421875,
          "1298": -2.187429904937744,
          "1299": 0.05882497876882553,
          "1300": 0.5123420357704163,
          "1301": -0.2286091148853302,
          "1302": 0.2220708429813385,
          "1303": -0.11892826110124588,
          "1304": 0.15849047899246216,
          "1305": -0.23447954654693604,
          "1306": 0.47101256251335144,
          "1307": 0.06658945977687836,
          "1308": 0.2057057023048401,
          "1309": 0.24827398359775543,
          "1310": -0.10106875747442245,
          "1311": 0.23238730430603027,
          "1312": 0.1272626668214798,
          "1313": 1.460350513458252,
          "1314": -2.4697210788726807,
          "1315": -0.6284114718437195,
          "1316": -0.09483645856380463,
          "1317": -2.7809360027313232,
          "1318": -0.7865741848945618,
          "1319": -1.8463412523269653,
          "1320": 0.17217372357845306,
          "1321": -0.5524276494979858,
          "1322": -0.6121124029159546,
          "1323": 2.0167295932769775,
          "1324": -0.10636921226978302,
          "1325": -0.24203115701675415,
          "1326": 5.114344120025635,
          "1327": -0.7270320057868958,
          "1328": -2.163853406906128,
          "1329": 5.1091437339782715,
          "1330": -0.33991381525993347,
          "1331": 9.986479759216309,
          "1332": -12.813438415527344,
          "1333": -12.963761329650879,
          "1334": 0.006091602612286806,
          "1335": -0.003205528249964118,
          "1336": -2.1658544540405273,
          "1337": -22.82103157043457,
          "1338": 47.335655212402344,
          "1339": -8.616007804870605,
          "1340": -0.06688585877418518,
          "1341": 2.1948304176330566,
          "1342": -1.897158145904541,
          "1343": 1.713614583015442,
          "1344": -5.816092014312744,
          "1345": 8.856391906738281,
          "1346": 0.00004314623220125213,
          "1347": -1.894499659538269,
          "1348": -2.654317855834961,
          "1349": -9.483206748962402,
          "1350": 2.3687825202941895,
          "1351": 0.09798610955476761,
          "1352": -0.004777723457664251,
          "1353": 18.072221755981445,
          "1354": 0.008534344844520092,
          "1355": 2.02466082572937,
          "1356": 1.936132788658142,
          "1357": 3.4741275310516357,
          "1358": 10.782880783081055,
          "1359": -10.137602806091309,
          "1360": 0.18733108043670654,
          "1361": -0.7359218001365662,
          "1362": 0.6961209774017334,
          "1363": -0.695533037185669,
          "1364": -0.37640804052352905,
          "1365": -0.26819437742233276,
          "1366": -0.56122225522995,
          "1367": 2.350189208984375,
          "1368": 2.4160523414611816,
          "1369": 0.3156103193759918,
          "1370": -0.37156832218170166,
          "1371": 0.21335339546203613,
          "1372": -0.366929829120636,
          "1373": -1.216494083404541,
          "1374": -0.1816641241312027,
          "1375": -0.27752771973609924,
          "1376": 0.4565795361995697,
          "1377": 2.718967914581299,
          "1378": -2.181892156600952,
          "1379": 0.08933884650468826,
          "1380": 0.7769830822944641,
          "1381": -0.2555193305015564,
          "1382": 0.3534505367279053,
          "1383": -0.28131234645843506,
          "1384": 0.2448458969593048,
          "1385": -0.36414527893066406,
          "1386": 0.7636047005653381,
          "1387": 0.007636771537363529,
          "1388": 0.1814432591199875,
          "1389": 0.48858755826950073,
          "1390": -0.17201204597949982,
          "1391": 0.35191190242767334,
          "1392": -0.840345025062561,
          "1393": 1.0471992492675781,
          "1394": -2.312779188156128,
          "1395": -0.832226574420929,
          "1396": -0.10663963109254837,
          "1397": -2.5336530208587646,
          "1398": -3.259958267211914,
          "1399": -1.586568832397461,
          "1400": -0.0433710552752018,
          "1401": 0.2861729562282562,
          "1402": 1.9493489265441895,
          "1403": -1.9200743436813354,
          "1404": 0.1904912292957306,
          "1405": 0.14063632488250732,
          "1406": -2.042708396911621,
          "1407": 0.19955386221408844,
          "1408": 0.21302853524684906,
          "1409": -0.07133980840444565,
          "1410": 0.07776624709367752,
          "1411": -0.11437077820301056,
          "1412": -1.9398579597473145,
          "1413": -0.020380297675728798,
          "1414": 0.056871771812438965,
          "1415": 0.11992012709379196,
          "1416": 2.0574584007263184,
          "1417": 0.07947419583797455,
          "1418": -1.8261748552322388,
          "1419": -0.0862719938158989,
          "1420": -0.26264169812202454,
          "1421": -1.9792976379394531,
          "1422": 3.049532413482666,
          "1423": -3.064851999282837,
          "1424": 3.0662012100219727,
          "1425": -3.0733017921447754,
          "1426": -0.20428961515426636,
          "1427": 0.23278969526290894,
          "1428": 3.062481641769409,
          "1429": 1.927944540977478,
          "1430": -2.4992828369140625,
          "1431": -0.1165495365858078,
          "1432": -0.11326201260089874,
          "1433": 2.3041155338287354,
          "1434": -0.18943606317043304,
          "1435": -2.300243377685547,
          "1436": -0.48246127367019653,
          "1437": -0.1061309203505516,
          "1438": -3.113337993621826,
          "1439": -1.9630606174468994,
          "1440": -0.10040471702814102,
          "1441": -0.4841817617416382,
          "1442": 2.4512386322021484,
          "1443": -2.420835018157959,
          "1444": 0.09198497980833054,
          "1445": 0.07139912247657776,
          "1446": -2.4776053428649902,
          "1447": 0.09355631470680237,
          "1448": 2.496838331222534,
          "1449": -0.023205608129501343,
          "1450": 0.0046935114078223705,
          "1451": -0.07369282096624374,
          "1452": -1.9850836992263794,
          "1453": 0.09097848832607269,
          "1454": -0.03296174108982086,
          "1455": 0.07549765706062317,
          "1456": 2.5324370861053467,
          "1457": 0.4899359345436096,
          "1458": -1.9449374675750732,
          "1459": -0.023861562833189964,
          "1460": -0.041242703795433044,
          "1461": -2.550485134124756,
          "1462": 2.4065442085266113,
          "1463": -2.4886233806610107,
          "1464": 2.418452262878418,
          "1465": -2.4539451599121094,
          "1466": -0.10743635147809982,
          "1467": 2.4604854583740234,
          "1468": 2.4705522060394287,
          "1469": 2.415013074874878,
          "1470": -2.4922683238983154,
          "1471": -0.03247682377696037,
          "1472": -0.06003410369157791,
          "1473": 0.42981186509132385,
          "1474": -0.07106181979179382,
          "1475": -2.4403932094573975,
          "1476": -2.4675822257995605,
          "1477": -0.12246689200401306,
          "1478": -2.5272724628448486,
          "1479": -3.0176634788513184,
          "1480": 0.24881170690059662,
          "1481": -0.8546723127365112,
          "1482": 0.7586601376533508,
          "1483": -0.832882285118103,
          "1484": -0.49681392312049866,
          "1485": -0.37261462211608887,
          "1486": 0.39706024527549744,
          "1487": 2.2280378341674805,
          "1488": 2.2811241149902344,
          "1489": 0.3938756585121155,
          "1490": -0.43276524543762207,
          "1491": 0.25282013416290283,
          "1492": -0.46079811453819275,
          "1493": -1.3177772760391235,
          "1494": -0.25565239787101746,
          "1495": -0.30636900663375854,
          "1496": 0.43132269382476807,
          "1497": 2.61643385887146,
          "1498": -2.4048640727996826,
          "1499": 0.09945446252822876,
          "1500": 0.8933328986167908,
          "1501": -0.27858683466911316,
          "1502": 0.46324536204338074,
          "1503": -0.375060111284256,
          "1504": 0.2408912479877472,
          "1505": -0.26592907309532166,
          "1506": 0.837945818901062,
          "1507": 0.0744459331035614,
          "1508": 0.27703556418418884,
          "1509": 0.42963463068008423,
          "1510": -0.23586493730545044,
          "1511": 0.4507945775985718,
          "1512": -0.40887606143951416,
          "1513": 1.0509814023971558,
          "1514": -2.2445414066314697,
          "1515": -0.9409565925598145,
          "1516": -0.22518101334571838,
          "1517": -2.558438777923584,
          "1518": -3.2868854999542236,
          "1519": -1.6534839868545532,
          "1520": -0.10329777747392654,
          "1521": 3.528503656387329,
          "1522": 3.283386707305908,
          "1523": -3.2590177059173584,
          "1524": 0.017548389732837677,
          "1525": 0.013961760327219963,
          "1526": -6.240730285644531,
          "1527": -1.975260615348816,
          "1528": 10.042988777160645,
          "1529": -2.283323049545288,
          "1530": -0.8485448360443115,
          "1531": -6.228036403656006,
          "1532": -0.41718780994415283,
          "1533": -6.1951704025268555,
          "1534": 0.07494717091321945,
          "1535": 0.10361429303884506,
          "1536": 3.2810795307159424,
          "1537": 3.8997340202331543,
          "1538": -14.52073860168457,
          "1539": -12.741888046264648,
          "1540": -0.14355936646461487,
          "1541": -3.415796995162964,
          "1542": 3.2956156730651855,
          "1543": -12.943886756896973,
          "1544": 3.3147201538085938,
          "1545": -19.810985565185547,
          "1546": -0.17788410186767578,
          "1547": 0.46620428562164307,
          "1548": 3.2811832427978516,
          "1549": 8.614178657531738,
          "1550": -3.456087350845337,
          "1551": -0.0052904412150382996,
          "1552": -0.1622762829065323,
          "1553": 16.68391990661621,
          "1554": -0.12622423470020294,
          "1555": -3.2506608963012695,
          "1556": -0.47718894481658936,
          "1557": -0.12951304018497467,
          "1558": -12.696897506713867,
          "1559": -13.06816577911377,
          "1560": -0.43198758363723755,
          "1561": 1.14279043674469,
          "1562": -3.599076986312866,
          "1563": 1.1546249389648438,
          "1564": 0.5660414695739746,
          "1565": 0.4361672103404999,
          "1566": 3.7489285469055176,
          "1567": 1.0154697895050049,
          "1568": -0.1837494969367981,
          "1569": -0.5491005778312683,
          "1570": 0.6407289505004883,
          "1571": -0.2372111678123474,
          "1572": 0.502267062664032,
          "1573": 5.170102119445801,
          "1574": 0.3713354468345642,
          "1575": 0.4300205707550049,
          "1576": -0.6647077798843384,
          "1577": -5.810368537902832,
          "1578": 5.426385879516602,
          "1579": 1.0677878856658936,
          "1580": -1.1922272443771362,
          "1581": 0.44444742798805237,
          "1582": -0.6272154450416565,
          "1583": 0.3671683073043823,
          "1584": -0.4810890853404999,
          "1585": 0.47291648387908936,
          "1586": -1.0377155542373657,
          "1587": -0.06705522537231445,
          "1588": -0.3714931905269623,
          "1589": -0.6375345587730408,
          "1590": 0.3143986761569977,
          "1591": -0.530608057975769,
          "1592": -0.8840882182121277,
          "1593": -5.905431747436523,
          "1594": -0.8107843995094299,
          "1595": 1.279067039489746,
          "1596": 0.15703727304935455,
          "1597": -0.5809426307678223,
          "1598": 0.8179989457130432,
          "1599": 4.951391220092773
        }
      },
      "inputBias": {
        "rows": 40,
        "columns": 1,
        "weights": {
          "0": -5.698733806610107,
          "1": -12.160263061523438,
          "2": -4.126327037811279,
          "3": -3.4161837100982666,
          "4": -3.4346327781677246,
          "5": -4.57092809677124,
          "6": -1.3446940183639526,
          "7": -7.807973384857178,
          "8": 4.118049144744873,
          "9": 8.770889282226562,
          "10": -0.472598671913147,
          "11": 9.866508483886719,
          "12": 12.549330711364746,
          "13": 10.749639511108398,
          "14": -2.0992891788482666,
          "15": -3.537494659423828,
          "16": -4.716619968414307,
          "17": 6.043393135070801,
          "18": 3.690261125564575,
          "19": 11.861720085144043,
          "20": -5.8323974609375,
          "21": -4.880052089691162,
          "22": -3.232113838195801,
          "23": 1.7716732025146484,
          "24": -2.0052201747894287,
          "25": -5.675583839416504,
          "26": -3.7340424060821533,
          "27": -4.5609307289123535,
          "28": -6.729961395263672,
          "29": 4.837857246398926,
          "30": -5.362282752990723,
          "31": -3.4457640647888184,
          "32": -3.569737434387207,
          "33": 38.46257400512695,
          "34": -4.845061302185059,
          "35": -5.954493522644043,
          "36": -4.766263484954834,
          "37": -2.877211809158325,
          "38": 16.480600357055664,
          "39": 7.427639484405518
        }
      },
      "forgetMatrix": {
        "rows": 40,
        "columns": 1,
        "weights": {
          "0": -1.2193790674209595,
          "1": -0.98040771484375,
          "2": 3.8079402446746826,
          "3": 0.18003606796264648,
          "4": -1.8072068691253662,
          "5": -4.419416427612305,
          "6": -3.6739091873168945,
          "7": -5.805146217346191,
          "8": -0.29663631319999695,
          "9": -7.512866497039795,
          "10": -4.411099433898926,
          "11": -4.730396270751953,
          "12": -7.035789489746094,
          "13": 0.6926007866859436,
          "14": -1.3782179355621338,
          "15": -2.5241050720214844,
          "16": 0.494669109582901,
          "17": -4.218603610992432,
          "18": -6.13673210144043,
          "19": -6.353082656860352,
          "20": -5.807747840881348,
          "21": -1.231781244277954,
          "22": -0.9796814918518066,
          "23": 3.138413429260254,
          "24": -4.286165714263916,
          "25": 7.987795829772949,
          "26": -2.8210246562957764,
          "27": -0.17180956900119781,
          "28": -1.4570977687835693,
          "29": -1.670699119567871,
          "30": -0.04017215594649315,
          "31": -4.431978702545166,
          "32": -2.672560691833496,
          "33": 1.4512239694595337,
          "34": -3.4272103309631348,
          "35": -0.7576335668563843,
          "36": -0.34922534227371216,
          "37": -5.625284194946289,
          "38": -4.581475257873535,
          "39": 12.741302490234375
        }
      },
      "forgetHidden": {
        "rows": 40,
        "columns": 40,
        "weights": {
          "0": 0.04878877103328705,
          "1": -0.03185934200882912,
          "2": 0.08947496861219406,
          "3": -0.09625250846147537,
          "4": -0.10232582688331604,
          "5": 0.03079633042216301,
          "6": -0.018334846943616867,
          "7": -0.0723036378622055,
          "8": -0.014787627384066582,
          "9": -0.020428702235221863,
          "10": -0.012892201542854309,
          "11": 0.07741682976484299,
          "12": -0.06449653953313828,
          "13": 0.004574857652187347,
          "14": -0.0001174884382635355,
          "15": -0.03287516161799431,
          "16": 0.06309443712234497,
          "17": -0.06693221628665924,
          "18": -0.07846023142337799,
          "19": 0.016993502154946327,
          "20": 0.0348384864628315,
          "21": 0.022259149700403214,
          "22": 0.0069966996088624,
          "23": 0.030446548014879227,
          "24": 0.005251438356935978,
          "25": -0.03023029863834381,
          "26": 0.10730841755867004,
          "27": 0.019832676276564598,
          "28": -0.019799483940005302,
          "29": -0.010113390162587166,
          "30": -0.027362383902072906,
          "31": -0.003985270857810974,
          "32": 0.0835077241063118,
          "33": 0.02616742253303528,
          "34": 0.03260442614555359,
          "35": -0.16969123482704163,
          "36": -0.05723876133561134,
          "37": -0.005517515353858471,
          "38": -0.0037833305541425943,
          "39": -0.013725879602134228,
          "40": 0.3468097448348999,
          "41": 15.238359451293945,
          "42": 0.9317005276679993,
          "43": -1.0846445560455322,
          "44": -0.6328529715538025,
          "45": 1.5309171676635742,
          "46": -0.4563099443912506,
          "47": -0.9758742451667786,
          "48": -2.9161417484283447,
          "49": 0.7882221937179565,
          "50": -0.5976848006248474,
          "51": -2.686086416244507,
          "52": 1.253116250038147,
          "53": 1.7039587497711182,
          "54": -0.4025334119796753,
          "55": -0.37676122784614563,
          "56": 0.6082233190536499,
          "57": 14.808667182922363,
          "58": 2.708552360534668,
          "59": 1.5316603183746338,
          "60": 1.1817320585250854,
          "61": -0.3582284152507782,
          "62": 0.5925399661064148,
          "63": -4.863398551940918,
          "64": 5.5755157470703125,
          "65": -8.106696128845215,
          "66": 1.1249077320098877,
          "67": 0.010805884376168251,
          "68": 0.23175039887428284,
          "69": 0.5860670804977417,
          "70": -0.4305170178413391,
          "71": 0.4477651119232178,
          "72": 0.8953871130943298,
          "73": -0.7323319315910339,
          "74": 0.9139540195465088,
          "75": -1.232236623764038,
          "76": -0.2490222454071045,
          "77": 0.5511631369590759,
          "78": -4.511698246002197,
          "79": 0.8589205145835876,
          "80": -0.33232831954956055,
          "81": 0.9415333867073059,
          "82": -3.00386118888855,
          "83": 0.8029834032058716,
          "84": 0.5238965153694153,
          "85": 0.3550010621547699,
          "86": 1.3371169567108154,
          "87": 0.8978570699691772,
          "88": -0.10347751528024673,
          "89": -0.45089176297187805,
          "90": 0.5981495380401611,
          "91": -0.19041985273361206,
          "92": 0.2837637662887573,
          "93": 1.4665824174880981,
          "94": 0.2965008616447449,
          "95": 0.30210673809051514,
          "96": -0.274976521730423,
          "97": -2.213033676147461,
          "98": 3.2174072265625,
          "99": 1.992232084274292,
          "100": -0.8920273184776306,
          "101": 0.14093106985092163,
          "102": -0.5075173377990723,
          "103": 0.3580726087093353,
          "104": -0.3079223930835724,
          "105": 0.41176408529281616,
          "106": -0.9536599516868591,
          "107": -0.11755692213773727,
          "108": -0.24262785911560059,
          "109": -0.32376629114151,
          "110": 0.1586913913488388,
          "111": -0.4821774363517761,
          "112": -0.7295657396316528,
          "113": -2.234818458557129,
          "114": -0.675910472869873,
          "115": 0.9778063297271729,
          "116": 0.20292675495147705,
          "117": -0.4676443934440613,
          "118": 0.6689143776893616,
          "119": 2.7276573181152344,
          "120": -0.1488794982433319,
          "121": 0.3130265176296234,
          "122": 3.761866569519043,
          "123": -3.6603715419769287,
          "124": 0.26165392994880676,
          "125": 0.1049271672964096,
          "126": -3.881821632385254,
          "127": 0.33992913365364075,
          "128": 1.12456214427948,
          "129": -0.19079861044883728,
          "130": 0.22220797836780548,
          "131": -0.10521648824214935,
          "132": -3.843498706817627,
          "133": -0.0720987543463707,
          "134": 0.04925146326422691,
          "135": 0.09542061388492584,
          "136": 3.9200758934020996,
          "137": 0.008682986721396446,
          "138": -3.5712692737579346,
          "139": -0.04349689558148384,
          "140": -0.45205172896385193,
          "141": -3.906683921813965,
          "142": 3.8244833946228027,
          "143": -3.9662575721740723,
          "144": 3.9823808670043945,
          "145": -3.8686466217041016,
          "146": -0.36304235458374023,
          "147": 1.0989137887954712,
          "148": 3.9656386375427246,
          "149": 3.7863593101501465,
          "150": -3.975970506668091,
          "151": -0.19354727864265442,
          "152": -0.3518272340297699,
          "153": 2.903029203414917,
          "154": -0.3355512320995331,
          "155": -3.6448745727539062,
          "156": -2.6357994079589844,
          "157": -0.14160160720348358,
          "158": -3.8595685958862305,
          "159": -3.8781561851501465,
          "160": 0.08692310005426407,
          "161": -0.16368497908115387,
          "162": 0.17935915291309357,
          "163": -0.18904170393943787,
          "164": -0.09381037205457687,
          "165": -0.0629429817199707,
          "166": -0.07311177998781204,
          "167": -0.0912151038646698,
          "168": 0.00689091719686985,
          "169": 0.05587324872612953,
          "170": -0.048015136271715164,
          "171": 0.035794418305158615,
          "172": -0.024040384218096733,
          "173": 0.0769483670592308,
          "174": -0.10753926634788513,
          "175": -0.03977654501795769,
          "176": 0.09153740108013153,
          "177": -0.03339669108390808,
          "178": -0.26305124163627625,
          "179": 0.06176861748099327,
          "180": 0.12566587328910828,
          "181": -0.022434456273913383,
          "182": 0.046164169907569885,
          "183": -0.015761271119117737,
          "184": 0.12224408984184265,
          "185": -0.07702363282442093,
          "186": 0.1771559715270996,
          "187": -0.0016581675736233592,
          "188": 0.04945637285709381,
          "189": 0.059350721538066864,
          "190": -0.005917279049754143,
          "191": 0.007468586787581444,
          "192": 0.18841609358787537,
          "193": -0.07104510068893433,
          "194": 0.0979228988289833,
          "195": -0.22426973283290863,
          "196": 0.009856488555669785,
          "197": 0.15295833349227905,
          "198": -0.10900835692882538,
          "199": -0.18103289604187012,
          "200": 0.016352148726582527,
          "201": -3.2267487049102783,
          "202": 0.06815989315509796,
          "203": -0.06389528512954712,
          "204": 0.011028068140149117,
          "205": 3.032191038131714,
          "206": 0.009431726299226284,
          "207": -0.11262138187885284,
          "208": 2.033151388168335,
          "209": 0.05026283487677574,
          "210": 0.007348387967795134,
          "211": 0.06388570368289948,
          "212": 1.235050082206726,
          "213": -2.9938840866088867,
          "214": -0.08100306242704391,
          "215": 0.010873128660023212,
          "216": 0.021604297682642937,
          "217": 0.07786759734153748,
          "218": -3.169574022293091,
          "219": 0.003124910406768322,
          "220": 0.1670496016740799,
          "221": -0.04747430980205536,
          "222": 0.009547246620059013,
          "223": -0.09054654836654663,
          "224": 0.06343065947294235,
          "225": -0.011913255788385868,
          "226": 0.14619511365890503,
          "227": 0.06278055906295776,
          "228": 0.04460972920060158,
          "229": 0.1335255205631256,
          "230": -0.006140916142612696,
          "231": 0.07769220322370529,
          "232": 0.10849044471979141,
          "233": 2.984844207763672,
          "234": 0.11635478585958481,
          "235": -0.154776930809021,
          "236": 0.00481796357780695,
          "237": 0.006635014899075031,
          "238": -2.2264792919158936,
          "239": -3.0665123462677,
          "240": -0.11481036245822906,
          "241": 0.37915360927581787,
          "242": 3.5373380184173584,
          "243": -3.4151172637939453,
          "244": 0.18841521441936493,
          "245": 0.21054813265800476,
          "246": -6.2418975830078125,
          "247": 0.3264188766479492,
          "248": 2.2815120220184326,
          "249": -0.22007493674755096,
          "250": 0.15832103788852692,
          "251": -0.1121058389544487,
          "252": -1.4458613395690918,
          "253": -1.1091879606246948,
          "254": 0.1197165995836258,
          "255": 0.0822012647986412,
          "256": 3.706939697265625,
          "257": -0.19501829147338867,
          "258": -3.3764305114746094,
          "259": -0.017997464165091515,
          "260": -0.3452340364456177,
          "261": -3.634443521499634,
          "262": 3.575921058654785,
          "263": -3.554572105407715,
          "264": 3.6015470027923584,
          "265": -3.5929274559020996,
          "266": -0.34559381008148193,
          "267": 0.8432314991950989,
          "268": 3.7574143409729004,
          "269": 3.611488103866577,
          "270": -3.684598207473755,
          "271": -0.22719769179821014,
          "272": -0.3226501941680908,
          "273": 4.684549808502197,
          "274": -0.34601372480392456,
          "275": -3.3728561401367188,
          "276": -1.1030112504959106,
          "277": -0.1599830836057663,
          "278": -3.635281562805176,
          "279": -5.899476051330566,
          "280": 0.24713794887065887,
          "281": -0.7373038530349731,
          "282": 0.7092167139053345,
          "283": -0.8350253701210022,
          "284": -0.4738050103187561,
          "285": -0.33788537979125977,
          "286": -0.29143476486206055,
          "287": 2.033574104309082,
          "288": -0.0034043951891362667,
          "289": 0.27003732323646545,
          "290": -0.42885294556617737,
          "291": 0.21410530805587769,
          "292": -0.2852521538734436,
          "293": -2.634370803833008,
          "294": -0.3037872016429901,
          "295": -0.33118683099746704,
          "296": 0.4501551389694214,
          "297": 1.938798427581787,
          "298": -3.5697059631347656,
          "299": 0.21717458963394165,
          "300": 0.7371047735214233,
          "301": -0.24573376774787903,
          "302": 0.4953311085700989,
          "303": -0.2803659439086914,
          "304": 0.2573218047618866,
          "305": -0.3338211178779602,
          "306": 0.768316924571991,
          "307": 0.028718069195747375,
          "308": 0.2649106979370117,
          "309": 0.4608660638332367,
          "310": -0.2174074947834015,
          "311": 0.28109732270240784,
          "312": 0.6332967281341553,
          "313": 2.794004440307617,
          "314": 0.39339137077331543,
          "315": -0.909507691860199,
          "316": -0.20032982528209686,
          "317": -1.618579626083374,
          "318": -0.5846568942070007,
          "319": -3.3958685398101807,
          "320": -0.46833860874176025,
          "321": -9.971577644348145,
          "322": 1.8692216873168945,
          "323": -1.9712491035461426,
          "324": 0.48349127173423767,
          "325": 0.6504353880882263,
          "326": 0.429413765668869,
          "327": 1.0750144720077515,
          "328": 9.798925399780273,
          "329": -9.353887557983398,
          "330": 1.5504201650619507,
          "331": -5.812053680419922,
          "332": 25.078697204589844,
          "333": -0.09012143313884735,
          "334": 0.07066060602664948,
          "335": 0.5282970070838928,
          "336": 2.3087668418884277,
          "337": 84.55501556396484,
          "338": -93.43640899658203,
          "339": -9.98327922821045,
          "340": -0.6066363453865051,
          "341": -2.1614410877227783,
          "342": 2.029107093811035,
          "343": 0.6276023387908936,
          "344": -2.51533579826355,
          "345": -0.49095678329467773,
          "346": -0.5048102140426636,
          "347": 2.044931650161743,
          "348": 2.4633753299713135,
          "349": 13.83193588256836,
          "350": -2.169389247894287,
          "351": 0.01832427643239498,
          "352": -0.5688015818595886,
          "353": 9.53657341003418,
          "354": -0.5978334546089172,
          "355": -1.9372097253799438,
          "356": -1.9102205038070679,
          "357": -1.9587050676345825,
          "358": -13.408045768737793,
          "359": -14.884937286376953,
          "360": 0.06632068753242493,
          "361": -0.4308595657348633,
          "362": 0.32925596833229065,
          "363": -0.3463633060455322,
          "364": -0.15423431992530823,
          "365": -0.11362263560295105,
          "366": -0.25268256664276123,
          "367": -0.3461916446685791,
          "368": 0.07641157507896423,
          "369": -2.8408472537994385,
          "370": -0.24913877248764038,
          "371": -2.138542413711548,
          "372": -2.7123098373413086,
          "373": -3.0228793621063232,
          "374": -0.07541492581367493,
          "375": -0.21028614044189453,
          "376": 0.20449918508529663,
          "377": -0.08512561768293381,
          "378": -2.8461146354675293,
          "379": -1.108207106590271,
          "380": 0.3773212134838104,
          "381": -0.08543694019317627,
          "382": 0.17013143002986908,
          "383": -1.8053176403045654,
          "384": 0.8232897520065308,
          "385": -1.062590479850769,
          "386": 0.42651963233947754,
          "387": 0.005284497980028391,
          "388": 0.09745073318481445,
          "389": 1.2360237836837769,
          "390": -0.14380379021167755,
          "391": 0.12071721255779266,
          "392": 0.27951446175575256,
          "393": 3.552785634994507,
          "394": 0.2889076769351959,
          "395": -0.36081790924072266,
          "396": 0.005489449482411146,
          "397": 0.20810061693191528,
          "398": -0.7663286924362183,
          "399": -3.9368271827697754,
          "400": 0.05421444773674011,
          "401": -3.199009418487549,
          "402": 0.05519886314868927,
          "403": -0.07976100593805313,
          "404": -0.09223921597003937,
          "405": -0.08741999417543411,
          "406": -0.0005962099530734122,
          "407": -0.05191006138920784,
          "408": 0.00707167899236083,
          "409": 0.10613466054201126,
          "410": 2.975524663925171,
          "411": -0.04381168261170387,
          "412": 2.9421892166137695,
          "413": -3.0208206176757812,
          "414": -0.0170583613216877,
          "415": -0.07302608340978622,
          "416": 0.09743328392505646,
          "417": 0.00456026429310441,
          "418": -3.2224502563476562,
          "419": 0.054263368248939514,
          "420": 0.06815512478351593,
          "421": -0.0903330147266388,
          "422": 0.04261890426278114,
          "423": -0.04680502414703369,
          "424": 0.07600259780883789,
          "425": -0.0028994190506637096,
          "426": 0.08294831961393356,
          "427": 0.07736817002296448,
          "428": 0.05398068577051163,
          "429": 0.08891959488391876,
          "430": -0.08688380569219589,
          "431": 0.12512624263763428,
          "432": 0.13454954326152802,
          "433": 3.062053680419922,
          "434": 0.09177952259778976,
          "435": -0.08266905695199966,
          "436": 0.019389260560274124,
          "437": 0.0821567252278328,
          "438": -0.037709835916757584,
          "439": -3.0823304653167725,
          "440": 0.03249188885092735,
          "441": -0.1142769604921341,
          "442": 0.15445585548877716,
          "443": -0.14309728145599365,
          "444": -0.012812775559723377,
          "445": -0.12784352898597717,
          "446": -0.07037316262722015,
          "447": -0.10863615572452545,
          "448": 0.027450580149888992,
          "449": -3.0883290767669678,
          "450": -0.14208026230335236,
          "451": -3.0726735591888428,
          "452": -3.1915547847747803,
          "453": 3.173921823501587,
          "454": 0.00437749270349741,
          "455": -0.002802169881761074,
          "456": 0.02372017130255699,
          "457": -0.21268652379512787,
          "458": -0.01239694096148014,
          "459": -2.984373092651367,
          "460": 0.1149902418255806,
          "461": 0.0019683383870869875,
          "462": 0.09168896079063416,
          "463": -3.1665422916412354,
          "464": 3.140754222869873,
          "465": -3.122528314590454,
          "466": 0.1252714991569519,
          "467": -0.05887685716152191,
          "468": -0.016189314424991608,
          "469": 0.06276632100343704,
          "470": 0.020996784791350365,
          "471": -0.00471985898911953,
          "472": 0.17994654178619385,
          "473": 3.1095941066741943,
          "474": 0.16402657330036163,
          "475": -0.20077741146087646,
          "476": 0.0025902630295604467,
          "477": 0.02729586325585842,
          "478": -3.2006113529205322,
          "479": -3.1818134784698486,
          "480": -0.1578681319952011,
          "481": -2.746379852294922,
          "482": 3.148348331451416,
          "483": -3.0031630992889404,
          "484": 0.24066899716854095,
          "485": 0.24294763803482056,
          "486": -3.404181957244873,
          "487": 0.4192013740539551,
          "488": 3.5447628498077393,
          "489": -0.2099895030260086,
          "490": 0.2344042956829071,
          "491": -0.07074454426765442,
          "492": 2.057378053665161,
          "493": -1.9662718772888184,
          "494": 0.17537710070610046,
          "495": 0.12516742944717407,
          "496": 3.26252818107605,
          "497": 3.0298190116882324,
          "498": -1.2816622257232666,
          "499": -0.15497305989265442,
          "500": -0.5052924752235413,
          "501": -3.380561590194702,
          "502": 3.2816457748413086,
          "503": -0.46313512325286865,
          "504": 0.45064646005630493,
          "505": -0.5093601942062378,
          "506": -0.4827333092689514,
          "507": 0.5117553472518921,
          "508": 2.9061973094940186,
          "509": 3.2925238609313965,
          "510": -3.3152318000793457,
          "511": -0.17722801864147186,
          "512": -0.3492598533630371,
          "513": 8.684916496276855,
          "514": -0.3491235077381134,
          "515": -3.0323877334594727,
          "516": -0.5735775232315063,
          "517": -0.18414130806922913,
          "518": -3.232733726501465,
          "519": -9.114892959594727,
          "520": 0.1964966505765915,
          "521": 44.09334945678711,
          "522": 3.023649215698242,
          "523": -0.04443623125553131,
          "524": -0.13654375076293945,
          "525": 0.022742468863725662,
          "526": -2.7326462268829346,
          "527": -0.8330063223838806,
          "528": -8.228171348571777,
          "529": -8.442490577697754,
          "530": -0.25547903776168823,
          "531": 14.066779136657715,
          "532": -23.14411163330078,
          "533": 7.969183921813965,
          "534": 0.10004537552595139,
          "535": -0.001989108743146062,
          "536": 0.03322944417595863,
          "537": 22.41985321044922,
          "538": -16.798797607421875,
          "539": -19.955175399780273,
          "540": -0.9300332069396973,
          "541": -0.03073289431631565,
          "542": -0.006759668234735727,
          "543": 10.778824806213379,
          "544": -9.343395233154297,
          "545": -8.600503921508789,
          "546": 0.12504585087299347,
          "547": -0.06103862076997757,
          "548": 0.07288932800292969,
          "549": 11.397102355957031,
          "550": 0.01875087060034275,
          "551": 0.06499865651130676,
          "552": 0.07230474799871445,
          "553": 10.604254722595215,
          "554": 0.07109645754098892,
          "555": -0.030544282868504524,
          "556": 0.05541061609983444,
          "557": 0.08203179389238358,
          "558": 4.0723042488098145,
          "559": -11.194375038146973,
          "560": 0.04752270132303238,
          "561": -0.10655144602060318,
          "562": 0.05698034167289734,
          "563": -0.06128954514861107,
          "564": -0.11154675483703613,
          "565": 0.016632355749607086,
          "566": -0.10783867537975311,
          "567": -0.06869087368249893,
          "568": -0.04471232742071152,
          "569": 0.09030219912528992,
          "570": -0.0020272028632462025,
          "571": -0.019023725762963295,
          "572": -0.061964504420757294,
          "573": -0.008644793182611465,
          "574": -0.03383293375372887,
          "575": -0.08197499066591263,
          "576": 0.053320690989494324,
          "577": 0.05108785629272461,
          "578": -0.12731534242630005,
          "579": -0.049488235265016556,
          "580": 0.19462259113788605,
          "581": -0.060218870639801025,
          "582": 0.05443809926509857,
          "583": -0.01124271284788847,
          "584": 0.009538787417113781,
          "585": -0.07518067210912704,
          "586": 0.11370232701301575,
          "587": -0.007280848920345306,
          "588": -0.009829857386648655,
          "589": 0.013582482933998108,
          "590": -0.027460098266601562,
          "591": -0.001723656663671136,
          "592": 0.09517578035593033,
          "593": -0.05436698719859123,
          "594": 0.16004304587841034,
          "595": -0.20135484635829926,
          "596": 0.0382564403116703,
          "597": 0.09968472272157669,
          "598": -0.0375782772898674,
          "599": -0.04891546815633774,
          "600": 0.05334200710058212,
          "601": -0.4249773621559143,
          "602": 0.3515622317790985,
          "603": -0.45764634013175964,
          "604": -0.23674224317073822,
          "605": -0.08338803797960281,
          "606": -0.09688286483287811,
          "607": -0.3924972712993622,
          "608": 0.06542505323886871,
          "609": 0.16385437548160553,
          "610": -0.1779724806547165,
          "611": 0.06848794221878052,
          "612": -0.10770168900489807,
          "613": 0.0940103530883789,
          "614": -0.04952839016914368,
          "615": -0.08383733779191971,
          "616": 0.2371448576450348,
          "617": -0.10221841186285019,
          "618": -0.42839375138282776,
          "619": 0.12623634934425354,
          "620": 0.4463968873023987,
          "621": -0.08790166676044464,
          "622": 0.22274503111839294,
          "623": -0.13243086636066437,
          "624": 0.17303873598575592,
          "625": -0.18688932061195374,
          "626": 0.40426915884017944,
          "627": 0.06001809239387512,
          "628": 0.09559156745672226,
          "629": 0.22594895958900452,
          "630": -0.17834728956222534,
          "631": 0.12130478024482727,
          "632": 0.30136293172836304,
          "633": -0.10336702316999435,
          "634": 0.32723429799079895,
          "635": -0.48919421434402466,
          "636": -0.10987305641174316,
          "637": 0.22547884285449982,
          "638": -0.3061389625072479,
          "639": -0.30051136016845703,
          "640": -0.05305267125368118,
          "641": 0.34149056673049927,
          "642": 3.917541980743408,
          "643": -3.8185720443725586,
          "644": 0.21669185161590576,
          "645": 0.10091450810432434,
          "646": -4.082932949066162,
          "647": 0.3318341076374054,
          "648": 1.2257004976272583,
          "649": -0.19234661757946014,
          "650": 0.1886088103055954,
          "651": -0.04363914579153061,
          "652": -4.100389003753662,
          "653": -0.022128762677311897,
          "654": 0.06883078813552856,
          "655": 0.09968292713165283,
          "656": 4.044834613800049,
          "657": -0.010505689308047295,
          "658": -3.777115821838379,
          "659": -0.14091144502162933,
          "660": -0.333798885345459,
          "661": -4.106626510620117,
          "662": 4.002423286437988,
          "663": -4.071828842163086,
          "664": 3.991091012954712,
          "665": -3.939567804336548,
          "666": -0.308650940656662,
          "667": 1.2281440496444702,
          "668": 4.094992160797119,
          "669": 3.9281435012817383,
          "670": -4.088937282562256,
          "671": -0.21848346292972565,
          "672": -0.31990674138069153,
          "673": 2.9047720432281494,
          "674": -0.2943083643913269,
          "675": -3.806413173675537,
          "676": -1.508412480354309,
          "677": -0.14797544479370117,
          "678": -3.9138684272766113,
          "679": -3.9740755558013916,
          "680": -0.05455595254898071,
          "681": -0.12225005775690079,
          "682": 2.930413007736206,
          "683": 0.034466762095689774,
          "684": -0.06141901761293411,
          "685": 0.014120856299996376,
          "686": -2.9618470668792725,
          "687": -0.12183628976345062,
          "688": 0.38915446400642395,
          "689": -0.2462480068206787,
          "690": 0.034137703478336334,
          "691": -0.23546196520328522,
          "692": 0.600570559501648,
          "693": -3.036705493927002,
          "694": 0.04675638675689697,
          "695": 0.006812299136072397,
          "696": -0.8612330555915833,
          "697": 3.1348423957824707,
          "698": -3.0417113304138184,
          "699": -3.0229310989379883,
          "700": 0.08172887563705444,
          "701": 0.6401920318603516,
          "702": 0.07525172829627991,
          "703": -0.10926689952611923,
          "704": 0.017533106729388237,
          "705": -0.3475790023803711,
          "706": 0.13021749258041382,
          "707": 0.03467626869678497,
          "708": 0.00012394606892485172,
          "709": -0.6103832125663757,
          "710": 0.178574800491333,
          "711": -0.045561034232378006,
          "712": 0.10011235624551773,
          "713": 3.4295406341552734,
          "714": 0.01727519929409027,
          "715": -0.029204411432147026,
          "716": 0.062346406280994415,
          "717": 0.05103716254234314,
          "718": -0.3128320276737213,
          "719": -3.485696792602539,
          "720": -0.21123875677585602,
          "721": 3.133896589279175,
          "722": -3.2235031127929688,
          "723": 0.7957584261894226,
          "724": 0.5066319704055786,
          "725": 0.27540791034698486,
          "726": 1.6636474132537842,
          "727": 0.8621962070465088,
          "728": 4.634198188781738,
          "729": -0.4402172565460205,
          "730": 0.5275018811225891,
          "731": -0.22786776721477509,
          "732": 7.378345489501953,
          "733": -3.1740705966949463,
          "734": 0.21690738201141357,
          "735": 0.3215252757072449,
          "736": -0.36910417675971985,
          "737": 0.8896335959434509,
          "738": -3.0192792415618896,
          "739": -0.06830272823572159,
          "740": -0.9334239959716797,
          "741": 0.11818170547485352,
          "742": -0.44179782271385193,
          "743": -1.9711166620254517,
          "744": -0.33513662219047546,
          "745": 0.2981139123439789,
          "746": -0.8573488593101501,
          "747": -0.044978994876146317,
          "748": -0.23223543167114258,
          "749": -0.39717262983322144,
          "750": 0.26485228538513184,
          "751": -0.47200125455856323,
          "752": -0.8034179210662842,
          "753": 7.844172954559326,
          "754": -0.7008199691772461,
          "755": 0.8202109336853027,
          "756": 0.10637419670820236,
          "757": -0.4122486114501953,
          "758": 0.5619316697120667,
          "759": -7.242222785949707,
          "760": 0.0779663696885109,
          "761": -0.19819176197052002,
          "762": 3.0267341136932373,
          "763": -0.14828382432460785,
          "764": -0.09798870980739594,
          "765": -0.021072985604405403,
          "766": -2.9709603786468506,
          "767": -0.13819698989391327,
          "768": 0.0779074877500534,
          "769": -1.3686798810958862,
          "770": -0.14410126209259033,
          "771": 0.014878806658089161,
          "772": -0.6934984922409058,
          "773": -1.4483180046081543,
          "774": 0.07391540706157684,
          "775": -0.008137824013829231,
          "776": 0.07352196425199509,
          "777": 2.963663101196289,
          "778": -3.037505865097046,
          "779": -3.9460110664367676,
          "780": 0.21100929379463196,
          "781": -0.11977260559797287,
          "782": 0.0756450816988945,
          "783": -0.24175968766212463,
          "784": -0.14937667548656464,
          "785": -1.3397583961486816,
          "786": 0.19690564274787903,
          "787": 0.0615813322365284,
          "788": 0.0281552504748106,
          "789": 0.14362943172454834,
          "790": -0.06652731448411942,
          "791": -0.006449216045439243,
          "792": 0.13561002910137177,
          "793": 4.146726131439209,
          "794": 0.08547834306955338,
          "795": -0.26998370885849,
          "796": 0.004195690155029297,
          "797": 0.08775149285793304,
          "798": -1.5838803052902222,
          "799": -4.23197603225708,
          "800": 0.3138355612754822,
          "801": -1.1384565830230713,
          "802": 0.9398795962333679,
          "803": -1.1545501947402954,
          "804": -0.6601040363311768,
          "805": -0.3758699595928192,
          "806": -0.458327054977417,
          "807": -0.9226146936416626,
          "808": 2.8694636821746826,
          "809": 0.5581024885177612,
          "810": -0.682464063167572,
          "811": 0.2440667599439621,
          "812": -0.43196430802345276,
          "813": -2.607927083969116,
          "814": -0.3621509075164795,
          "815": -0.41015753149986267,
          "816": 0.595909833908081,
          "817": 2.974414587020874,
          "818": -4.030413627624512,
          "819": 0.16397345066070557,
          "820": -1.811080813407898,
          "821": -0.437953382730484,
          "822": 0.6441559195518494,
          "823": -0.4541023075580597,
          "824": 0.3007327616214752,
          "825": -0.47752922773361206,
          "826": 1.0582510232925415,
          "827": 0.03465086221694946,
          "828": 0.21414116024971008,
          "829": 0.5931729078292847,
          "830": -0.47786206007003784,
          "831": 0.45805639028549194,
          "832": 0.897718071937561,
          "833": 2.908623456954956,
          "834": 0.9251275062561035,
          "835": -1.1818135976791382,
          "836": -0.2540004253387451,
          "837": 0.5619485974311829,
          "838": -0.7044996619224548,
          "839": -3.6651546955108643,
          "840": -0.049002502113580704,
          "841": 0.4254296123981476,
          "842": 3.5939419269561768,
          "843": -3.491905450820923,
          "844": 0.2599909007549286,
          "845": 0.16012272238731384,
          "846": -3.789905548095703,
          "847": 0.28302526473999023,
          "848": 1.0030124187469482,
          "849": -0.17178121209144592,
          "850": 0.227726012468338,
          "851": -0.15496879816055298,
          "852": -3.7028510570526123,
          "853": -0.04786291345953941,
          "854": 0.12641541659832,
          "855": 0.08898893743753433,
          "856": 3.6988072395324707,
          "857": -0.007633197121322155,
          "858": -3.488007068634033,
          "859": -0.02443833090364933,
          "860": -0.4437672793865204,
          "861": -3.761683464050293,
          "862": 3.657332420349121,
          "863": -3.7002787590026855,
          "864": 3.8233861923217773,
          "865": -3.7515649795532227,
          "866": -0.44022056460380554,
          "867": 0.9091450572013855,
          "868": 3.855032444000244,
          "869": 3.728024959564209,
          "870": -3.7918219566345215,
          "871": -0.21726903319358826,
          "872": -0.3701297640800476,
          "873": 3.005671977996826,
          "874": -0.3753858804702759,
          "875": -3.4694085121154785,
          "876": -1.7232435941696167,
          "877": -0.15005801618099213,
          "878": -3.6252832412719727,
          "879": -3.610776662826538,
          "880": -0.04465145617723465,
          "881": 0.19222299754619598,
          "882": 2.6854984760284424,
          "883": -2.7617080211639404,
          "884": 0.03846491128206253,
          "885": 0.14649884402751923,
          "886": -2.7685742378234863,
          "887": 0.16212667524814606,
          "888": 2.9468612670898438,
          "889": -0.08328699320554733,
          "890": 0.12605862319469452,
          "891": -0.03630281984806061,
          "892": -2.844160795211792,
          "893": -0.07032395899295807,
          "894": 0.009288818575441837,
          "895": 0.09555193036794662,
          "896": 2.8576464653015137,
          "897": 0.0244583897292614,
          "898": -2.678419828414917,
