{
  "type": "LSTMTimeStep",
  "options": {
    "inputSize": 1,
    "hiddenSizes": [
      20
    ],
    "outputSize": 1,
    "learningRate": 0.01,
    "decayRate": 0.999,
    "smoothEps": 1e-8,
    "regc": 0.000001,
    "clipval": 5,
    "json": null,
    "dataFormatter": null
  },
  "input": {
    "rows": 1,
    "columns": 1,
    "weights": {
      "0": 0.07250617444515228
    }
  },
  "hiddenLayers": [
    {
      "weight": {
        "rows": 20,
        "columns": 1,
        "weights": {
          "0": 0.043604589998722076,
          "1": -0.006158245261758566,
          "2": -0.006901511922478676,
          "3": -0.014200473204255104,
          "4": 0.02458249032497406,
          "5": 0.0726558044552803,
          "6": -0.031294990330934525,
          "7": 0.02712455578148365,
          "8": 0.0067969118244946,
          "9": 0.04019288718700409,
          "10": -0.02670695260167122,
          "11": 0.00892648659646511,
          "12": 0.07483211904764175,
          "13": -0.020535390824079514,
          "14": 0.05994714796543121,
          "15": 0.0004829860699828714,
          "16": 0.07862131297588348,
          "17": 0.022125033661723137,
          "18": -0.029354766011238098,
          "19": 0.047291580587625504
        }
      },
      "transition": {
        "rows": 20,
        "columns": 20,
        "weights": {
          "0": -0.03896172717213631,
          "1": 0.00011136339890072122,
          "2": 0.05060068517923355,
          "3": -0.012341332621872425,
          "4": 0.07393793761730194,
          "5": -0.04158915579319,
          "6": -0.04678596183657646,
          "7": 0.03345772624015808,
          "8": 0.03665667027235031,
          "9": 0.037422481924295425,
          "10": -0.03563671559095383,
          "11": 0.002852729754522443,
          "12": 0.05870324745774269,
          "13": -0.018743127584457397,
          "14": 0.0021302022505551577,
          "15": -0.015869803726673126,
          "16": 0.03856240585446358,
          "17": 0.03466648980975151,
          "18": -0.033698670566082,
          "19": 0.057631731033325195,
          "20": -0.05796186625957489,
          "21": 0.07331343740224838,
          "22": 0.05557623133063316,
          "23": 0.0793139636516571,
          "24": 0.012072499841451645,
          "25": -0.0021380428224802017,
          "26": 0.059730712324380875,
          "27": -0.03215395286679268,
          "28": -0.02889914996922016,
          "29": 0.014942606911063194,
          "30": -0.06490694731473923,
          "31": -0.0314268060028553,
          "32": 0.06516102701425552,
          "33": -0.017845721915364265,
          "34": -0.0377623587846756,
          "35": -0.03739099204540253,
          "36": 0.05106424167752266,
          "37": 0.03305145725607872,
          "38": 0.07334247976541519,
          "39": 0.07447756081819534,
          "40": -0.02791729010641575,
          "41": -0.05701754242181778,
          "42": 0.048540446907281876,
          "43": 0.0014455631608143449,
          "44": 0.06812985986471176,
          "45": -0.05138048529624939,
          "46": 0.07598888128995895,
          "47": -0.030752914026379585,
          "48": 0.046518053859472275,
          "49": -0.04009869694709778,
          "50": -0.00788077712059021,
          "51": 0.07050277292728424,
          "52": -0.028767313808202744,
          "53": 0.04734906554222107,
          "54": 0.030351707711815834,
          "55": 0.07408403605222702,
          "56": 0.035315774381160736,
          "57": -0.05298630893230438,
          "58": 0.05393175035715103,
          "59": -0.009604952298104763,
          "60": -0.030204517766833305,
          "61": 0.072776198387146,
          "62": 0.06856479495763779,
          "63": 0.034897126257419586,
          "64": -0.044182710349559784,
          "65": -0.019538184627890587,
          "66": 0.03756040707230568,
          "67": -0.03703474625945091,
          "68": 0.05743062123656273,
          "69": -0.07189346849918365,
          "70": 0.019303668290376663,
          "71": -0.0022173866163939238,
          "72": -0.016674768179655075,
          "73": -0.03474099561572075,
          "74": -0.02825804613530636,
          "75": 0.007004826329648495,
          "76": -0.017384391278028488,
          "77": 0.05340534448623657,
          "78": -0.0015437323600053787,
          "79": 0.071627676486969,
          "80": 0.0016512942966073751,
          "81": 0.015492218546569347,
          "82": 0.03572613000869751,
          "83": -0.04318595677614212,
          "84": 0.06419160217046738,
          "85": -0.013629406690597534,
          "86": 0.02778787910938263,
          "87": -0.06102702394127846,
          "88": 0.059669338166713715,
          "89": -0.034543946385383606,
          "90": 0.038310300558805466,
          "91": -0.058851368725299835,
          "92": 0.07672566175460815,
          "93": -0.037045612931251526,
          "94": 0.06526119261980057,
          "95": -0.05253710225224495,
          "96": 0.010628947988152504,
          "97": -0.008476433344185352,
          "98": -0.06315362453460693,
          "99": 0.04095527529716492,
          "100": 0.0409691259264946,
          "101": -0.07464450597763062,
          "102": 0.023561323061585426,
          "103": 0.03281499445438385,
          "104": -0.07478677481412888,
          "105": 0.03166903555393219,
          "106": -0.0685761421918869,
          "107": -0.00991114228963852,
          "108": -0.0379430428147316,
          "109": 0.0696587935090065,
          "110": 0.022701282054185867,
          "111": -0.0653039813041687,
          "112": -0.02347976341843605,
          "113": 0.033146221190690994,
          "114": -0.04792711138725281,
          "115": 0.05944253131747246,
          "116": -0.029952701181173325,
          "117": 0.023396175354719162,
          "118": 0.01935397833585739,
          "119": 0.054660625755786896,
          "120": -0.06447027623653412,
          "121": 0.03809749335050583,
          "122": 0.001406150171533227,
          "123": 0.01829087920486927,
          "124": -0.01586134172976017,
          "125": -0.025345703586935997,
          "126": -0.003611920867115259,
          "127": 0.005201769061386585,
          "128": 0.021185141056776047,
          "129": -0.013654989190399647,
          "130": 0.06727495044469833,
          "131": -0.040817901492118835,
          "132": 0.03242507204413414,
          "133": 0.009368914179503918,
          "134": -0.01372458878904581,
          "135": 0.011692330241203308,
          "136": -0.005193465854972601,
          "137": 0.018084371462464333,
          "138": -0.039536990225315094,
          "139": 0.040752243250608444,
          "140": -0.06619696319103241,
          "141": 0.0511246919631958,
          "142": -0.06265438348054886,
          "143": -0.052804239094257355,
          "144": -0.021004192531108856,
          "145": -0.020938554778695107,
          "146": -0.07772522419691086,
          "147": -0.07131625711917877,
          "148": -0.04941647872328758,
          "149": -0.05307546257972717,
          "150": -0.0293281190097332,
          "151": 0.06249893829226494,
          "152": -0.05955570936203003,
          "153": 0.03305507078766823,
          "154": -0.06862382590770721,
          "155": 0.026431558653712273,
          "156": 0.008884351700544357,
          "157": 0.0069024632684886456,
          "158": -0.0172653216868639,
          "159": 0.025973383337259293,
          "160": 0.044964611530303955,
          "161": 0.04522150009870529,
          "162": 0.008934341371059418,
          "163": 0.06766634434461594,
          "164": -0.012708671391010284,
          "165": -0.025250649079680443,
          "166": -0.00763530982658267,
          "167": 0.0020132146310061216,
          "168": 0.00662277452647686,
          "169": -0.07501254975795746,
          "170": -0.07026610523462296,
          "171": 0.04068838432431221,
          "172": -0.07690036296844482,
          "173": 0.0019478094764053822,
          "174": -0.02102426066994667,
          "175": 0.015574678778648376,
          "176": -0.007708874065428972,
          "177": -0.04529532417654991,
          "178": 0.03190702944993973,
          "179": 0.02861434780061245,
          "180": -0.04537036642432213,
          "181": 0.05444374307990074,
          "182": 0.06530949473381042,
          "183": 0.04486184939742088,
          "184": 0.04366084560751915,
          "185": -0.05663536489009857,
          "186": -0.026365362107753754,
          "187": -0.005902572069317102,
          "188": 0.0727863684296608,
          "189": -0.05461534112691879,
          "190": -0.07752811163663864,
          "191": 0.0249517522752285,
          "192": -0.04506884515285492,
          "193": 0.055042970925569534,
          "194": -0.004999229684472084,
          "195": -0.014202825725078583,
          "196": -0.012838205322623253,
          "197": 0.05006781220436096,
          "198": -0.020723989233374596,
          "199": -0.04604601860046387,
          "200": 0.0010281808208674192,
          "201": -0.00004582267865771428,
          "202": -0.03974323347210884,
          "203": -0.07449805736541748,
          "204": -0.02257070131599903,
          "205": 0.025277532637119293,
          "206": 0.043621569871902466,
          "207": -0.023901337757706642,
          "208": 0.062359824776649475,
          "209": -0.039044614881277084,
          "210": -0.03570057451725006,
          "211": 0.06029113009572029,
          "212": 0.07160628587007523,
          "213": 0.060582298785448074,
          "214": 0.000342533050570637,
          "215": -0.042306143790483475,
          "216": 0.05178728699684143,
          "217": -0.07523564994335175,
          "218": 0.07266958802938461,
          "219": -0.07212045788764954,
          "220": -0.039972737431526184,
          "221": -0.05709533765912056,
          "222": 0.05126575380563736,
          "223": 0.0022029844112694263,
          "224": -0.07951036095619202,
          "225": -0.07052449136972427,
          "226": -0.011547453701496124,
          "227": -0.06831835955381393,
          "228": 0.01839040033519268,
          "229": -0.07677491009235382,
          "230": -0.025386320427060127,
          "231": 0.021147068589925766,
          "232": -0.06036309897899628,
          "233": -0.04119718447327614,
          "234": -0.018256692215800285,
          "235": 0.07648791372776031,
          "236": -0.07877849787473679,
          "237": -0.04332581162452698,
          "238": 0.025856180116534233,
          "239": 0.022945284843444824,
          "240": -0.038774311542510986,
          "241": -0.06782092154026031,
          "242": 0.06997691094875336,
          "243": -0.04712522029876709,
          "244": 0.04513774812221527,
          "245": -0.018421217799186707,
          "246": -0.04000918194651604,
          "247": 0.0036319198552519083,
          "248": -0.022470325231552124,
          "249": -0.017178097739815712,
          "250": -0.07326088100671768,
          "251": -0.04575541988015175,
          "252": 0.06410794705152512,
          "253": 0.04211080074310303,
          "254": 0.05599695444107056,
          "255": 0.05378152057528496,
          "256": 0.04861316829919815,
          "257": 0.06704074889421463,
          "258": -0.029315846040844917,
          "259": 0.05060067027807236,
          "260": -0.0698670893907547,
          "261": -0.02712162956595421,
          "262": -0.07946431636810303,
          "263": 0.06220622360706329,
          "264": 0.07938237488269806,
          "265": 0.07410474866628647,
          "266": -0.07634656876325607,
          "267": -0.025380151346325874,
          "268": -0.05160416662693024,
          "269": 0.030566232278943062,
          "270": -0.015143470838665962,
          "271": 0.04345593601465225,
          "272": -0.05603569746017456,
          "273": 0.07408004999160767,
          "274": 0.02297668717801571,
          "275": 0.07301139831542969,
          "276": 0.03571401536464691,
          "277": -0.049871232360601425,
          "278": -0.017941027879714966,
          "279": 0.017108041793107986,
          "280": -0.022496813908219337,
          "281": -0.002292394172400236,
          "282": -0.018556958064436913,
          "283": 0.019595209509134293,
          "284": -0.015791436657309532,
          "285": -0.04654039815068245,
          "286": 0.0003732671029865742,
          "287": 0.006858117878437042,
          "288": -0.07875773310661316,
          "289": 0.01520411018282175,
          "290": -0.05188648775219917,
          "291": 0.039490167051553726,
          "292": 0.04540196433663368,
          "293": -0.012461923994123936,
          "294": -0.061068058013916016,
          "295": 0.03927110508084297,
          "296": 0.054681938141584396,
          "297": -0.07613293081521988,
          "298": 0.07024521380662918,
          "299": 0.07343410700559616,
          "300": 0.01227872259914875,
          "301": -0.053204141557216644,
          "302": -0.01500088069587946,
          "303": 0.03797832503914833,
          "304": 0.009564937092363834,
          "305": -0.07375432550907135,
          "306": -0.07219158858060837,
          "307": -0.06544949114322662,
          "308": -0.07528895884752274,
          "309": 0.064077228307724,
          "310": -0.03974352777004242,
          "311": -0.06000165641307831,
          "312": 0.00470924424007535,
          "313": 0.0007305689505301416,
          "314": -0.028077181428670883,
          "315": -0.0377739854156971,
          "316": 0.058894336223602295,
          "317": 0.07123039662837982,
          "318": 0.04285344108939171,
          "319": -0.02948952279984951,
          "320": 0.01124479342252016,
          "321": 0.048903919756412506,
          "322": 0.06220763549208641,
          "323": 0.045459285378456116,
          "324": -0.014927231706678867,
          "325": -0.03582904487848282,
          "326": 0.025569403544068336,
          "327": -0.014821326360106468,
          "328": 0.041726622730493546,
          "329": -0.020156534388661385,
          "330": 0.005722032859921455,
          "331": -0.005769135430455208,
          "332": 0.009453230537474155,
          "333": 0.05639791861176491,
          "334": -0.05984007939696312,
          "335": -0.014317993074655533,
          "336": -0.021052824333310127,
          "337": -0.07175710797309875,
          "338": 0.031422458589076996,
          "339": 0.006387262139469385,
          "340": -0.0514662079513073,
          "341": 0.07617998123168945,
          "342": -0.0371251106262207,
          "343": 0.0739348977804184,
          "344": 0.011339271441102028,
          "345": -0.05038578435778618,
          "346": -0.06872785091400146,
          "347": 0.03035511076450348,
          "348": 0.07870626449584961,
          "349": 0.02437160350382328,
          "350": -0.04421856999397278,
          "351": -0.07599394768476486,
          "352": -0.07530710846185684,
          "353": -0.027819572016596794,
          "354": -0.004339607898145914,
          "355": -0.02166697196662426,
          "356": -0.03865976631641388,
          "357": -0.0764574259519577,
          "358": 0.014837173745036125,
          "359": -0.07700079679489136,
          "360": 0.03700626268982887,
          "361": 0.04017283767461777,
          "362": -0.02550644427537918,
          "363": 0.01620757207274437,
          "364": -0.042846184223890305,
          "365": 0.061225734651088715,
          "366": 0.020181482657790184,
          "367": -0.037787165492773056,
          "368": 0.028242694213986397,
          "369": -0.0005763155641034245,
          "370": 0.06981240957975388,
          "371": -0.005293865222483873,
          "372": 0.002736744936555624,
          "373": 0.03924764692783356,
          "374": -0.06381824612617493,
          "375": 0.07950969785451889,
          "376": -0.06773848086595535,
          "377": 0.07111824303865433,
          "378": -0.07952744513750076,
          "379": 0.06124123930931091,
          "380": -0.07538671046495438,
          "381": 0.07658180594444275,
          "382": 0.007422375958412886,
          "383": -0.05005815625190735,
          "384": 0.012990935705602169,
          "385": 0.04662429541349411,
          "386": 0.011858072131872177,
          "387": 0.06822683662176132,
          "388": -0.053697504103183746,
          "389": 0.015151100233197212,
          "390": 0.043082091957330704,
          "391": -0.053575970232486725,
          "392": 0.0707881823182106,
          "393": 0.008957895450294018,
          "394": 0.07344119250774384,
          "395": 0.06579592078924179,
          "396": -0.0048297676257789135,
          "397": -0.044480662792921066,
          "398": 0.0416630320250988,
          "399": 0.03223850950598717
        }
      },
      "bias": {
        "rows": 20,
        "columns": 1,
        "weights": {
          "0": 0,
          "1": 0,
          "2": 0,
          "3": 0,
          "4": 0,
          "5": 0,
          "6": 0,
          "7": 0,
          "8": 0,
          "9": 0,
          "10": 0,
          "11": 0,
          "12": 0,
          "13": 0,
          "14": 0,
          "15": 0,
          "16": 0,
          "17": 0,
          "18": 0,
          "19": 0
        }
      }
    }
  ],
  "outputConnector": {
    "rows": 1,
    "columns": 20,
    "weights": {
      "0": -0.0011796458857133985,
      "1": -0.06598271429538727,
      "2": -0.023302540183067322,
      "3": 0.06448949128389359,
      "4": 0.0036338488571345806,
      "5": -0.06110479310154915,
      "6": 0.03864013031125069,
      "7": 0.05983104184269905,
      "8": -0.031285252422094345,
      "9": -0.06549639254808426,
      "10": -0.03792722523212433,
      "11": -0.027690738439559937,
      "12": 0.07498805969953537,
      "13": -0.05916404724121094,
      "14": -0.053550563752651215,
      "15": 0.04866188392043114,
      "16": 0.028392784297466278,
      "17": 0.07450994104146957,
      "18": 0.041598841547966,
      "19": -0.03160984441637993
    }
  },
  "output": {
    "rows": 1,
    "columns": 1,
    "weights": {
      "0": 0
    }
  }
}